{"learner":{"attributes":{"best_iteration":"276","best_score":"0.707866419259816"},"feature_names":["EloDifference","Color","ECO_A00","ECO_A40","ECO_A45","ECO_B10","ECO_B12","ECO_B13","ECO_D00","ECO_D02","ECO_D10","ECO_Other"],"feature_types":["int","int","int","int","int","int","int","int","int","int","int","int"],"gradient_booster":{"model":{"gbtree_model_param":{"num_parallel_tree":"1","num_trees":"981"},"iteration_indptr":[0,3,6,9,12,15,18,21,24,27,30,33,36,39,42,45,48,51,54,57,60,63,66,69,72,75,78,81,84,87,90,93,96,99,102,105,108,111,114,117,120,123,126,129,132,135,138,141,144,147,150,153,156,159,162,165,168,171,174,177,180,183,186,189,192,195,198,201,204,207,210,213,216,219,222,225,228,231,234,237,240,243,246,249,252,255,258,261,264,267,270,273,276,279,282,285,288,291,294,297,300,303,306,309,312,315,318,321,324,327,330,333,336,339,342,345,348,351,354,357,360,363,366,369,372,375,378,381,384,387,390,393,396,399,402,405,408,411,414,417,420,423,426,429,432,435,438,441,444,447,450,453,456,459,462,465,468,471,474,477,480,483,486,489,492,495,498,501,504,507,510,513,516,519,522,525,528,531,534,537,540,543,546,549,552,555,558,561,564,567,570,573,576,579,582,585,588,591,594,597,600,603,606,609,612,615,618,621,624,627,630,633,636,639,642,645,648,651,654,657,660,663,666,669,672,675,678,681,684,687,690,693,696,699,702,705,708,711,714,717,720,723,726,729,732,735,738,741,744,747,750,753,756,759,762,765,768,771,774,777,780,783,786,789,792,795,798,801,804,807,810,813,816,819,822,825,828,831,834,837,840,843,846,849,852,855,858,861,864,867,870,873,876,879,882,885,888,891,894,897,900,903,906,909,912,915,918,921,924,927,930,933,936,939,942,945,948,951,954,957,960,963,966,969,972,975,978,981],"tree_info":[0,1,2,0,1,2,0,1,2,0,1,2,0,1,2,0,1,2,0,1,2,0,1,2,0,1,2,0,1,2,0,1,2,0,1,2,0,1,2,0,1,2,0,1,2,0,1,2,0,1,2,0,1,2,0,1,2,0,1,2,0,1,2,0,1,2,0,1,2,0,1,2,0,1,2,0,1,2,0,1,2,0,1,2,0,1,2,0,1,2,0,1,2,0,1,2,0,1,2,0,1,2,0,1,2,0,1,2,0,1,2,0,1,2,0,1,2,0,1,2,0,1,2,0,1,2,0,1,2,0,1,2,0,1,2,0,1,2,0,1,2,0,1,2,0,1,2,0,1,2,0,1,2,0,1,2,0,1,2,0,1,2,0,1,2,0,1,2,0,1,2,0,1,2,0,1,2,0,1,2,0,1,2,0,1,2,0,1,2,0,1,2,0,1,2,0,1,2,0,1,2,0,1,2,0,1,2,0,1,2,0,1,2,0,1,2,0,1,2,0,1,2,0,1,2,0,1,2,0,1,2,0,1,2,0,1,2,0,1,2,0,1,2,0,1,2,0,1,2,0,1,2,0,1,2,0,1,2,0,1,2,0,1,2,0,1,2,0,1,2,0,1,2,0,1,2,0,1,2,0,1,2,0,1,2,0,1,2,0,1,2,0,1,2,0,1,2,0,1,2,0,1,2,0,1,2,0,1,2,0,1,2,0,1,2,0,1,2,0,1,2,0,1,2,0,1,2,0,1,2,0,1,2,0,1,2,0,1,2,0,1,2,0,1,2,0,1,2,0,1,2,0,1,2,0,1,2,0,1,2,0,1,2,0,1,2,0,1,2,0,1,2,0,1,2,0,1,2,0,1,2,0,1,2,0,1,2,0,1,2,0,1,2,0,1,2,0,1,2,0,1,2,0,1,2,0,1,2,0,1,2,0,1,2,0,1,2,0,1,2,0,1,2,0,1,2,0,1,2,0,1,2,0,1,2,0,1,2,0,1,2,0,1,2,0,1,2,0,1,2,0,1,2,0,1,2,0,1,2,0,1,2,0,1,2,0,1,2,0,1,2,0,1,2,0,1,2,0,1,2,0,1,2,0,1,2,0,1,2,0,1,2,0,1,2,0,1,2,0,1,2,0,1,2,0,1,2,0,1,2,0,1,2,0,1,2,0,1,2,0,1,2,0,1,2,0,1,2,0,1,2,0,1,2,0,1,2,0,1,2,0,1,2,0,1,2,0,1,2,0,1,2,0,1,2,0,1,2,0,1,2,0,1,2,0,1,2,0,1,2,0,1,2,0,1,2,0,1,2,0,1,2,0,1,2,0,1,2,0,1,2,0,1,2,0,1,2,0,1,2,0,1,2,0,1,2,0,1,2,0,1,2,0,1,2,0,1,2,0,1,2,0,1,2,0,1,2,0,1,2,0,1,2,0,1,2,0,1,2,0,1,2,0,1,2,0,1,2,0,1,2,0,1,2,0,1,2,0,1,2,0,1,2,0,1,2,0,1,2,0,1,2,0,1,2,0,1,2,0,1,2,0,1,2,0,1,2,0,1,2,0,1,2,0,1,2,0,1,2,0,1,2,0,1,2,0,1,2,0,1,2,0,1,2,0,1,2,0,1,2,0,1,2,0,1,2,0,1,2,0,1,2,0,1,2,0,1,2,0,1,2,0,1,2,0,1,2,0,1,2,0,1,2,0,1,2,0,1,2,0,1,2,0,1,2,0,1,2,0,1,2,0,1,2,0,1,2,0,1,2,0,1,2,0,1,2,0,1,2,0,1,2,0,1,2,0,1,2,0,1,2,0,1,2,0,1,2,0,1,2,0,1,2,0,1,2,0,1,2,0,1,2,0,1,2,0,1,2,0,1,2,0,1,2,0,1,2,0,1,2,0,1,2,0,1,2,0,1,2,0,1,2,0,1,2,0,1,2,0,1,2,0,1,2,0,1,2,0,1,2,0,1,2,0,1,2,0,1,2,0,1,2,0,1,2,0,1,2,0,1,2,0,1,2,0,1,2,0,1,2,0,1,2,0,1,2,0,1,2,0,1,2,0,1,2,0,1,2,0,1,2,0,1,2,0,1,2,0,1,2,0,1,2,0,1,2,0,1,2,0,1,2,0,1,2,0,1,2,0,1,2,0,1,2,0,1,2,0,1,2,0,1,2,0,1,2,0,1,2,0,1,2,0,1,2,0,1,2,0,1,2],"trees":[{"base_weights":[3.941528E-1,1.5173912E-1,1.3753366E0,-5.836601E-1,3.6809325E-1,1.4301565E0,9.876322E-1,1.0220583E-3,-6.2870714E-3,1.921214E-3,4.860633E-3,1.5037851E-2,1.4161503E-2,1.1299778E-2,5.611765E-3],"categories":[],"categories_nodes":[],"categories_segments":[],"categories_sizes":[],"default_left":[0,0,0,0,0,0,0,0,0,0,0,0,0,0,0],"id":0,"left_children":[1,3,5,7,9,11,13,-1,-1,-1,-1,-1,-1,-1,-1],"loss_changes":[4.2336547E4,2.2710121E4,7.475547E2,6.897969E2,2.129918E3,5.4210938E1,2.235752E2,0E0,0E0,0E0,0E0,0E0,0E0,0E0,0E0],"parents":[2147483647,0,0,1,1,2,2,3,3,4,4,5,5,6,6],"right_children":[2,4,6,8,10,12,14,-1,-1,-1,-1,-1,-1,-1,-1],"split_conditions":[3.3E1,-3.2E1,6.5E1,-1.23E2,-7E0,1E0,1E0,1.0220583E-3,-6.2870714E-3,1.921214E-3,4.860633E-3,1.5037851E-2,1.4161503E-2,1.1299778E-2,5.611765E-3],"split_indices":[0,0,0,0,0,1,11,0,0,0,0,0,0,0,0],"split_type":[0,0,0,0,0,0,0,0,0,0,0,0,0,0,0],"sum_hessian":[1.7800025E5,1.427363E5,3.526396E4,3.2446203E4,1.10290086E5,3.0893652E4,4.3703076E3,1.4099602E3,3.1036242E4,4.1128734E4,6.916135E4,1.6381984E4,1.4511667E4,3.4475657E3,9.227422E2],"tree_param":{"num_deleted":"0","num_feature":"12","num_nodes":"15","size_leaf_vector":"1"}},{"base_weights":[-7.395626E-1,-7.565839E-3,-6.9418377E-1,1.4536881E-2,-7.2126245E-1,-7.65755E-3,-6.3767363E-3],"categories":[],"categories_nodes":[],"categories_segments":[],"categories_sizes":[],"default_left":[0,0,0,0,0,0,0],"id":1,"left_children":[1,-1,3,-1,5,-1,-1],"loss_changes":[5.390625E-1,0E0,4.7393066E1,0E0,1.120697E0,0E0,0E0],"parents":[2147483647,0,0,2,2,4,4],"right_children":[2,-1,4,-1,6,-1,-1],"split_conditions":[2.01E2,-7.565839E-3,2.25E2,1.4536881E-2,1E0,-7.65755E-3,-6.3767363E-3],"split_indices":[0,0,0,0,2,0,0],"split_type":[0,0,0,0,0,0,0],"sum_hessian":[1.7386314E5,1.7302605E5,8.3709235E2,1.0204724E1,8.2688763E2,6.39027E2,1.8786064E2],"tree_param":{"num_deleted":"0","num_feature":"12","num_nodes":"7","size_leaf_vector":"1"}},{"base_weights":[3.7923646E-1,7.3200315E-1,-3.6148062E-1,1.3430572E0,5.114659E-1,5.1442627E-2,-6.1885446E-1,-7.624211E-3,1.3856184E-2,6.8891402E-3,3.9115413E-3,1.0640125E-3,-3.8898129E-3,-7.0073614E-3,-1.8997237E-3],"categories":[],"categories_nodes":[],"categories_segments":[],"categories_sizes":[],"default_left":[0,0,0,0,0,0,0,0,0,0,0,0,0,0,0],"id":2,"left_children":[1,3,5,7,9,11,13,-1,-1,-1,-1,-1,-1,-1,-1],"loss_changes":[4.6167176E4,1.6127043E4,6.057963E3,7.8147266E2,1.838666E3,4.967646E2,1.00782227E3,0E0,0E0,0E0,0E0,0E0,0E0,0E0,0E0],"parents":[2147483647,0,0,1,1,2,2,3,3,4,4,5,5,6,6],"right_children":[2,4,6,8,10,12,14,-1,-1,-1,-1,-1,-1,-1,-1],"split_conditions":[1.8E1,-3.2E1,3.3E1,-2.69E2,-8E0,1E0,6.5E1,-7.624211E-3,1.3856184E-2,6.8891402E-3,3.9115413E-3,1.0640125E-3,-3.8898129E-3,-7.0073614E-3,-1.8997237E-3],"split_indices":[0,0,0,0,0,9,0,0,0,0,0,0,0,0,0],"split_type":[0,0,0,0,0,0,0,0,0,0,0,0,0,0,0],"sum_hessian":[1.7668131E5,1.1968323E5,5.6998082E4,3.173892E4,8.7944305E4,2.1884344E4,3.511374E4,1.7765591E2,3.1561266E4,3.896358E4,4.8980727E4,1.950974E4,2.3746038E3,3.0449512E4,4.6642275E3],"tree_param":{"num_deleted":"0","num_feature":"12","num_nodes":"15","size_leaf_vector":"1"}},{"base_weights":[3.4811822E-1,8.0911994E-2,1.3226792E0,-6.056581E-1,2.9079664E-1,1.3677857E0,1.0014647E0,-4.203496E-3,-7.020193E-3,1.7443072E-3,5.356866E-3,9.105326E-3,1.4212717E-2,1.0667991E-2,-7.6331613E-3],"categories":[],"categories_nodes":[],"categories_segments":[],"categories_sizes":[],"default_left":[0,0,0,0,0,0,0,0,0,0,0,0,0,0,0],"id":3,"left_children":[1,3,5,7,9,11,13,-1,-1,-1,-1,-1,-1,-1,-1],"loss_changes":[4.5862477E4,1.9917896E4,5.471953E2,5.078672E2,2.9651826E3,3.458711E2,3.399956E2,0E0,0E0,0E0,0E0,0E0,0E0,0E0,0E0],"parents":[2147483647,0,0,1,1,2,2,3,3,4,4,5,5,6,6],"right_children":[2,4,6,8,10,12,14,-1,-1,-1,-1,-1,-1,-1,-1],"split_conditions":[3.2E1,-3.2E1,6.5E1,-5.6E1,7E0,3.3E1,1E0,-4.203496E-3,-7.020193E-3,1.7443072E-3,5.356866E-3,9.105326E-3,1.4212717E-2,1.0667991E-2,-7.6331613E-3],"split_indices":[0,0,0,0,0,0,4,0,0,0,0,0,0,0,0],"split_type":[0,0,0,0,0,0,0,0,0,0,0,0,0,0,0],"sum_hessian":[1.7612158E5,1.3822398E5,3.789759E4,3.236113E4,1.0586286E5,3.3228926E4,4.668662E3,9.493053E3,2.2868078E4,6.982918E4,3.6033684E4,1.4597712E3,3.1769154E4,4.5604805E3,1.0818154E2],"tree_param":{"num_deleted":"0","num_feature":"12","num_nodes":"15","size_leaf_vector":"1"}},{"base_weights":[-7.3646677E-1,-7.3670435E-1,-6.4819574E-1,-7.3590404E-1,-7.624589E-3,1.4439601E-2,-6.956652E-1,-7.6119946E-3,-7.516158E-3,-5.3723264E-3,-7.619183E-3],"categories":[],"categories_nodes":[],"categories_segments":[],"categories_sizes":[],"default_left":[0,0,0,0,0,0,0,0,0,0,0],"id":4,"left_children":[1,3,5,7,-1,-1,9,-1,-1,-1,-1],"loss_changes":[2.5E0,2.34375E-2,4.5528275E1,1.09375E-1,0E0,0E0,2.856964E0,0E0,0E0,0E0,0E0],"parents":[2147483647,0,0,1,1,2,2,3,3,6,6],"right_children":[2,4,6,8,-1,-1,10,-1,-1,-1,-1],"split_conditions":[2.11E2,5.3E1,2.25E2,-4.4E1,-7.624589E-3,1.4439601E-2,1E0,-7.6119946E-3,-7.516158E-3,-5.3723264E-3,-7.619183E-3],"split_indices":[0,0,0,0,0,0,1,0,0,0,0],"split_type":[0,0,0,0,0,0,0,0,0,0,0],"sum_hessian":[1.7223372E5,1.7176228E5,4.714427E2,1.5755317E5,1.42091E4,1.02379465E1,4.6120474E2,1.646416E4,1.4108902E5,1.072058E2,3.5399893E2],"tree_param":{"num_deleted":"0","num_feature":"12","num_nodes":"11","size_leaf_vector":"1"}},{"base_weights":[3.7448046E-1,6.245009E-1,-6.0508806E-1,1.3319242E0,4.152728E-1,-6.536372E-1,-3.091971E-1,5.686646E-3,1.4018405E-2,6.6648945E-3,2.7013607E-3,-1.5102632E-3,-6.945224E-3,4.370381E-3,-3.7714252E-3],"categories":[],"categories_nodes":[],"categories_segments":[],"categories_sizes":[],"default_left":[0,0,0,0,0,0,0,0,0,0,0,0,0,0,0],"id":5,"left_children":[1,3,5,7,9,11,13,-1,-1,-1,-1,-1,-1,-1,-1],"loss_changes":[4.2587656E4,2.0503121E4,5.071455E2,9.4976953E2,3.8193203E3,3.905381E2,2.1870471E2,0E0,0E0,0E0,0E0,0E0,0E0,0E0,0E0],"parents":[2147483647,0,0,1,1,2,2,3,3,4,4,5,5,6,6],"right_children":[2,4,6,8,10,12,14,-1,-1,-1,-1,-1,-1,-1,-1],"split_conditions":[3.2E1,-3.2E1,6.5E1,-1.23E2,-7E0,3.3E1,6.7E1,5.686646E-3,1.4018405E-2,6.6648945E-3,2.7013607E-3,-1.5102632E-3,-6.945224E-3,4.370381E-3,-3.7714252E-3],"split_indices":[0,0,0,0,0,0,0,0,0,0,0,0,0,0,0],"split_type":[0,0,0,0,0,0,0,0,0,0,0,0,0,0,0],"sum_hessian":[1.7388952E5,1.3853208E5,3.5357445E4,3.1619426E4,1.0691265E5,3.0371455E4,4.9859907E3,1.5060032E3,3.0113424E4,4.1692023E4,6.522063E4,1.4564319E3,2.8915021E4,3.7206897E2,4.613922E3],"tree_param":{"num_deleted":"0","num_feature":"12","num_nodes":"15","size_leaf_vector":"1"}},{"base_weights":[3.646641E-1,1.1119228E-1,1.3158028E0,-5.697947E-1,3.2757932E-1,1.356744E0,8.026731E-1,8.3893945E-5,-6.0743545E-3,1.37967E-3,4.475658E-3,9.851891E-3,1.4034114E-2,4.0004286E-3,1.1683666E-2],"categories":[],"categories_nodes":[],"categories_segments":[],"categories_sizes":[],"default_left":[0,0,0,0,0,0,0,0,0,0,0,0,0,0,0],"id":6,"left_children":[1,3,5,7,9,11,13,-1,-1,-1,-1,-1,-1,-1,-1],"loss_changes":[4.169035E4,2.0120512E4,7.626953E2,4.6000195E2,2.1965908E3,2.0352344E2,3.7487744E2,0E0,0E0,0E0,0E0,0E0,0E0,0E0,0E0],"parents":[2147483647,0,0,1,1,2,2,3,3,4,4,5,5,6,6],"right_children":[2,4,6,8,10,12,14,-1,-1,-1,-1,-1,-1,-1,-1],"split_conditions":[3.2E1,-3E1,1.03E2,-1.23E2,-7E0,3.3E1,1.74E2,8.3893945E-5,-6.0743545E-3,1.37967E-3,4.475658E-3,9.851891E-3,1.4034114E-2,4.0004286E-3,1.1683666E-2],"split_indices":[0,0,0,0,0,0,0,0,0,0,0,0,0,0,0],"split_type":[0,0,0,0,0,0,0,0,0,0,0,0,0,0,0],"sum_hessian":[1.729314E5,1.3654417E5,3.638723E4,3.2924496E4,1.0361968E5,3.369707E4,2.690161E3,1.3190189E3,3.1605479E4,3.7670176E4,6.594951E4,1.2785933E3,3.2418477E4,1.2176362E3,1.4725245E3],"tree_param":{"num_deleted":"0","num_feature":"12","num_nodes":"15","size_leaf_vector":"1"}},{"base_weights":[-7.332207E-1,-7.317324E-1,-7.395496E-1,-7.5145424E-3,-7.2427803E-1,-7.5763175E-3,-6.8985856E-1,-7.436332E-3,-7.1221613E-3,-7.3322444E-3,1.4242774E-2],"categories":[],"categories_nodes":[],"categories_segments":[],"categories_sizes":[],"default_left":[0,0,0,0,0,0,0,0,0,0,0],"id":7,"left_children":[1,3,5,-1,7,-1,9,-1,-1,-1,-1],"loss_changes":[4.6875E-1,2.0234375E0,9.21875E-1,0E0,2.1054688E0,0E0,4.6400696E1,0E0,0E0,0E0,0E0],"parents":[2147483647,0,0,1,1,2,2,4,4,6,6],"right_children":[2,4,6,-1,8,-1,10,-1,-1,-1,-1],"split_conditions":[3.4E1,6E0,2.11E2,-7.5145424E-3,1E0,-7.5763175E-3,1E0,-7.436332E-3,-7.1221613E-3,-7.3322444E-3,1.4242774E-2],"split_indices":[0,0,0,0,9,0,4,0,0,0,0],"split_type":[0,0,0,0,0,0,0,0,0,0,0],"sum_hessian":[1.7502477E5,1.4180592E5,3.3218844E4,1.0075354E5,4.105239E4,3.238639E4,8.32455E2,3.7235766E4,3.8166252E3,8.221499E2,1.0305109E1],"tree_param":{"num_deleted":"0","num_feature":"12","num_nodes":"11","size_leaf_vector":"1"}},{"base_weights":[3.5906848E-1,6.1520404E-1,-5.997078E-1,1.3297122E0,4.0503532E-1,-6.356285E-1,-2.229313E-2,-7.642858E-3,1.3723275E-2,6.196606E-3,2.8949508E-3,-5.3533568E-6,-6.792642E-3,-2.4782408E-3,1.0039135E-2],"categories":[],"categories_nodes":[],"categories_segments":[],"categories_sizes":[],"default_left":[0,0,0,0,0,0,0,0,0,0,0,0,0,0,0],"id":8,"left_children":[1,3,5,7,9,11,13,-1,-1,-1,-1,-1,-1,-1,-1],"loss_changes":[4.2079633E4,2.0305082E4,7.487363E2,7.748828E2,2.5592324E3,6.1603125E2,4.6701736E2,0E0,0E0,0E0,0E0,0E0,0E0,0E0,0E0],"parents":[2147483647,0,0,1,1,2,2,3,3,4,4,5,5,6,6],"right_children":[2,4,6,8,10,12,14,-1,-1,-1,-1,-1,-1,-1,-1],"split_conditions":[3.2E1,-3.2E1,1.06E2,-2.69E2,-7E0,3.3E1,1E0,-7.642858E-3,1.3723275E-2,6.196606E-3,2.8949508E-3,-5.3533568E-6,-6.792642E-3,-2.4782408E-3,1.0039135E-2],"split_indices":[0,0,0,0,0,0,9,0,0,0,0,0,0,0,0],"split_type":[0,0,0,0,0,0,0,0,0,0,0,0,0,0,0],"sum_hessian":[1.7135022E5,1.3522572E5,3.61245E4,3.073443E4,1.0449129E5,3.4007516E4,2.1169822E3,1.7808217E2,3.0556346E4,3.9476023E4,6.5015266E4,1.4640347E3,3.2543482E4,1.7370682E3,3.7991388E2],"tree_param":{"num_deleted":"0","num_feature":"12","num_nodes":"15","size_leaf_vector":"1"}},{"base_weights":[3.463469E-1,3.171027E-1,5.539024E-3,3.9817205E-1,2.0935582E-1,4.413032E-3,1.4743652E-3,2.2621783E-3,7.1805716E-4],"categories":[],"categories_nodes":[],"categories_segments":[],"categories_sizes":[],"default_left":[0,0,0,0,0,0,0,0,0],"id":9,"left_children":[1,3,-1,5,7,-1,-1,-1,-1],"loss_changes":[9.925703E2,1.3210713E3,0E0,7.303955E2,1.0676489E2,0E0,0E0,0E0,0E0],"parents":[2147483647,0,0,1,1,3,3,4,4],"right_children":[2,4,-1,6,8,-1,-1,-1,-1],"split_conditions":[1E0,1E0,5.539024E-3,1E0,1E0,4.413032E-3,1.4743652E-3,2.2621783E-3,7.1805716E-4],"split_indices":[5,1,0,11,2,0,0,0,0],"split_type":[0,0,0,0,0,0,0,0,0],"sum_hessian":[1.7395161E5,1.5129516E5,2.265646E4,8.6331445E4,6.496371E4,7.6315125E4,1.0016317E4,5.9865277E4,5.0984346E3],"tree_param":{"num_deleted":"0","num_feature":"12","num_nodes":"9","size_leaf_vector":"1"}},{"base_weights":[-7.3148394E-1,-7.318301E-1,-6.591841E-1,-7.30638E-1,-7.5728945E-3,-6.8590385E-1,1.4150545E-2,-7.5693065E-3,-7.458738E-3,-5.2545182E-3,-7.2462196E-3],"categories":[],"categories_nodes":[],"categories_segments":[],"categories_sizes":[],"default_left":[0,0,0,0,0,0,0,0,0,0,0],"id":10,"left_children":[1,3,5,7,-1,9,-1,-1,-1,-1,-1],"loss_changes":[3.1875E0,5.78125E-1,4.4778046E1,7.1875E-1,0E0,2.213501E0,0E0,0E0,0E0,0E0,0E0],"parents":[2147483647,0,0,1,1,2,2,3,3,5,5],"right_children":[2,4,6,8,-1,10,-1,-1,-1,-1,-1],"split_conditions":[2.11E2,4.6E1,1E0,-4.4E1,-7.5728945E-3,2.25E2,1.4150545E-2,-7.5693065E-3,-7.458738E-3,-5.2545182E-3,-7.2462196E-3],"split_indices":[0,0,4,0,0,0,0,0,0,0,0],"split_type":[0,0,0,0,0,0,0,0,0,0,0],"sum_hessian":[1.719749E5,1.711443E5,8.3061725E2,1.5046956E5,2.0674736E4,8.202807E2,1.0336538E1,1.8474354E4,1.319952E5,9.940277E1,7.208779E2],"tree_param":{"num_deleted":"0","num_feature":"12","num_nodes":"11","size_leaf_vector":"1"}},{"base_weights":[3.6382127E-1,7.4904305E-1,-2.714803E-1,1.2831974E0,5.3360826E-1,1.0586368E-1,-5.979524E-1,6.060321E-3,1.34983715E-2,6.384481E-3,4.4590337E-3,1.5073706E-3,-2.714052E-3,-6.7340145E-3,-2.1657893E-3],"categories":[],"categories_nodes":[],"categories_segments":[],"categories_sizes":[],"default_left":[0,0,0,0,0,0,0,0,0,0,0,0,0,0,0],"id":11,"left_children":[1,3,5,7,9,11,13,-1,-1,-1,-1,-1,-1,-1,-1],"loss_changes":[4.3910008E4,1.285175E4,8.3436455E3,8.110781E2,7.0348047E2,4.8417474E2,8.475537E2,0E0,0E0,0E0,0E0,0E0,0E0,0E0,0E0],"parents":[2147483647,0,0,1,1,2,2,3,3,4,4,5,5,6,6],"right_children":[2,4,6,8,10,12,14,-1,-1,-1,-1,-1,-1,-1,-1],"split_conditions":[1.2E1,-3.2E1,3.3E1,-1.23E2,-7E0,1E0,6.5E1,6.060321E-3,1.34983715E-2,6.384481E-3,4.4590337E-3,1.5073706E-3,-2.714052E-3,-6.7340145E-3,-2.1657893E-3],"split_indices":[0,0,0,0,0,9,0,0,0,0,0,0,0,0,0],"split_type":[0,0,0,0,0,0,0,0,0,0,0,0,0,0,0],"sum_hessian":[1.7941919E5,1.1169376E5,6.772542E4,3.2100146E4,7.959361E4,3.1413975E4,3.631145E4,1.6189508E3,3.0481195E4,4.126216E4,3.8331453E4,2.8255611E4,3.1583645E3,3.139222E4,4.91923E3],"tree_param":{"num_deleted":"0","num_feature":"12","num_nodes":"15","size_leaf_vector":"1"}},{"base_weights":[3.5946122E-1,1.0322723E-1,1.3008666E0,-5.735554E-1,3.0060127E-1,1.3333848E0,8.1504816E-1,9.109823E-3,-6.03979E-3,2.1858956E-3,5.5102278E-3,7.985455E-3,1.3847952E-2,3.0284638E-3,1.305323E-2],"categories":[],"categories_nodes":[],"categories_segments":[],"categories_sizes":[],"default_left":[0,0,0,0,0,0,0,0,0,0,0,0,0,0,0],"id":12,"left_children":[1,3,5,7,9,11,13,-1,-1,-1,-1,-1,-1,-1,-1],"loss_changes":[4.3227668E4,1.8816836E4,6.0398047E2,7.9182227E2,2.2559219E3,4.083086E2,5.748766E2,0E0,0E0,0E0,0E0,0E0,0E0,0E0,0E0],"parents":[2147483647,0,0,1,1,2,2,3,3,4,4,5,5,6,6],"right_children":[2,4,6,8,10,12,14,-1,-1,-1,-1,-1,-1,-1,-1],"split_conditions":[3.2E1,-3.2E1,1.06E2,-1.54E2,1.2E1,3.3E1,1.74E2,9.109823E-3,-6.03979E-3,2.1858956E-3,5.5102278E-3,7.985455E-3,1.3847952E-2,3.0284638E-3,1.305323E-2],"split_indices":[0,0,0,0,0,0,0,0,0,0,0,0,0,0,0],"split_type":[0,0,0,0,0,0,0,0,0,0,0,0,0,0,0],"sum_hessian":[1.7920895E5,1.4086802E5,3.8340938E4,3.1805383E4,1.0906263E5,3.593406E4,2.4068816E3,3.646186E2,3.1440764E4,7.991875E4,2.9143883E4,1.295847E3,3.463821E4,1.1334797E3,1.2734017E3],"tree_param":{"num_deleted":"0","num_feature":"12","num_nodes":"15","size_leaf_vector":"1"}},{"base_weights":[-7.2720224E-1,-7.2551626E-1,-7.339591E-1,-7.505569E-3,-7.241825E-1,-7.5185103E-3,-6.940839E-1,-7.3354235E-3,-7.4325325E-3,-5.9241937E-3,-7.568459E-3],"categories":[],"categories_nodes":[],"categories_segments":[],"categories_sizes":[],"default_left":[0,0,0,0,0,0,0,0,0,0,0],"id":13,"left_children":[1,3,5,-1,7,-1,9,-1,-1,-1,-1],"loss_changes":[7.734375E-1,3.515625E-1,4.609375E-1,0E0,9.296875E-1,0E0,4.226532E0,0E0,0E0,0E0,0E0],"parents":[2147483647,0,0,1,1,2,2,4,4,6,6],"right_children":[2,4,6,-1,8,-1,10,-1,-1,-1,-1],"split_conditions":[3.4E1,-4.4E1,2.11E2,-7.505569E-3,-1.9E1,-7.5185103E-3,1E0,-7.3354235E-3,-7.4325325E-3,-5.9241937E-3,-7.568459E-3],"split_indices":[0,0,0,0,0,0,1,0,0,0,0],"split_type":[0,0,0,0,0,0,0,0,0,0,0],"sum_hessian":[1.7010236E5,1.3622948E5,3.387287E4,1.864533E4,1.1758416E5,3.287124E4,1.0016343E3,3.1792096E4,8.579206E4,2.9125952E2,7.1037476E2],"tree_param":{"num_deleted":"0","num_feature":"12","num_nodes":"11","size_leaf_vector":"1"}},{"base_weights":[3.6688158E-1,6.18851E-1,-6.0202676E-1,1.2435787E0,4.1547823E-1,-6.4977854E-1,-2.9888877E-1,9.693641E-3,1.3237725E-2,5.1584346E-3,1.8836535E-3,-1.5047184E-3,-6.8976716E-3,-4.096966E-3,5.504938E-4],"categories":[],"categories_nodes":[],"categories_segments":[],"categories_sizes":[],"default_left":[0,0,0,0,0,0,0,0,0,0,0,0,0,0,0],"id":14,"left_children":[1,3,5,7,9,11,13,-1,-1,-1,-1,-1,-1,-1,-1],"loss_changes":[4.257468E4,1.7582637E4,5.202158E2,5.0872656E2,2.1465352E3,3.848164E2,1.7606448E2,0E0,0E0,0E0,0E0,0E0,0E0,0E0,0E0],"parents":[2147483647,0,0,1,1,2,2,3,3,4,4,5,5,6,6],"right_children":[2,4,6,8,10,12,14,-1,-1,-1,-1,-1,-1,-1,-1],"split_conditions":[3.2E1,-3E1,6.5E1,-6.4E1,1.2E1,3.3E1,1E0,9.693641E-3,1.3237725E-2,5.1584346E-3,1.8836535E-3,-1.5047184E-3,-6.8976716E-3,-4.096966E-3,5.504938E-4],"split_indices":[0,0,0,0,0,0,11,0,0,0,0,0,0,0,0],"split_type":[0,0,0,0,0,0,0,0,0,0,0,0,0,0,0],"sum_hessian":[1.7438969E5,1.3839914E5,3.599055E4,3.3988402E4,1.04410734E5,3.1090393E4,4.900158E3,4.983645E3,2.9004756E4,7.541794E4,2.8992791E4,1.4558446E3,2.9634547E4,3.8051895E3,1.0949688E3],"tree_param":{"num_deleted":"0","num_feature":"12","num_nodes":"15","size_leaf_vector":"1"}},{"base_weights":[3.5336328E-1,3.4278996E-2,1.0275555E0,-5.9644926E-1,2.5280154E-1,6.172578E-1,1.288715E0,-3.2995285E-3,-6.557799E-3,1.1036007E-3,3.7559797E-3,5.645586E-3,1.1645397E-2,1.3648125E-2,1.0332969E-2],"categories":[],"categories_nodes":[],"categories_segments":[],"categories_sizes":[],"default_left":[0,0,0,0,0,0,0,0,0,0,0,0,0,0,0],"id":15,"left_children":[1,3,5,7,9,11,13,-1,-1,-1,-1,-1,-1,-1,-1],"loss_changes":[3.747872E4,1.6298712E4,5.995551E3,3.7219043E2,1.4561104E3,7.391738E2,4.339336E2,0E0,0E0,0E0,0E0,0E0,0E0,0E0,0E0],"parents":[2147483647,0,0,1,1,2,2,3,3,4,4,5,5,6,6],"right_children":[2,4,6,8,10,12,14,-1,-1,-1,-1,-1,-1,-1,-1],"split_conditions":[1.8E1,-3.2E1,3.3E1,-6.6E1,-8E0,1E0,6.5E1,-3.2995285E-3,-6.557799E-3,1.1036007E-3,3.7559797E-3,5.645586E-3,1.1645397E-2,1.3648125E-2,1.0332969E-2],"split_indices":[0,0,0,0,0,9,0,0,0,0,0,0,0,0,0],"split_type":[0,0,0,0,0,0,0,0,0,0,0,0,0,0,0],"sum_hessian":[1.7422303E5,1.182557E5,5.596732E4,3.0427686E4,8.782802E4,2.1769365E4,3.4197953E4,4.2777666E3,2.614992E4,3.876284E4,4.906518E4,1.9349824E4,2.4195398E3,2.936567E4,4.8322856E3],"tree_param":{"num_deleted":"0","num_feature":"12","num_nodes":"15","size_leaf_vector":"1"}},{"base_weights":[-7.2473615E-1,-7.250607E-1,-6.618446E-1,-7.2324866E-1,-7.4760537E-3,-3.2089058E-1,-7.0716834E-1,-7.480537E-3,-7.3822234E-3,1.4772028E-2,-7.556676E-3,-7.522851E-3,-5.0393785E-3],"categories":[],"categories_nodes":[],"categories_segments":[],"categories_sizes":[],"default_left":[0,0,0,0,0,0,0,0,0,0,0,0,0],"id":16,"left_children":[1,3,5,7,-1,9,11,-1,-1,-1,-1,-1,-1],"loss_changes":[2.4609375E0,7.109375E-1,1.3270935E1,3.984375E-1,0E0,7.993722E1,3.9059753E0,0E0,0E0,0E0,0E0,0E0,0E0],"parents":[2147483647,0,0,1,1,2,2,3,3,5,5,6,6],"right_children":[2,4,6,8,-1,10,12,-1,-1,-1,-1,-1,-1],"split_conditions":[2.01E2,2.8E1,2.25E2,-4.3E1,-7.4760537E-3,1E0,1E0,-7.480537E-3,-7.3822234E-3,1.4772028E-2,-7.556676E-3,-7.522851E-3,-5.0393785E-3],"split_indices":[0,0,0,0,0,1,2,0,0,0,0,0,0],"split_type":[0,0,0,0,0,0,0,0,0,0,0,0,0],"sum_hessian":[1.7518478E5,1.7427264E5,9.121386E2,1.3362764E5,4.0645008E4,1.0910191E2,8.030367E2,1.9723412E4,1.1390422E5,2.0520355E1,8.858156E1,7.0579584E2,9.724084E1],"tree_param":{"num_deleted":"0","num_feature":"12","num_nodes":"13","size_leaf_vector":"1"}},{"base_weights":[3.3305264E-1,5.678019E-1,-6.197134E-1,1.2179178E0,3.5823166E-1,-6.5943384E-1,-3.3877712E-1,-7.6749944E-3,1.2561137E-2,5.6595425E-3,2.634643E-3,-6.8436083E-3,-5.350991E-3,-2.7725112E-3,-7.60032E-3],"categories":[],"categories_nodes":[],"categories_segments":[],"categories_sizes":[],"default_left":[0,0,0,0,0,0,0,0,0,0,0,0,0,0,0],"id":17,"left_children":[1,3,5,7,9,11,13,-1,-1,-1,-1,-1,-1,-1,-1],"loss_changes":[3.9395383E4,1.9252898E4,3.877373E2,6.9834375E2,2.0978672E3,3.945117E1,1.1730252E2,0E0,0E0,0E0,0E0,0E0,0E0,0E0,0E0],"parents":[2147483647,0,0,1,1,2,2,3,3,4,4,5,5,6,6],"right_children":[2,4,6,8,10,12,14,-1,-1,-1,-1,-1,-1,-1,-1],"split_conditions":[3.3E1,-3E1,6.5E1,-2.69E2,-8E0,1E0,1E0,-7.6749944E-3,1.2561137E-2,5.6595425E-3,2.634643E-3,-6.8436083E-3,-5.350991E-3,-2.7725112E-3,-7.60032E-3],"split_indices":[0,0,0,0,0,7,3,0,0,0,0,0,0,0,0],"split_type":[0,0,0,0,0,0,0,0,0,0,0,0,0,0,0],"sum_hessian":[1.7613886E5,1.4132022E5,3.481864E4,3.444945E4,1.0687077E5,3.050308E4,4.3155615E3,1.7880246E2,3.4270645E4,3.6354254E4,7.0516516E4,2.8465053E4,2.0380288E3,3.6984841E3,6.1707745E2],"tree_param":{"num_deleted":"0","num_feature":"12","num_nodes":"15","size_leaf_vector":"1"}},{"base_weights":[3.4055474E-1,3.1031838E-1,5.635331E-3,3.7095985E-1,2.2897495E-1,4.1187103E-3,8.752188E-4,2.5963027E-3,9.2002086E-4],"categories":[],"categories_nodes":[],"categories_segments":[],"categories_sizes":[],"default_left":[0,0,0,0,0,0,0,0,0],"id":18,"left_children":[1,3,-1,5,7,-1,-1,-1,-1],"loss_changes":[1.1108438E3,7.529199E2,0E0,7.926953E2,2.2543652E2,0E0,0E0,0E0,0E0],"parents":[2147483647,0,0,1,1,3,3,4,4],"right_children":[2,4,-1,6,8,-1,-1,-1,-1],"split_conditions":[1E0,1E0,5.635331E-3,1E0,1E0,4.1187103E-3,8.752188E-4,2.5963027E-3,9.2002086E-4],"split_indices":[5,1,0,11,7,0,0,0,0],"split_type":[0,0,0,0,0,0,0,0,0],"sum_hessian":[1.7467231E5,1.5273328E5,2.1939037E4,8.749553E4,6.523774E4,7.873031E4,8.765225E3,5.5326863E4,9.910877E3],"tree_param":{"num_deleted":"0","num_feature":"12","num_nodes":"9","size_leaf_vector":"1"}},{"base_weights":[-7.221502E-1,-7.224999E-1,-6.287466E-1,-7.2045445E-1,-7.4670124E-3,-6.6255766E-1,1.4024613E-2,-7.4491682E-3,-7.3559266E-3,-5.154048E-3,-7.510667E-3],"categories":[],"categories_nodes":[],"categories_segments":[],"categories_sizes":[],"default_left":[0,0,0,0,0,0,0,0,0,0,0],"id":19,"left_children":[1,3,5,7,-1,9,-1,-1,-1,-1,-1],"loss_changes":[4.515625E0,1.4921875E0,4.3257477E1,1.25E-1,0E0,6.2712097E0,0E0,0E0,0E0,0E0,0E0],"parents":[2147483647,0,0,1,1,2,2,3,3,5,5],"right_children":[2,4,6,8,-1,10,-1,-1,-1,-1,-1],"split_conditions":[2.11E2,3.2E1,1E0,-4.4E1,-7.4670124E-3,1E0,1.4024613E-2,-7.4491682E-3,-7.3559266E-3,-5.154048E-3,-7.510667E-3],"split_indices":[0,0,4,0,0,1,0,0,0,0,0],"split_type":[0,0,0,0,0,0,0,0,0,0,0],"sum_hessian":[1.714601E5,1.7081202E5,6.4808374E2,1.3472595E5,3.608607E4,6.3770435E2,1.0379385E1,1.767282E4,1.17053125E5,2.0225658E2,4.3544775E2],"tree_param":{"num_deleted":"0","num_feature":"12","num_nodes":"11","size_leaf_vector":"1"}},{"base_weights":[3.3058417E-1,5.7867837E-1,-6.027577E-1,1.1822569E0,3.7898505E-1,-6.441953E-1,-2.7978978E-1,1.2530256E-2,8.14198E-3,4.944192E-3,1.0856603E-3,-1.1946965E-3,-6.8853046E-3,1.848989E-3,-4.684081E-3],"categories":[],"categories_nodes":[],"categories_segments":[],"categories_sizes":[],"default_left":[0,0,0,0,0,0,0,0,0,0,0,0,0,0,0],"id":20,"left_children":[1,3,5,7,9,11,13,-1,-1,-1,-1,-1,-1,-1,-1],"loss_changes":[4.124783E4,1.6960621E4,4.998672E2,5.783711E2,3.0129424E3,5.0707422E2,3.4954257E2,0E0,0E0,0E0,0E0,0E0,0E0,0E0,0E0],"parents":[2147483647,0,0,1,1,2,2,3,3,4,4,5,5,6,6],"right_children":[2,4,6,8,10,12,14,-1,-1,-1,-1,-1,-1,-1,-1],"split_conditions":[3.2E1,-3E1,6.5E1,-3.2E1,1.2E1,3.3E1,7.6E1,1.2530256E-2,8.14198E-3,4.944192E-3,1.0856603E-3,-1.1946965E-3,-6.8853046E-3,1.848989E-3,-4.684081E-3],"split_indices":[0,0,0,0,0,0,0,0,0,0,0,0,0,0,0],"split_type":[0,0,0,0,0,0,0,0,0,0,0,0,0,0,0],"sum_hessian":[1.781328E5,1.407267E5,3.7406098E4,3.498365E4,1.05743055E5,3.3150336E4,4.255761E3,3.1481244E4,3.5024043E3,7.6465734E4,2.9277318E4,1.73161E3,3.1418729E4,1.1860322E3,3.069729E3],"tree_param":{"num_deleted":"0","num_feature":"12","num_nodes":"15","size_leaf_vector":"1"}},{"base_weights":[3.6781746E-1,3.8219403E-2,1.0072069E0,-5.8880204E-1,2.4161436E-1,6.150051E-1,1.2544497E0,-2.6835524E-3,-6.6058566E-3,9.966716E-4,3.7393367E-3,7.043346E-3,2.9431488E-3,1.30769415E-2,8.783811E-3],"categories":[],"categories_nodes":[],"categories_segments":[],"categories_sizes":[],"default_left":[0,0,0,0,0,0,0,0,0,0,0,0,0,0,0],"id":21,"left_children":[1,3,5,7,9,11,13,-1,-1,-1,-1,-1,-1,-1,-1],"loss_changes":[3.64653E4,1.4561441E4,5.70584E3,5.205742E2,1.5409619E3,5.4795703E2,3.438047E2,0E0,0E0,0E0,0E0,0E0,0E0,0E0,0E0],"parents":[2147483647,0,0,1,1,2,2,3,3,4,4,5,5,6,6],"right_children":[2,4,6,8,10,12,14,-1,-1,-1,-1,-1,-1,-1,-1],"split_conditions":[1.8E1,-3.2E1,3.3E1,-6.4E1,-7E0,1E0,1.03E2,-2.6835524E-3,-6.6058566E-3,9.966716E-4,3.7393367E-3,7.043346E-3,2.9431488E-3,1.30769415E-2,8.783811E-3],"split_indices":[0,0,0,0,0,11,0,0,0,0,0,0,0,0,0],"split_type":[0,0,0,0,0,0,0,0,0,0,0,0,0,0,0],"sum_hessian":[1.7303728E5,1.1418002E5,5.8857258E4,2.7965293E4,8.621473E4,2.2758555E4,3.60987E4,4.1664097E3,2.3798885E4,3.987165E4,4.634308E4,1.8573748E4,4.1848057E3,3.401607E4,2.082631E3],"tree_param":{"num_deleted":"0","num_feature":"12","num_nodes":"15","size_leaf_vector":"1"}},{"base_weights":[-7.197176E-1,-7.2002906E-1,-6.698509E-1,-7.341155E-3,-7.4563255E-3,-6.902144E-1,1.3891586E-2,-7.2525423E-3,-5.0170203E-3],"categories":[],"categories_nodes":[],"categories_segments":[],"categories_sizes":[],"default_left":[0,0,0,0,0,0,0,0,0],"id":22,"left_children":[1,3,5,-1,-1,7,-1,-1,-1],"loss_changes":[1.5703125E0,2.2890625E0,4.4401764E1,0E0,0E0,3.1105347E0,0E0,0E0,0E0],"parents":[2147483647,0,0,1,1,2,2,5,5],"right_children":[2,4,6,-1,-1,8,-1,-1,-1],"split_conditions":[2.11E2,3.4E1,1E0,-7.341155E-3,-7.4563255E-3,1E0,1.3891586E-2,-7.2525423E-3,-5.0170203E-3],"split_indices":[0,0,4,0,0,3,0,0,0],"split_type":[0,0,0,0,0,0,0,0,0],"sum_hessian":[1.7272942E5,1.7164134E5,1.0880712E3,1.3786245E5,3.3778902E4,1.0776466E3,1.04245405E1,9.8065393E2,9.699262E1],"tree_param":{"num_deleted":"0","num_feature":"12","num_nodes":"9","size_leaf_vector":"1"}},{"base_weights":[3.2978752E-1,6.6021055E-1,-3.5550633E-1,1.229419E0,4.3846047E-1,4.9399845E-2,-6.077041E-1,-7.705825E-3,1.2681813E-2,6.000802E-3,3.2735113E-3,1.0421495E-3,-3.9513996E-3,-6.8617216E-3,-2.197956E-3],"categories":[],"categories_nodes":[],"categories_segments":[],"categories_sizes":[],"default_left":[0,0,0,0,0,0,0,0,0,0,0,0,0,0,0],"id":23,"left_children":[1,3,5,7,9,11,13,-1,-1,-1,-1,-1,-1,-1,-1],"loss_changes":[4.0530176E4,1.5241676E4,5.946327E3,7.114258E2,1.5249082E3,5.1099902E2,8.903574E2,0E0,0E0,0E0,0E0,0E0,0E0,0E0,0E0],"parents":[2147483647,0,0,1,1,2,2,3,3,4,4,5,5,6,6],"right_children":[2,4,6,8,10,12,14,-1,-1,-1,-1,-1,-1,-1,-1],"split_conditions":[1.8E1,-3.2E1,3.3E1,-2.69E2,-8E0,1E0,6.5E1,-7.705825E-3,1.2681813E-2,6.000802E-3,3.2735113E-3,1.0421495E-3,-3.9513996E-3,-6.8617216E-3,-2.197956E-3],"split_indices":[0,0,0,0,0,9,0,0,0,0,0,0,0,0,0],"split_type":[0,0,0,0,0,0,0,0,0,0,0,0,0,0,0],"sum_hessian":[1.7898998E5,1.20763516E5,5.822647E4,3.3855777E4,8.6907734E4,2.234621E4,3.5880258E4,1.7947676E2,3.36763E4,3.8577234E4,4.8330504E4,1.9945092E4,2.4011199E3,3.0903775E4,4.9764814E3],"tree_param":{"num_deleted":"0","num_feature":"12","num_nodes":"15","size_leaf_vector":"1"}},{"base_weights":[3.729601E-1,3.9028164E-2,1.0146921E0,-5.987024E-1,2.570007E-1,6.355477E-1,1.235684E0,1.4929402E-2,-6.2546707E-3,1.2039755E-3,3.8898275E-3,5.971086E-3,1.18171545E-2,1.3000893E-2,6.254969E-3],"categories":[],"categories_nodes":[],"categories_segments":[],"categories_sizes":[],"default_left":[0,0,0,0,0,0,0,0,0,0,0,0,0,0,0],"id":24,"left_children":[1,3,5,7,9,11,13,-1,-1,-1,-1,-1,-1,-1,-1],"loss_changes":[3.708386E4,1.5822361E4,4.961176E3,7.6749023E2,1.4568999E3,5.849297E2,8.280664E2,0E0,0E0,0E0,0E0,0E0,0E0,0E0,0E0],"parents":[2147483647,0,0,1,1,2,2,3,3,4,4,5,5,6,6],"right_children":[2,4,6,8,10,12,14,-1,-1,-1,-1,-1,-1,-1,-1],"split_conditions":[1.8E1,-3.2E1,3.3E1,-2.69E2,-7E0,1E0,1.06E2,1.4929402E-2,-6.2546707E-3,1.2039755E-3,3.8898275E-3,5.971086E-3,1.18171545E-2,1.3000893E-2,6.254969E-3],"split_indices":[0,0,0,0,0,9,0,0,0,0,0,0,0,0,0],"split_type":[0,0,0,0,0,0,0,0,0,0,0,0,0,0,0],"sum_hessian":[1.7305462E5,1.13825555E5,5.9229062E4,2.8993754E4,8.4831805E4,2.1811623E4,3.7417438E4,1.797724E2,2.8813982E4,3.984507E4,4.4986734E4,1.9840168E4,1.9714547E3,3.5400965E4,2.0164751E3],"tree_param":{"num_deleted":"0","num_feature":"12","num_nodes":"15","size_leaf_vector":"1"}},{"base_weights":[-7.1704787E-1,-7.1736926E-1,-6.672885E-1,-7.154056E-1,-7.4198144E-3,-6.876733E-1,1.3795143E-2,-7.4134534E-3,-7.3013734E-3,-7.2296015E-3,-4.9525606E-3],"categories":[],"categories_nodes":[],"categories_segments":[],"categories_sizes":[],"default_left":[0,0,0,0,0,0,0,0,0,0,0],"id":25,"left_children":[1,3,5,7,-1,9,-1,-1,-1,-1,-1],"loss_changes":[1.5546875E0,1.484375E0,4.4024048E1,7.1875E-1,0E0,3.2436829E0,0E0,0E0,0E0,0E0,0E0],"parents":[2147483647,0,0,1,1,2,2,3,3,5,5],"right_children":[2,4,6,8,-1,10,-1,-1,-1,-1,-1],"split_conditions":[2.11E2,3.4E1,1E0,-4.3E1,-7.4198144E-3,1E0,1.3795143E-2,-7.4134534E-3,-7.3013734E-3,-7.2296015E-3,-4.9525606E-3],"split_indices":[0,0,4,0,0,2,0,0,0,0,0],"split_type":[0,0,0,0,0,0,0,0,0,0,0],"sum_hessian":[1.6642255E5,1.6533847E5,1.0840775E3,1.3325261E5,3.2085867E4,1.0736204E3,1.0457193E1,1.8009826E4,1.1524278E5,9.773012E2,9.631916E1],"tree_param":{"num_deleted":"0","num_feature":"12","num_nodes":"11","size_leaf_vector":"1"}},{"base_weights":[3.3609778E-1,5.807746E-1,-6.026025E-1,1.1914026E0,3.901769E-1,-6.255092E-1,-2.4135764E-1,5.054527E-3,1.2531141E-2,6.177247E-3,2.5323671E-3,-2.1828345E-3,-6.606985E-3,1.288409E-3,-5.6763743E-3],"categories":[],"categories_nodes":[],"categories_segments":[],"categories_sizes":[],"default_left":[0,0,0,0,0,0,0,0,0,0,0,0,0,0,0],"id":26,"left_children":[1,3,5,7,9,11,13,-1,-1,-1,-1,-1,-1,-1,-1],"loss_changes":[4.067286E4,1.6347516E4,3.022832E2,7.8778906E2,3.262877E3,2.9033008E2,2.5214633E2,0E0,0E0,0E0,0E0,0E0,0E0,0E0,0E0],"parents":[2147483647,0,0,1,1,2,2,3,3,4,4,5,5,6,6],"right_children":[2,4,6,8,10,12,14,-1,-1,-1,-1,-1,-1,-1,-1],"split_conditions":[3.2E1,-3.2E1,1.03E2,-1.25E2,-7E0,3.3E1,1.74E2,5.054527E-3,1.2531141E-2,6.177247E-3,2.5323671E-3,-2.1828345E-3,-6.606985E-3,1.288409E-3,-5.6763743E-3],"split_indices":[0,0,0,0,0,0,0,0,0,0,0,0,0,0,0],"split_type":[0,0,0,0,0,0,0,0,0,0,0,0,0,0,0],"sum_hessian":[1.7708639E5,1.4047242E5,3.6613965E4,3.3414953E4,1.0705747E5,3.4428613E4,2.1853528E3,1.5494778E3,3.1865475E4,4.2823414E4,6.423406E4,1.6344203E3,3.279419E4,1.00539154E3,1.1799613E3],"tree_param":{"num_deleted":"0","num_feature":"12","num_nodes":"15","size_leaf_vector":"1"}},{"base_weights":[3.278436E-1,8.516468E-2,1.2051481E0,-5.602983E-1,2.850163E-1,1.251987E0,9.046486E-1,1.4774149E-2,-5.843427E-3,2.0120696E-3,5.0466713E-3,8.4467875E-3,1.30087435E-2,9.623071E-3,-7.8090755E-3],"categories":[],"categories_nodes":[],"categories_segments":[],"categories_sizes":[],"default_left":[0,0,0,0,0,0,0,0,0,0,0,0,0,0,0],"id":27,"left_children":[1,3,5,7,9,11,13,-1,-1,-1,-1,-1,-1,-1,-1],"loss_changes":[3.792828E4,1.8001441E4,5.4158984E2,7.311377E2,1.9602266E3,2.827422E2,3.1534912E2,0E0,0E0,0E0,0E0,0E0,0E0,0E0,0E0],"parents":[2147483647,0,0,1,1,2,2,3,3,4,4,5,5,6,6],"right_children":[2,4,6,8,10,12,14,-1,-1,-1,-1,-1,-1,-1,-1],"split_conditions":[3.2E1,-3E1,6.5E1,-2.69E2,1.2E1,3.3E1,1E0,1.4774149E-2,-5.843427E-3,2.0120696E-3,5.0466713E-3,8.4467875E-3,1.30087435E-2,9.623071E-3,-7.8090755E-3],"split_indices":[0,0,0,0,0,0,4,0,0,0,0,0,0,0,0],"split_type":[0,0,0,0,0,0,0,0,0,0,0,0,0,0,0],"sum_hessian":[1.7815278E5,1.395512E5,3.8601574E4,3.2992133E4,1.0655908E5,3.3393812E4,5.2077603E3,1.8067021E2,3.281146E4,7.48587E4,3.1700375E4,1.4983503E3,3.1895465E4,5.097377E3,1.10383194E2],"tree_param":{"num_deleted":"0","num_feature":"12","num_nodes":"15","size_leaf_vector":"1"}},{"base_weights":[-7.153884E-1,-7.157363E-1,-6.240179E-1,-7.2990046E-3,-7.4080247E-3,-6.5740544E-1,1.3673618E-2,-5.794472E-3,-7.4528228E-3],"categories":[],"categories_nodes":[],"categories_segments":[],"categories_sizes":[],"default_left":[0,0,0,0,0,0,0,0,0],"id":28,"left_children":[1,3,5,-1,-1,7,-1,-1,-1],"loss_changes":[4.3046875E0,1.828125E0,4.2086548E1,0E0,0E0,3.1110535E0,0E0,0E0,0E0],"parents":[2147483647,0,0,1,1,2,2,5,5],"right_children":[2,4,6,-1,-1,8,-1,-1,-1],"split_conditions":[2.01E2,3.4E1,1E0,-7.2990046E-3,-7.4080247E-3,1E0,1.3673618E-2,-5.794472E-3,-7.4528228E-3],"split_indices":[0,0,4,0,0,1,0,0,0],"split_type":[0,0,0,0,0,0,0,0,0],"sum_hessian":[1.6935378E5,1.6870266E5,6.511312E2,1.363422E5,3.2360445E4,6.4063306E2,1.0498216E1,2.8672626E2,3.539068E2],"tree_param":{"num_deleted":"0","num_feature":"12","num_nodes":"9","size_leaf_vector":"1"}},{"base_weights":[3.465762E-1,5.8067936E-1,-5.569199E-1,1.229904E0,3.887723E-1,-6.1256695E-1,-1.8948855E-1,-7.700738E-3,1.2693271E-2,4.954317E-3,1.3520356E-3,-4.951502E-6,-6.569759E-3,-3.3004764E-3,2.616712E-3],"categories":[],"categories_nodes":[],"categories_segments":[],"categories_sizes":[],"default_left":[0,0,0,0,0,0,0,0,0,0,0,0,0,0,0],"id":29,"left_children":[1,3,5,7,9,11,13,-1,-1,-1,-1,-1,-1,-1,-1],"loss_changes":[3.727222E4,1.7435895E4,7.4080273E2,7.112031E2,2.6506797E3,5.7418066E2,2.8315866E2,0E0,0E0,0E0,0E0,0E0,0E0,0E0,0E0],"parents":[2147483647,0,0,1,1,2,2,3,3,4,4,5,5,6,6],"right_children":[2,4,6,8,10,12,14,-1,-1,-1,-1,-1,-1,-1,-1],"split_conditions":[3.2E1,-3.2E1,6.5E1,-2.69E2,1.2E1,3.3E1,1E0,-7.700738E-3,1.2693271E-2,4.954317E-3,1.3520356E-3,-4.951502E-6,-6.569759E-3,-3.3004764E-3,2.616712E-3],"split_indices":[0,0,0,0,0,0,11,0,0,0,0,0,0,0,0],"split_type":[0,0,0,0,0,0,0,0,0,0,0,0,0,0,0],"sum_hessian":[1.762185E5,1.3995572E5,3.6262773E4,3.193042E4,1.08025305E5,3.1491273E4,4.7714995E3,1.7936662E2,3.1751055E4,7.8686586E4,2.933872E4,1.4639725E3,3.00273E4,3.6741597E3,1.0973401E3],"tree_param":{"num_deleted":"0","num_feature":"12","num_nodes":"15","size_leaf_vector":"1"}},{"base_weights":[3.2555988E-1,-3.425517E-2,8.919528E-1,-5.811191E-1,1.836616E-1,5.370856E-1,1.1838108E0,3.4406323E-3,-6.423107E-3,9.4787235E-4,2.8682484E-3,5.1476695E-3,8.233702E-3,1.2496334E-2,5.9183845E-3],"categories":[],"categories_nodes":[],"categories_segments":[],"categories_sizes":[],"default_left":[0,0,0,0,0,0,0,0,0,0,0,0,0,0,0],"id":30,"left_children":[1,3,5,7,9,11,13,-1,-1,-1,-1,-1,-1,-1,-1],"loss_changes":[3.555789E4,1.2715019E4,7.018742E3,1.3091768E3,6.7152686E2,2.7565723E2,8.551836E2,0E0,0E0,0E0,0E0,0E0,0E0,0E0,0E0],"parents":[2147483647,0,0,1,1,2,2,3,3,4,4,5,5,6,6],"right_children":[2,4,6,8,10,12,14,-1,-1,-1,-1,-1,-1,-1,-1],"split_conditions":[1.2E1,-3.2E1,3.2E1,-1.23E2,-7E0,1E0,1.03E2,3.4406323E-3,-6.423107E-3,9.4787235E-4,2.8682484E-3,5.1476695E-3,8.233702E-3,1.2496334E-2,5.9183845E-3],"split_indices":[0,0,0,0,0,9,0,0,0,0,0,0,0,0,0],"split_type":[0,0,0,0,0,0,0,0,0,0,0,0,0,0,0],"sum_hessian":[1.7447388E5,1.0669306E5,6.778081E4,3.040219E4,7.6290875E4,3.058977E4,3.7191043E4,1.4783123E3,2.8923877E4,3.9330387E4,3.6960484E4,2.7170668E4,3.4191E3,3.498882E4,2.2022231E3],"tree_param":{"num_deleted":"0","num_feature":"12","num_nodes":"15","size_leaf_vector":"1"}},{"base_weights":[-7.1157837E-1,-7.119034E-1,-6.5031666E-1,-7.2647585E-3,-7.404888E-3,-6.7467374E-1,1.3499124E-2,-5.0314595E-3,-7.1195005E-3],"categories":[],"categories_nodes":[],"categories_segments":[],"categories_sizes":[],"default_left":[0,0,0,0,0,0,0,0,0],"id":31,"left_children":[1,3,5,-1,-1,7,-1,-1,-1],"loss_changes":[2.234375E0,2.015625E0,4.254956E1,0E0,0E0,2.5245361E0,0E0,0E0,0E0],"parents":[2147483647,0,0,1,1,2,2,5,5],"right_children":[2,4,6,-1,-1,8,-1,-1,-1],"split_conditions":[2.11E2,4.6E1,1E0,-7.2647585E-3,-7.404888E-3,2.25E2,1.3499124E-2,-5.0314595E-3,-7.1195005E-3],"split_indices":[0,0,4,0,0,0,0,0,0],"split_type":[0,0,0,0,0,0,0,0,0],"sum_hessian":[1.6757983E5,1.666824E5,8.974304E2,1.4770058E5,1.8981818E4,8.868736E2,1.0556834E1,9.71547E1,7.897189E2],"tree_param":{"num_deleted":"0","num_feature":"12","num_nodes":"9","size_leaf_vector":"1"}},{"base_weights":[3.552286E-1,5.820245E-1,-5.8995986E-1,1.1963298E0,3.856233E-1,-6.7047554E-1,-3.098709E-1,5.595559E-3,1.2527797E-2,4.776208E-3,1.8691288E-3,-6.9928537E-3,-5.000774E-3,-4.201781E-3,-6.978202E-4],"categories":[],"categories_nodes":[],"categories_segments":[],"categories_sizes":[],"default_left":[0,0,0,0,0,0,0,0,0,0,0,0,0,0,0],"id":32,"left_children":[1,3,5,7,9,11,13,-1,-1,-1,-1,-1,-1,-1,-1],"loss_changes":[3.8287906E4,1.7378145E4,7.78666E2,6.469844E2,1.8016357E3,6.3745117E1,1.8796411E2,0E0,0E0,0E0,0E0,0E0,0E0,0E0,0E0],"parents":[2147483647,0,0,1,1,2,2,3,3,4,4,5,5,6,6],"right_children":[2,4,6,8,10,12,14,-1,-1,-1,-1,-1,-1,-1,-1],"split_conditions":[3.3E1,-3.2E1,6.1E1,-1.23E2,1.2E1,1E0,1.06E2,5.595559E-3,1.2527797E-2,4.776208E-3,1.8691288E-3,-6.9928537E-3,-5.000774E-3,-4.201781E-3,-6.978202E-4],"split_indices":[0,0,0,0,0,7,0,0,0,0,0,0,0,0,0],"split_type":[0,0,0,0,0,0,0,0,0,0,0,0,0,0,0],"sum_hessian":[1.786109E5,1.440478E5,3.4563113E4,3.4895938E4,1.0915187E5,2.6843646E4,7.719465E3,1.4746693E3,3.3421266E4,7.789618E4,3.1255686E4,2.500989E4,1.8337559E3,5.4420703E3,2.2773948E3],"tree_param":{"num_deleted":"0","num_feature":"12","num_nodes":"15","size_leaf_vector":"1"}},{"base_weights":[3.2744277E-1,8.958568E-2,1.1988746E0,-5.8378166E-1,2.8570694E-1,6.7375356E-1,1.2164857E0,1.4522629E-2,-6.090245E-3,6.9086644E-4,4.2385794E-3,8.210859E-3,-7.882603E-3,1.2741131E-2,1.0416191E-2],"categories":[],"categories_nodes":[],"categories_segments":[],"categories_sizes":[],"default_left":[0,0,0,0,0,0,0,0,0,0,0,0,0,0,0],"id":33,"left_children":[1,3,5,7,9,11,13,-1,-1,-1,-1,-1,-1,-1,-1],"loss_changes":[3.6734242E4,1.8386363E4,3.4992188E2,7.36459E2,3.0277842E3,2.3024445E2,2.1166797E2,0E0,0E0,0E0,0E0,0E0,0E0,0E0,0E0],"parents":[2147483647,0,0,1,1,2,2,3,3,4,4,5,5,6,6],"right_children":[2,4,6,8,10,12,14,-1,-1,-1,-1,-1,-1,-1,-1],"split_conditions":[3.2E1,-3.2E1,3.3E1,-2.69E2,-7E0,1E0,6.5E1,1.4522629E-2,-6.090245E-3,6.9086644E-4,4.2385794E-3,8.210859E-3,-7.882603E-3,1.2741131E-2,1.0416191E-2],"split_indices":[0,0,0,0,0,11,0,0,0,0,0,0,0,0,0],"split_type":[0,0,0,0,0,0,0,0,0,0,0,0,0,0,0],"sum_hessian":[1.7722858E5,1.3922742E5,3.8001164E4,3.1403121E4,1.078243E5,1.2345782E3,3.6766586E4,1.821198E2,3.1221002E4,4.0017316E4,6.7806984E4,1.1338069E3,1.0077134E2,3.2020291E4,4.746295E3],"tree_param":{"num_deleted":"0","num_feature":"12","num_nodes":"15","size_leaf_vector":"1"}},{"base_weights":[-7.100374E-1,-7.244878E-3,-7.155491E-1,-7.3235417E-3,-6.352821E-1,-4.8406087E-3,-7.3694233E-3],"categories":[],"categories_nodes":[],"categories_segments":[],"categories_sizes":[],"default_left":[0,0,0,0,0,0,0],"id":34,"left_children":[1,-1,3,-1,5,-1,-1],"loss_changes":[3.828125E-1,0E0,5.78125E-1,0E0,2.720848E0,0E0,0E0],"parents":[2147483647,0,0,2,2,4,4],"right_children":[2,-1,4,-1,6,-1,-1],"split_conditions":[2.9E1,-7.244878E-3,3.55E2,-7.3235417E-3,4.92E2,-4.8406087E-3,-7.3694233E-3],"split_indices":[0,0,0,0,0,0,0],"split_type":[0,0,0,0,0,0,0],"sum_hessian":[1.6849403E5,1.2991139E5,3.8582645E4,3.831637E4,2.662721E2,9.509063E1,1.7118147E2],"tree_param":{"num_deleted":"0","num_feature":"12","num_nodes":"7","size_leaf_vector":"1"}},{"base_weights":[3.2354614E-1,5.6068647E-1,-6.002327E-1,1.1624459E0,3.716719E-1,-6.449867E-1,-2.165779E-1,-7.6880353E-3,1.1993644E-2,4.7598113E-3,1.1976396E-3,-7.041291E-3,-6.0744397E-3,-4.1961777E-3,2.6042752E-3],"categories":[],"categories_nodes":[],"categories_segments":[],"categories_sizes":[],"default_left":[0,0,0,0,0,0,0,0,0,0,0,0,0,0,0],"id":35,"left_children":[1,3,5,7,9,11,13,-1,-1,-1,-1,-1,-1,-1,-1],"loss_changes":[3.8719113E4,1.5995781E4,6.192051E2,6.6158984E2,2.5534443E3,7.074805E1,3.4457916E2,0E0,0E0,0E0,0E0,0E0,0E0,0E0,0E0],"parents":[2147483647,0,0,1,1,2,2,3,3,4,4,5,5,6,6],"right_children":[2,4,6,8,10,12,14,-1,-1,-1,-1,-1,-1,-1,-1],"split_conditions":[3.2E1,-3.2E1,7.2E1,-2.69E2,1.2E1,1E0,1E0,-7.6880353E-3,1.1993644E-2,4.7598113E-3,1.1976396E-3,-7.041291E-3,-6.0744397E-3,-4.1961777E-3,2.6042752E-3],"split_indices":[0,0,0,0,0,1,11,0,0,0,0,0,0,0,0],"split_type":[0,0,0,0,0,0,0,0,0,0,0,0,0,0,0],"sum_hessian":[1.7674711E5,1.4064377E5,3.6103344E4,3.3616332E4,1.0702744E5,3.2329916E4,3.7734277E3,1.7908966E2,3.3437242E4,7.82218E4,2.8805639E4,1.7444877E4,1.488504E4,2.6753103E3,1.0981174E3],"tree_param":{"num_deleted":"0","num_feature":"12","num_nodes":"15","size_leaf_vector":"1"}},{"base_weights":[3.5598385E-1,3.237929E-2,9.726272E-1,-5.744063E-1,2.3227593E-1,5.8438456E-1,1.198666E0,1.5682699E-3,-6.175817E-3,1.0078725E-3,3.463343E-3,5.369369E-3,1.11385705E-2,1.253822E-2,7.883993E-3],"categories":[],"categories_nodes":[],"categories_segments":[],"categories_sizes":[],"default_left":[0,0,0,0,0,0,0,0,0,0,0,0,0,0,0],"id":36,"left_children":[1,3,5,7,9,11,13,-1,-1,-1,-1,-1,-1,-1,-1],"loss_changes":[3.5203805E4,1.4033887E4,5.327051E3,6.1497266E2,1.2375996E3,6.68312E2,4.466172E2,0E0,0E0,0E0,0E0,0E0,0E0,0E0,0E0],"parents":[2147483647,0,0,1,1,2,2,3,3,4,4,5,5,6,6],"right_children":[2,4,6,8,10,12,14,-1,-1,-1,-1,-1,-1,-1,-1],"split_conditions":[1.8E1,-3.2E1,3.3E1,-1.23E2,-8E0,1E0,1.06E2,1.5682699E-3,-6.175817E-3,1.0078725E-3,3.463343E-3,5.369369E-3,1.11385705E-2,1.253822E-2,7.883993E-3],"split_indices":[0,0,0,0,0,9,0,0,0,0,0,0,0,0,0],"split_type":[0,0,0,0,0,0,0,0,0,0,0,0,0,0,0],"sum_hessian":[1.7642123E5,1.157033E5,6.0717938E4,2.8670395E4,8.70329E4,2.2343844E4,3.8374094E4,1.1142698E3,2.7556123E4,3.856038E4,4.847252E4,1.999346E4,2.3503823E3,3.6069953E4,2.3041384E3],"tree_param":{"num_deleted":"0","num_feature":"12","num_nodes":"15","size_leaf_vector":"1"}},{"base_weights":[-7.074631E-1,-7.059333E-1,-7.134097E-1,-7.2983867E-3,-7.0470506E-1,-7.3081795E-3,-6.693531E-1,-7.141125E-3,-7.232899E-3,1.462708E-2,-7.365758E-3],"categories":[],"categories_nodes":[],"categories_segments":[],"categories_sizes":[],"default_left":[0,0,0,0,0,0,0,0,0,0,0],"id":37,"left_children":[1,3,5,-1,7,-1,9,-1,-1,-1,-1],"loss_changes":[3.515625E-1,9.765625E-2,6.25E-1,0E0,7.0703125E-1,0E0,9.414545E1,0E0,0E0,0E0,0E0],"parents":[2147483647,0,0,1,1,2,2,4,4,6,6],"right_children":[2,4,6,-1,8,-1,10,-1,-1,-1,-1],"split_conditions":[3.2E1,-4.4E1,2.01E2,-7.2983867E-3,-1.9E1,-7.3081795E-3,2.25E2,-7.141125E-3,-7.232899E-3,1.462708E-2,-7.365758E-3],"split_indices":[0,0,0,0,0,0,0,0,0,0,0],"split_type":[0,0,0,0,0,0,0,0,0,0,0],"sum_hessian":[1.6416919E5,1.3068543E5,3.3483754E4,1.7901703E4,1.1278373E5,3.2596791E4,8.869641E2,3.1736393E4,8.1047336E4,2.0604942E1,8.663592E2],"tree_param":{"num_deleted":"0","num_feature":"12","num_nodes":"11","size_leaf_vector":"1"}},{"base_weights":[3.1983778E-1,5.370271E-1,-5.5563927E-1,1.1509345E0,3.4832436E-1,-3.9275926E-2,-5.79697E-1,7.561219E-3,1.2443409E-2,4.094575E-3,1.1815979E-3,-1.460479E-3,1.5308427E-2,-6.4412085E-3,-4.110053E-3],"categories":[],"categories_nodes":[],"categories_segments":[],"categories_sizes":[],"default_left":[0,0,0,0,0,0,0,0,0,0,0,0,0,0,0],"id":38,"left_children":[1,3,5,7,9,11,13,-1,-1,-1,-1,-1,-1,-1,-1],"loss_changes":[3.3242117E4,1.6226102E4,4.3118066E2,8.8990234E2,1.2975078E3,2.4515894E2,2.9504785E2,0E0,0E0,0E0,0E0,0E0,0E0,0E0,0E0],"parents":[2147483647,0,0,1,1,2,2,3,3,4,4,5,5,6,6],"right_children":[2,4,6,8,10,12,14,-1,-1,-1,-1,-1,-1,-1,-1],"split_conditions":[3.2E1,-3.2E1,3.3E1,-6.6E1,1.8E1,1E0,6.1E1,7.561219E-3,1.2443409E-2,4.094575E-3,1.1815979E-3,-1.460479E-3,1.5308427E-2,-6.4412085E-3,-4.110053E-3],"split_indices":[0,0,0,0,0,2,0,0,0,0,0,0,0,0,0],"split_type":[0,0,0,0,0,0,0,0,0,0,0,0,0,0,0],"sum_hessian":[1.7482586E5,1.4007645E5,3.474941E4,3.2932566E4,1.0714388E5,1.5484156E3,3.3200992E4,4.5386216E3,2.8393943E4,8.756597E4,1.9577912E4,1.4511372E3,9.727851E1,2.5897709E4,7.303285E3],"tree_param":{"num_deleted":"0","num_feature":"12","num_nodes":"15","size_leaf_vector":"1"}},{"base_weights":[3.3705416E-1,-1.4363835E-2,8.955161E-1,-5.503563E-1,1.826714E-1,5.8818436E-1,1.132438E0,-9.115191E-4,-6.478371E-3,8.1832893E-4,2.840555E-3,5.2532973E-3,9.088219E-3,1.2099465E-2,6.6590295E-3],"categories":[],"categories_nodes":[],"categories_segments":[],"categories_sizes":[],"default_left":[0,0,0,0,0,0,0,0,0,0,0,0,0,0,0],"id":39,"left_children":[1,3,5,7,9,11,13,-1,-1,-1,-1,-1,-1,-1,-1],"loss_changes":[3.386446E4,1.1185036E4,4.8512305E3,1.0904316E3,7.5550806E2,6.484912E2,9.156211E2,0E0,0E0,0E0,0E0,0E0,0E0,0E0,0E0],"parents":[2147483647,0,0,1,1,2,2,3,3,4,4,5,5,6,6],"right_children":[2,4,6,8,10,12,14,-1,-1,-1,-1,-1,-1,-1,-1],"split_conditions":[1.2E1,-3.2E1,3.2E1,-6.4E1,-8E0,1E0,7.2E1,-9.115191E-4,-6.478371E-3,8.1832893E-4,2.840555E-3,5.2532973E-3,9.088219E-3,1.2099465E-2,6.6590295E-3],"split_indices":[0,0,0,0,0,8,0,0,0,0,0,0,0,0,0],"split_type":[0,0,0,0,0,0,0,0,0,0,0,0,0,0,0],"sum_hessian":[1.7255098E5,1.0590668E5,6.664431E4,2.846843E4,7.743825E4,2.9012756E4,3.763156E4,4.3471606E3,2.412127E4,3.7238477E4,4.019977E4,2.3248756E4,5.7639985E3,3.404831E4,3.5832493E3],"tree_param":{"num_deleted":"0","num_feature":"12","num_nodes":"15","size_leaf_vector":"1"}},{"base_weights":[-7.0529157E-1,-7.0367676E-1,-7.14201E-1,-7.2008986E-3,-6.79302E-1,-7.320646E-3,-6.760892E-1,-7.336325E-3,-6.0163517E-3,-6.044299E-3,-7.357532E-3],"categories":[],"categories_nodes":[],"categories_segments":[],"categories_sizes":[],"default_left":[0,0,0,0,0,0,0,0,0,0,0],"id":40,"left_children":[1,3,5,-1,7,-1,9,-1,-1,-1,-1],"loss_changes":[1.2578125E0,3.28125E-1,4.3652344E-1,0E0,7.278076E0,0E0,2.8068237E0,0E0,0E0,0E0,0E0],"parents":[2147483647,0,0,1,1,2,2,4,4,6,6],"right_children":[2,4,6,-1,8,-1,10,-1,-1,-1,-1],"split_conditions":[4.1E1,3.8E1,2.11E2,-7.2008986E-3,1E0,-7.320646E-3,1E0,-7.336325E-3,-6.0163517E-3,-6.044299E-3,-7.357532E-3],"split_indices":[0,0,0,0,1,0,1,0,0,0,0],"split_type":[0,0,0,0,0,0,0,0,0,0,0],"sum_hessian":[1.6635542E5,1.409067E5,2.5448719E4,1.3850214E5,2.4045544E3,2.4402049E4,1.0466711E3,1.6897456E3,7.1480884E2,3.5936157E2,6.873096E2],"tree_param":{"num_deleted":"0","num_feature":"12","num_nodes":"11","size_leaf_vector":"1"}},{"base_weights":[3.3960107E-1,5.7729524E-1,-5.804473E-1,1.0825247E0,3.8294315E-1,-6.141855E-1,-8.89678E-2,3.2764801E-3,1.1310451E-2,4.83857E-3,1.5603341E-3,-2.3243048E-3,-6.4326194E-3,-2.8287836E-3,6.904125E-3],"categories":[],"categories_nodes":[],"categories_segments":[],"categories_sizes":[],"default_left":[0,0,0,0,0,0,0,0,0,0,0,0,0,0,0],"id":41,"left_children":[1,3,5,7,9,11,13,-1,-1,-1,-1,-1,-1,-1,-1],"loss_changes":[3.907048E4,1.3939969E4,6.076328E2,7.0216016E2,2.1293691E3,1.9568262E2,3.3766312E2,0E0,0E0,0E0,0E0,0E0,0E0,0E0,0E0],"parents":[2147483647,0,0,1,1,2,2,3,3,4,4,5,5,6,6],"right_children":[2,4,6,8,10,12,14,-1,-1,-1,-1,-1,-1,-1,-1],"split_conditions":[3.2E1,-2.8E1,1.06E2,-1.23E2,1.2E1,3.3E1,1E0,3.2764801E-3,1.1310451E-2,4.83857E-3,1.5603341E-3,-2.3243048E-3,-6.4326194E-3,-2.8287836E-3,6.904125E-3],"split_indices":[0,0,0,0,0,0,9,0,0,0,0,0,0,0,0],"split_type":[0,0,0,0,0,0,0,0,0,0,0,0,0,0,0],"sum_hessian":[1.7865681E5,1.4197778E5,3.6679035E4,3.9441977E4,1.025358E5,3.432137E4,2.357661E3,1.1757155E3,3.826626E4,7.369082E4,2.884498E4,1.2654152E3,3.3055957E4,1.8936786E3,4.639823E2],"tree_param":{"num_deleted":"0","num_feature":"12","num_nodes":"15","size_leaf_vector":"1"}},{"base_weights":[3.391835E-1,-3.005439E-2,8.5593504E-1,-5.5742943E-1,1.6824093E-1,5.393862E-1,1.1542369E0,-1.4436626E-3,-6.3624163E-3,7.3452684E-4,2.7954874E-3,5.737238E-3,2.6485121E-3,1.2208357E-2,8.967608E-3],"categories":[],"categories_nodes":[],"categories_segments":[],"categories_sizes":[],"default_left":[0,0,0,0,0,0,0,0,0,0,0,0,0,0,0],"id":42,"left_children":[1,3,5,7,9,11,13,-1,-1,-1,-1,-1,-1,-1,-1],"loss_changes":[3.307495E4,1.0572962E4,6.820176E3,7.4323047E2,7.4426074E2,2.1157324E2,4.0563672E2,0E0,0E0,0E0,0E0,0E0,0E0,0E0,0E0],"parents":[2147483647,0,0,1,1,2,2,3,3,4,4,5,5,6,6],"right_children":[2,4,6,8,10,12,14,-1,-1,-1,-1,-1,-1,-1,-1],"split_conditions":[9E0,-3.2E1,3.3E1,-6.4E1,-8E0,1E0,6.5E1,-1.4436626E-3,-6.3624163E-3,7.3452684E-4,2.7954874E-3,5.737238E-3,2.6485121E-3,1.2208357E-2,8.967608E-3],"split_indices":[0,0,0,0,0,4,0,0,0,0,0,0,0,0,0],"split_type":[0,0,0,0,0,0,0,0,0,0,0,0,0,0,0],"sum_hessian":[1.7334145E5,1.0110015E5,7.224131E4,2.7627543E4,7.347261E4,3.5050004E4,3.719131E4,3.7170771E3,2.3910467E4,3.832229E4,3.5150316E4,3.254135E4,2.508654E3,3.2555082E4,4.6362246E3],"tree_param":{"num_deleted":"0","num_feature":"12","num_nodes":"15","size_leaf_vector":"1"}},{"base_weights":[-7.026945E-1,-7.00657E-1,-7.0934594E-1,-7.1728434E-3,-6.782959E-1,-7.264544E-3,-6.743141E-1,-6.9910823E-3,-4.7156336E-3,-7.1110376E-3,1.34627605E-2],"categories":[],"categories_nodes":[],"categories_segments":[],"categories_sizes":[],"default_left":[0,0,0,0,0,0,0,0,0,0,0],"id":43,"left_children":[1,3,5,-1,7,-1,9,-1,-1,-1,-1],"loss_changes":[1.078125E0,8.3203125E-1,1.875E-1,0E0,3.4345703E0,0E0,4.342337E1,0E0,0E0,0E0,0E0],"parents":[2147483647,0,0,1,1,2,2,4,4,6,6],"right_children":[2,4,6,-1,8,-1,10,-1,-1,-1,-1],"split_conditions":[2.9E1,2.6E1,1.9E2,-7.1728434E-3,1E0,-7.264544E-3,1E0,-6.9910823E-3,-4.7156336E-3,-7.1110376E-3,1.34627605E-2],"split_indices":[0,0,0,0,4,0,4,0,0,0,0],"split_type":[0,0,0,0,0,0,0,0,0,0,0],"sum_hessian":[1.6300314E5,1.2487323E5,3.812991E4,1.2107992E5,3.7933066E3,3.707894E4,1.0509692E3,3.699636E3,9.367072E1,1.0404003E3,1.0569E1],"tree_param":{"num_deleted":"0","num_feature":"12","num_nodes":"11","size_leaf_vector":"1"}},{"base_weights":[3.177861E-1,6.402103E-1,-2.5770444E-1,1.1323284E0,4.306863E-1,6.527106E-2,-5.7138383E-1,7.590398E-3,1.2169223E-2,5.1924745E-3,3.5270536E-3,1.1825565E-3,-2.174709E-3,-6.174543E-3,-8.335628E-4],"categories":[],"categories_nodes":[],"categories_segments":[],"categories_sizes":[],"default_left":[0,0,0,0,0,0,0,0,0,0,0,0,0,0,0],"id":44,"left_children":[1,3,5,7,9,11,13,-1,-1,-1,-1,-1,-1,-1,-1],"loss_changes":[3.2913797E4,1.1721184E4,6.453234E3,7.6084766E2,5.264053E2,4.390905E2,5.1160547E2,0E0,0E0,0E0,0E0,0E0,0E0,0E0,0E0],"parents":[2147483647,0,0,1,1,2,2,3,3,4,4,5,5,6,6],"right_children":[2,4,6,8,10,12,14,-1,-1,-1,-1,-1,-1,-1,-1],"split_conditions":[1.2E1,-3.2E1,3.3E1,-6.4E1,-7E0,1E0,1.06E2,7.590398E-3,1.2169223E-2,5.1924745E-3,3.5270536E-3,1.1825565E-3,-2.174709E-3,-6.174543E-3,-8.335628E-4],"split_indices":[0,0,0,0,0,5,0,0,0,0,0,0,0,0,0],"split_type":[0,0,0,0,0,0,0,0,0,0,0,0,0,0,0],"sum_hessian":[1.7738144E5,1.13688016E5,6.369342E4,3.394831E4,7.973971E4,3.1380441E4,3.231298E4,4.366489E3,2.9581818E4,4.2016773E4,3.7722938E4,2.6569004E4,4.8114375E3,3.030952E4,2.0034604E3],"tree_param":{"num_deleted":"0","num_feature":"12","num_nodes":"15","size_leaf_vector":"1"}},{"base_weights":[3.2890108E-1,1.0419528E-2,9.585238E-1,-5.6359E-1,2.0633954E-1,6.218134E-1,1.1696188E0,1.4319478E-2,-5.8865272E-3,9.6017926E-4,3.0906878E-3,5.838763E-3,9.717205E-3,1.2137412E-2,9.08535E-3],"categories":[],"categories_nodes":[],"categories_segments":[],"categories_sizes":[],"default_left":[0,0,0,0,0,0,0,0,0,0,0,0,0,0,0],"id":45,"left_children":[1,3,5,7,9,11,13,-1,-1,-1,-1,-1,-1,-1,-1],"loss_changes":[3.5927633E4,1.3381024E4,4.276457E3,7.1201465E2,9.5600635E2,3.8644043E2,1.7688281E2,0E0,0E0,0E0,0E0,0E0,0E0,0E0,0E0],"parents":[2147483647,0,0,1,1,2,2,3,3,4,4,5,5,6,6],"right_children":[2,4,6,8,10,12,14,-1,-1,-1,-1,-1,-1,-1,-1],"split_conditions":[1.8E1,-3.2E1,3.3E1,-2.69E2,-7E0,1E0,1.06E2,1.4319478E-2,-5.8865272E-3,9.6017926E-4,3.0906878E-3,5.838763E-3,9.717205E-3,1.2137412E-2,9.08535E-3],"split_indices":[0,0,0,0,0,5,0,0,0,0,0,0,0,0,0],"split_type":[0,0,0,0,0,0,0,0,0,0,0,0,0,0,0],"sum_hessian":[1.7917331E5,1.1898733E5,6.0185984E4,3.027705E4,8.871027E4,2.319394E4,3.6992043E4,1.8328426E2,3.0093768E4,4.0826473E4,4.78838E4,2.0082537E4,3.111403E3,3.4862145E4,2.1299001E3],"tree_param":{"num_deleted":"0","num_feature":"12","num_nodes":"15","size_leaf_vector":"1"}},{"base_weights":[-7.006602E-1,-6.988513E-1,-7.0764035E-1,-7.1619726E-3,-6.9155324E-1,-7.2484287E-3,-6.721342E-1,-7.106451E-3,-6.809807E-3,-7.089036E-3,1.3382378E-2],"categories":[],"categories_nodes":[],"categories_segments":[],"categories_sizes":[],"default_left":[0,0,0,0,0,0,0,0,0,0,0],"id":46,"left_children":[1,3,5,-1,7,-1,9,-1,-1,-1,-1],"loss_changes":[9.6875E-1,2.65625E-1,2.2460938E-1,0E0,7.597656E-1,0E0,4.310327E1,0E0,0E0,0E0,0E0],"parents":[2147483647,0,0,1,1,2,2,4,4,6,6],"right_children":[2,4,6,-1,8,-1,10,-1,-1,-1,-1],"split_conditions":[3.4E1,1.7E1,2.11E2,-7.1619726E-3,1E0,-7.2484287E-3,1E0,-7.106451E-3,-6.809807E-3,-7.089036E-3,1.3382378E-2],"split_indices":[0,0,0,0,9,0,4,0,0,0,0],"split_type":[0,0,0,0,0,0,0,0,0,0,0],"sum_hessian":[1.6603295E5,1.3195217E5,3.4080785E4,1.1015666E5,2.179552E4,3.3033727E4,1.0470605E3,1.9283709E4,2.51181E3,1.0364647E3,1.0595828E1],"tree_param":{"num_deleted":"0","num_feature":"12","num_nodes":"11","size_leaf_vector":"1"}},{"base_weights":[3.1818977E-1,5.328572E-1,-5.7348573E-1,1.128863E0,3.5409695E-1,-6.7210215E-1,-4.5658797E-1,9.852068E-3,1.2272937E-2,4.5908857E-3,1.0367152E-3,-7.0934333E-3,-2.0423722E-3,-5.3361356E-3,-2.3441387E-3],"categories":[],"categories_nodes":[],"categories_segments":[],"categories_sizes":[],"default_left":[0,0,0,0,0,0,0,0,0,0,0,0,0,0,0],"id":47,"left_children":[1,3,5,7,9,11,13,-1,-1,-1,-1,-1,-1,-1,-1],"loss_changes":[3.398479E4,1.5244699E4,3.962256E2,3.8722266E2,2.63679E3,1.8889062E2,2.3305103E2,0E0,0E0,0E0,0E0,0E0,0E0,0E0,0E0],"parents":[2147483647,0,0,1,1,2,2,3,3,4,4,5,5,6,6],"right_children":[2,4,6,8,10,12,14,-1,-1,-1,-1,-1,-1,-1,-1],"split_conditions":[3.2E1,-3.2E1,1E0,-5.6E1,1.2E1,1.33E2,6.1E1,9.852068E-3,1.2272937E-2,4.5908857E-3,1.0367152E-3,-7.0934333E-3,-2.0423722E-3,-5.3361356E-3,-2.3441387E-3],"split_indices":[0,0,1,0,0,0,0,0,0,0,0,0,0,0,0],"split_type":[0,0,0,0,0,0,0,0,0,0,0,0,0,0,0],"sum_hessian":[1.7754645E5,1.4309725E5,3.4449207E4,3.3015508E4,1.1008174E5,1.8681984E4,1.5767223E4,9.929708E3,2.3085803E4,8.005242E4,3.0029322E4,1.786769E4,8.142955E2,1.2252016E4,3.5152068E3],"tree_param":{"num_deleted":"0","num_feature":"12","num_nodes":"15","size_leaf_vector":"1"}},{"base_weights":[3.0436394E-1,-1.473346E-2,8.210601E-1,-5.447941E-1,1.8279426E-1,4.9585998E-1,1.1014699E0,-9.565143E-4,-6.4423447E-3,6.3563924E-4,3.0395633E-3,4.519688E-3,8.2188565E-3,1.1888936E-2,7.511401E-3],"categories":[],"categories_nodes":[],"categories_segments":[],"categories_sizes":[],"default_left":[0,0,0,0,0,0,0,0,0,0,0,0,0,0,0],"id":48,"left_children":[1,3,5,7,9,11,13,-1,-1,-1,-1,-1,-1,-1,-1],"loss_changes":[2.9135748E4,1.1438128E4,6.1509414E3,1.1387881E3,1.0981819E3,5.175259E2,8.0971094E2,0E0,0E0,0E0,0E0,0E0,0E0,0E0,0E0],"parents":[2147483647,0,0,1,1,2,2,3,3,4,4,5,5,6,6],"right_children":[2,4,6,8,10,12,14,-1,-1,-1,-1,-1,-1,-1,-1],"split_conditions":[1.2E1,-3.2E1,3.3E1,-6.4E1,-8E0,1E0,6.5E1,-9.565143E-4,-6.4423447E-3,6.3563924E-4,3.0395633E-3,4.519688E-3,8.2188565E-3,1.1888936E-2,7.511401E-3],"split_indices":[0,0,0,0,0,5,0,0,0,0,0,0,0,0,0],"split_type":[0,0,0,0,0,0,0,0,0,0,0,0,0,0,0],"sum_hessian":[1.7670872E5,1.0924219E5,6.746653E4,2.9658479E4,7.958371E4,3.1239709E4,3.622683E4,4.7084893E3,2.4949988E4,3.8740227E4,4.0843484E4,2.658395E4,4.6557603E3,3.1060932E4,5.1658945E3],"tree_param":{"num_deleted":"0","num_feature":"12","num_nodes":"15","size_leaf_vector":"1"}},{"base_weights":[-6.973598E-1,-7.112272E-3,-7.210024E-3],"categories":[],"categories_nodes":[],"categories_segments":[],"categories_sizes":[],"default_left":[0,0,0],"id":49,"left_children":[1,-1,-1],"loss_changes":[1.2890625E0,0E0,0E0],"parents":[2147483647,0,0],"right_children":[2,-1,-1],"split_conditions":[3.4E1,-7.112272E-3,-7.210024E-3],"split_indices":[0,0,0],"split_type":[0,0,0],"sum_hessian":[1.636122E5,1.306331E5,3.29791E4],"tree_param":{"num_deleted":"0","num_feature":"12","num_nodes":"3","size_leaf_vector":"1"}},{"base_weights":[3.3085737E-1,6.1197495E-1,-3.5602036E-1,1.0967951E0,4.4587496E-1,5.198708E-2,-5.8078253E-1,4.398517E-3,1.1564801E-2,5.8156434E-3,3.5253908E-3,-2.6788502E-3,1.3997644E-3,-6.4695654E-3,-2.3456982E-3],"categories":[],"categories_nodes":[],"categories_segments":[],"categories_sizes":[],"default_left":[0,0,0,0,0,0,0,0,0,0,0,0,0,0,0],"id":50,"left_children":[1,3,5,7,9,11,13,-1,-1,-1,-1,-1,-1,-1,-1],"loss_changes":[3.4957555E4,1.0343758E4,4.8217915E3,7.4171094E2,1.1876914E3,4.9746878E2,6.1647363E2,0E0,0E0,0E0,0E0,0E0,0E0,0E0,0E0],"parents":[2147483647,0,0,1,1,2,2,3,3,4,4,5,5,6,6],"right_children":[2,4,6,8,10,12,14,-1,-1,-1,-1,-1,-1,-1,-1],"split_conditions":[2E1,-3.2E1,3.3E1,-1.23E2,-7E0,2.3E1,6.5E1,4.398517E-3,1.1564801E-2,5.8156434E-3,3.5253908E-3,-2.6788502E-3,1.3997644E-3,-6.4695654E-3,-2.3456982E-3],"split_indices":[0,0,0,0,0,0,0,0,0,0,0,0,0,0,0],"split_type":[0,0,0,0,0,0,0,0,0,0,0,0,0,0,0],"sum_hessian":[1.8103855E5,1.28463586E5,5.257497E4,3.2779758E4,9.568383E4,1.8673559E4,3.390141E4,1.5914847E3,3.1188273E4,4.3222914E4,5.2460914E4,3.9724268E3,1.4701132E4,2.9544076E4,4.3573315E3],"tree_param":{"num_deleted":"0","num_feature":"12","num_nodes":"15","size_leaf_vector":"1"}},{"base_weights":[3.2388306E-1,-1.538129E-2,8.6020076E-1,-5.7905406E-1,1.9707912E-1,5.453383E-1,1.1259888E0,-2.2594002E-3,-6.599852E-3,9.070567E-4,3.17699E-3,5.9201764E-3,3.7443016E-3,1.1810602E-2,8.944228E-3],"categories":[],"categories_nodes":[],"categories_segments":[],"categories_sizes":[],"default_left":[0,0,0,0,0,0,0,0,0,0,0,0,0,0,0],"id":51,"left_children":[1,3,5,7,9,11,13,-1,-1,-1,-1,-1,-1,-1,-1],"loss_changes":[3.2810516E4,1.3227584E4,5.8458516E3,7.169131E2,9.870239E2,1.9143848E2,2.730625E2,0E0,0E0,0E0,0E0,0E0,0E0,0E0,0E0],"parents":[2147483647,0,0,1,1,2,2,3,3,4,4,5,5,6,6],"right_children":[2,4,6,8,10,12,14,-1,-1,-1,-1,-1,-1,-1,-1],"split_conditions":[1.2E1,-3.2E1,3.3E1,-6.4E1,-7E0,1E0,7.2E1,-2.2594002E-3,-6.599852E-3,9.070567E-4,3.17699E-3,5.9201764E-3,3.7443016E-3,1.1810602E-2,8.944228E-3],"split_indices":[0,0,0,0,0,11,0,0,0,0,0,0,0,0,0],"split_type":[0,0,0,0,0,0,0,0,0,0,0,0,0,0,0],"sum_hessian":[1.8031994E5,1.1044992E5,6.987001E4,3.0235842E4,8.0214086E4,3.198381E4,3.7886203E4,4.7232124E3,2.5512629E4,4.104566E4,3.9168426E4,2.693961E4,5.0442007E3,3.3985383E4,3.900817E3],"tree_param":{"num_deleted":"0","num_feature":"12","num_nodes":"15","size_leaf_vector":"1"}},{"base_weights":[-6.966235E-1,-6.969678E-1,-6.2575865E-1,-7.114788E-3,-7.2032027E-3,-6.528016E-1,1.3388738E-2,-5.562767E-3,-7.2676553E-3],"categories":[],"categories_nodes":[],"categories_segments":[],"categories_sizes":[],"default_left":[0,0,0,0,0,0,0,0,0],"id":52,"left_children":[1,3,5,-1,-1,7,-1,-1,-1],"loss_changes":[2.90625E0,4.21875E-1,4.1240692E1,0E0,0E0,3.9522705E0,0E0,0E0,0E0],"parents":[2147483647,0,0,1,1,2,2,5,5],"right_children":[2,4,6,-1,-1,8,-1,-1,-1],"split_conditions":[2.11E2,4.1E1,1E0,-7.114788E-3,-7.2032027E-3,1E0,1.3388738E-2,-5.562767E-3,-7.2676553E-3],"split_indices":[0,0,4,0,0,1,0,0,0],"split_type":[0,0,0,0,0,0,0,0,0],"sum_hessian":[1.627792E5,1.6198098E5,7.982244E2,1.3783934E5,2.4141633E4,7.876307E2,1.0593709E1,2.779989E2,5.0963177E2],"tree_param":{"num_deleted":"0","num_feature":"12","num_nodes":"9","size_leaf_vector":"1"}},{"base_weights":[3.1747693E-1,5.364919E-1,-5.673477E-1,1.0797675E0,3.713507E-1,-6.131017E-1,-2.8019193E-1,4.2516463E-3,1.1428039E-2,4.5298915E-3,1.6831167E-3,-3.2015853E-3,-6.4314716E-3,-2.0028234E-3,-7.4250307E-3],"categories":[],"categories_nodes":[],"categories_segments":[],"categories_sizes":[],"default_left":[0,0,0,0,0,0,0,0,0,0,0,0,0,0,0],"id":53,"left_children":[1,3,5,7,9,11,13,-1,-1,-1,-1,-1,-1,-1,-1],"loss_changes":[3.4553062E4,1.2821695E4,4.6407812E2,8.317461E2,1.6217578E3,1.4352148E2,1.8220493E2,0E0,0E0,0E0,0E0,0E0,0E0,0E0,0E0],"parents":[2147483647,0,0,1,1,2,2,3,3,4,4,5,5,6,6],"right_children":[2,4,6,8,10,12,14,-1,-1,-1,-1,-1,-1,-1,-1],"split_conditions":[3.2E1,-3.2E1,6.5E1,-1.23E2,1.2E1,3.3E1,1E0,4.2516463E-3,1.1428039E-2,4.5298915E-3,1.6831167E-3,-3.2015853E-3,-6.4314716E-3,-2.0028234E-3,-7.4250307E-3],"split_indices":[0,0,0,0,0,0,3,0,0,0,0,0,0,0,0],"split_type":[0,0,0,0,0,0,0,0,0,0,0,0,0,0,0],"sum_hessian":[1.7830186E5,1.4292536E5,3.5376492E4,3.3316633E4,1.09608734E5,3.0512053E4,4.864437E3,1.7887966E3,3.1527836E4,8.142103E4,2.81877E4,1.5250703E3,2.8986982E4,4.0919487E3,7.724885E2],"tree_param":{"num_deleted":"0","num_feature":"12","num_nodes":"15","size_leaf_vector":"1"}},{"base_weights":[3.2528508E-1,-8.172347E-3,8.417916E-1,-5.7982093E-1,2.040307E-1,5.431319E-1,1.092281E0,-3.469261E-3,-6.8229316E-3,9.152611E-4,3.2032963E-3,5.8464194E-3,2.0192873E-3,1.1426738E-2,7.2885943E-3],"categories":[],"categories_nodes":[],"categories_segments":[],"categories_sizes":[],"default_left":[0,0,0,0,0,0,0,0,0,0,0,0,0,0,0],"id":54,"left_children":[1,3,5,7,9,11,13,-1,-1,-1,-1,-1,-1,-1,-1],"loss_changes":[3.077089E4,1.3169722E4,5.24225E3,6.166553E2,9.8977954E2,3.1463672E2,3.604297E2,0E0,0E0,0E0,0E0,0E0,0E0,0E0,0E0],"parents":[2147483647,0,0,1,1,2,2,3,3,4,4,5,5,6,6],"right_children":[2,4,6,8,10,12,14,-1,-1,-1,-1,-1,-1,-1,-1],"split_conditions":[1.2E1,-3.2E1,3.3E1,-5.8E1,-8E0,1E0,1.06E2,-3.469261E-3,-6.8229316E-3,9.152611E-4,3.2032963E-3,5.8464194E-3,2.0192873E-3,1.1426738E-2,7.2885943E-3],"split_indices":[0,0,0,0,0,4,0,0,0,0,0,0,0,0,0],"split_type":[0,0,0,0,0,0,0,0,0,0,0,0,0,0,0],"sum_hessian":[1.7865467E5,1.0856402E5,7.009065E4,2.9391299E4,7.917273E4,3.1972672E4,3.8117977E4,7.8286025E3,2.1562695E4,3.8642508E4,4.0530215E4,2.9533518E4,2.4391548E3,3.5759902E4,2.358075E3],"tree_param":{"num_deleted":"0","num_feature":"12","num_nodes":"15","size_leaf_vector":"1"}},{"base_weights":[-6.931869E-1,-6.93536E-1,-6.2133026E-1,-6.917316E-1,-7.166971E-3,1.4706339E-2,-6.771626E-1,-7.089121E-3,-7.000059E-3,-7.2197495E-3,-6.337421E-3],"categories":[],"categories_nodes":[],"categories_segments":[],"categories_sizes":[],"default_left":[0,0,0,0,0,0,0,0,0,0,0],"id":55,"left_children":[1,3,5,7,-1,-1,9,-1,-1,-1,-1],"loss_changes":[3E0,9.84375E-1,9.0502594E1,2.421875E-1,0E0,0E0,2.1383667E-1,0E0,0E0,0E0,0E0],"parents":[2147483647,0,0,1,1,2,2,3,3,6,6],"right_children":[2,4,6,8,-1,-1,10,-1,-1,-1,-1],"split_conditions":[2.11E2,3.4E1,2.25E2,1.7E1,-7.166971E-3,1.4706339E-2,3.55E2,-7.089121E-3,-7.000059E-3,-7.2197495E-3,-6.337421E-3],"split_indices":[0,0,0,0,0,0,0,0,0,0,0],"split_type":[0,0,0,0,0,0,0,0,0,0,0],"sum_hessian":[1.6160844E5,1.6081597E5,7.924561E2,1.2882332E5,3.1992656E4,2.0538967E1,7.719172E2,1.07531305E5,2.1292018E4,5.0516083E2,2.6675632E2],"tree_param":{"num_deleted":"0","num_feature":"12","num_nodes":"11","size_leaf_vector":"1"}},{"base_weights":[3.2807925E-1,6.128187E-1,-3.2791176E-1,1.0920377E0,4.310858E-1,4.901233E-2,-5.740874E-1,-7.7926707E-3,1.1267989E-2,5.300727E-3,3.5729064E-3,1.1589297E-3,-4.8545324E-3,-6.483633E-3,-1.8059305E-3],"categories":[],"categories_nodes":[],"categories_segments":[],"categories_sizes":[],"default_left":[0,0,0,0,0,0,0,0,0,0,0,0,0,0,0],"id":56,"left_children":[1,3,5,7,9,11,13,-1,-1,-1,-1,-1,-1,-1,-1],"loss_changes":[3.3907375E4,1.1023027E4,5.0986626E3,6.281797E2,6.535156E2,7.306876E2,7.90417E2,0E0,0E0,0E0,0E0,0E0,0E0,0E0,0E0],"parents":[2147483647,0,0,1,1,2,2,3,3,4,4,5,5,6,6],"right_children":[2,4,6,8,10,12,14,-1,-1,-1,-1,-1,-1,-1,-1],"split_conditions":[1.8E1,-3.2E1,3.3E1,-2.69E2,-7E0,1E0,6.5E1,-7.7926707E-3,1.1267989E-2,5.300727E-3,3.5729064E-3,1.1589297E-3,-4.8545324E-3,-6.483633E-3,-1.8059305E-3],"split_indices":[0,0,0,0,0,9,0,0,0,0,0,0,0,0,0],"split_type":[0,0,0,0,0,0,0,0,0,0,0,0,0,0,0],"sum_hessian":[1.8152888E5,1.2658473E5,5.4944152E4,3.4804066E4,9.178066E4,2.1706172E4,3.323798E4,1.8129095E2,3.4622777E4,4.4396977E4,4.738368E4,1.9333607E4,2.3725654E3,2.8885191E4,4.3527876E3],"tree_param":{"num_deleted":"0","num_feature":"12","num_nodes":"15","size_leaf_vector":"1"}},{"base_weights":[3.0960652E-1,-2.5902638E-2,8.194611E-1,-5.634855E-1,1.7467076E-1,5.054024E-1,1.0771873E0,1.4181254E-2,-5.889448E-3,5.783783E-4,2.9651204E-3,5.414064E-3,-1.179645E-3,1.14916125E-2,7.6536494E-3],"categories":[],"categories_nodes":[],"categories_segments":[],"categories_sizes":[],"default_left":[0,0,0,0,0,0,0,0,0,0,0,0,0,0,0],"id":57,"left_children":[1,3,5,7,9,11,13,-1,-1,-1,-1,-1,-1,-1,-1],"loss_changes":[3.0533195E4,1.1607582E4,5.7326016E3,7.0536914E2,1.0669963E3,4.7560303E2,5.927422E2,0E0,0E0,0E0,0E0,0E0,0E0,0E0,0E0],"parents":[2147483647,0,0,1,1,2,2,3,3,4,4,5,5,6,6],"right_children":[2,4,6,8,10,12,14,-1,-1,-1,-1,-1,-1,-1,-1],"split_conditions":[1.2E1,-3.2E1,3.3E1,-2.69E2,-8E0,1E0,6.5E1,1.4181254E-2,-5.889448E-3,5.783783E-4,2.9651204E-3,5.414064E-3,-1.179645E-3,1.14916125E-2,7.6536494E-3],"split_indices":[0,0,0,0,0,2,0,0,0,0,0,0,0,0,0],"split_type":[0,0,0,0,0,0,0,0,0,0,0,0,0,0,0],"sum_hessian":[1.784894E5,1.07649336E5,7.084008E4,2.9251793E4,7.839755E4,3.193184E4,3.890824E4,1.8407219E2,2.906772E4,3.872132E4,3.9676223E4,3.0745531E4,1.1863094E3,3.4090453E4,4.8177856E3],"tree_param":{"num_deleted":"0","num_feature":"12","num_nodes":"15","size_leaf_vector":"1"}},{"base_weights":[-6.9065416E-1,-6.909942E-1,-6.209779E-1,-7.0518977E-3,-7.181213E-3,-6.492604E-1,1.6492039E-2,-6.924805E-3,1.3204866E-2],"categories":[],"categories_nodes":[],"categories_segments":[],"categories_sizes":[],"default_left":[0,0,0,0,0,0,0,0,0],"id":58,"left_children":[1,3,5,-1,-1,7,-1,-1,-1],"loss_changes":[2.75E0,1.515625E0,4.9238983E1,0E0,0E0,4.1756622E1,0E0,0E0,0E0],"parents":[2147483647,0,0,1,1,2,2,5,5],"right_children":[2,4,6,-1,-1,8,-1,-1,-1],"split_conditions":[1.99E2,4.6E1,1E0,-7.0518977E-3,-7.181213E-3,1E0,1.6492039E-2,-6.924805E-3,1.3204866E-2],"split_indices":[0,0,2,0,0,4,0,0,0],"split_type":[0,0,0,0,0,0,0,0,0],"sum_hessian":[1.6064961E5,1.598579E5,7.916952E2,1.4134644E5,1.8511463E4,7.8215027E2,9.544935E0,7.7149554E2,1.0654707E1],"tree_param":{"num_deleted":"0","num_feature":"12","num_nodes":"9","size_leaf_vector":"1"}},{"base_weights":[3.078547E-1,5.984081E-1,-3.4736514E-1,1.0449475E0,4.244272E-1,2.2611253E-2,-5.818878E-1,3.5856043E-3,1.1002374E-2,4.814574E-3,9.959462E-4,-4.4514143E-4,3.7272247E-3,-6.3294023E-3,-8.4135076E-4],"categories":[],"categories_nodes":[],"categories_segments":[],"categories_sizes":[],"default_left":[0,0,0,0,0,0,0,0,0,0,0,0,0,0,0],"id":59,"left_children":[1,3,5,7,9,11,13,-1,-1,-1,-1,-1,-1,-1,-1],"loss_changes":[3.450292E4,9.753309E3,4.831387E3,7.5290625E2,1.3687627E3,4.885603E2,6.2926953E2,0E0,0E0,0E0,0E0,0E0,0E0,0E0,0E0],"parents":[2147483647,0,0,1,1,2,2,3,3,4,4,5,5,6,6],"right_children":[2,4,6,8,10,12,14,-1,-1,-1,-1,-1,-1,-1,-1],"split_conditions":[1.8E1,-3.2E1,3.3E1,-1.23E2,1E0,1E0,1.06E2,3.5856043E-3,1.1002374E-2,4.814574E-3,9.959462E-4,-4.4514143E-4,3.7272247E-3,-6.3294023E-3,-8.4135076E-4],"split_indices":[0,0,0,0,5,11,0,0,0,0,0,0,0,0,0],"split_type":[0,0,0,0,0,0,0,0,0,0,0,0,0,0,0],"sum_hessian":[1.8123428E5,1.2555768E5,5.5676598E4,3.5202453E4,9.035523E4,2.1599076E4,3.407752E4,1.4985978E3,3.3703855E4,7.914028E4,1.1214947E4,1.809564E4,3.5034368E3,3.1726822E4,2.3506963E3],"tree_param":{"num_deleted":"0","num_feature":"12","num_nodes":"15","size_leaf_vector":"1"}},{"base_weights":[3.099818E-1,8.730888E-2,1.0632155E0,-5.601601E-1,2.515516E-1,1.0906447E0,6.398448E-1,4.3320307E-3,-6.253696E-3,9.314641E-4,3.5545933E-3,6.922124E-3,1.1357837E-2,2.90114E-3,9.425471E-3],"categories":[],"categories_nodes":[],"categories_segments":[],"categories_sizes":[],"default_left":[0,0,0,0,0,0,0,0,0,0,0,0,0,0,0],"id":60,"left_children":[1,3,5,7,9,11,13,-1,-1,-1,-1,-1,-1,-1,-1],"loss_changes":[2.9744148E4,1.4555923E4,4.685078E2,1.3983184E3,1.6819077E3,3.116328E2,2.4629755E2,0E0,0E0,0E0,0E0,0E0,0E0,0E0,0E0],"parents":[2147483647,0,0,1,1,2,2,3,3,4,4,5,5,6,6],"right_children":[2,4,6,8,10,12,14,-1,-1,-1,-1,-1,-1,-1,-1],"split_conditions":[3.2E1,-3.2E1,1.06E2,-1.23E2,-7E0,3.3E1,1.74E2,4.3320307E-3,-6.253696E-3,9.314641E-4,3.5545933E-3,6.922124E-3,1.1357837E-2,2.90114E-3,9.425471E-3],"split_indices":[0,0,0,0,0,0,0,0,0,0,0,0,0,0,0],"split_type":[0,0,0,0,0,0,0,0,0,0,0,0,0,0,0],"sum_hessian":[1.7734456E5,1.3688062E5,4.0463945E4,2.76956E4,1.0918502E5,3.8000113E4,2.46383E3,1.3723633E3,2.6323236E4,4.0874918E4,6.83101E4,1.7462004E3,3.6253914E4,1.08948E3,1.3743501E3],"tree_param":{"num_deleted":"0","num_feature":"12","num_nodes":"15","size_leaf_vector":"1"}},{"base_weights":[-6.8799174E-1,-6.855901E-1,-6.976994E-1,-6.872215E-1,-6.782574E-1,-7.148449E-3,-6.557224E-1,-7.0007076E-3,-7.076002E-3,-6.9987094E-3,-6.391909E-3,1.312383E-2,-6.942532E-3],"categories":[],"categories_nodes":[],"categories_segments":[],"categories_sizes":[],"default_left":[0,0,0,0,0,0,0,0,0,0,0,0,0],"id":61,"left_children":[1,3,5,7,9,-1,11,-1,-1,-1,-1,-1,-1],"loss_changes":[2.609375E0,4.3359375E-1,5.878906E-1,2.109375E-1,6.4921875E0,0E0,4.1706177E1,0E0,0E0,0E0,0E0,0E0,0E0],"parents":[2147483647,0,0,1,1,2,2,3,3,4,4,6,6],"right_children":[2,4,6,8,10,-1,12,-1,-1,-1,-1,-1,-1],"split_conditions":[3.4E1,1.7E1,2.11E2,-5E0,1E0,-7.148449E-3,2.25E2,-7.0007076E-3,-7.076002E-3,-6.9987094E-3,-6.391909E-3,1.312383E-2,-6.942532E-3],"split_indices":[0,0,0,0,9,0,0,0,0,0,0,0,0],"split_type":[0,0,0,0,0,0,0,0,0,0,0,0,0],"sum_hessian":[1.5927842E5,1.27755016E5,3.1523404E4,1.044141E5,2.3340916E4,3.0581793E4,9.416113E2,6.62041E4,3.8209996E4,2.0940713E4,2.4002043E3,1.0681397E1,9.3092993E2],"tree_param":{"num_deleted":"0","num_feature":"12","num_nodes":"13","size_leaf_vector":"1"}},{"base_weights":[3.3206406E-1,6.45388E-1,-2.2293654E-1,1.0436671E0,4.7279474E-1,1.0932354E-1,-5.373158E-1,4.5455024E-3,1.1030152E-2,5.788643E-3,3.7701414E-3,1.6497071E-3,-1.9602764E-3,-6.1237146E-3,-1.5030052E-3],"categories":[],"categories_nodes":[],"categories_segments":[],"categories_sizes":[],"default_left":[0,0,0,0,0,0,0,0,0,0,0,0,0,0,0],"id":62,"left_children":[1,3,5,7,9,11,13,-1,-1,-1,-1,-1,-1,-1,-1],"loss_changes":[3.1196293E4,7.8808047E3,6.761928E3,7.2260156E2,7.7591016E2,4.9236746E2,7.9730176E2,0E0,0E0,0E0,0E0,0E0,0E0,0E0,0E0],"parents":[2147483647,0,0,1,1,2,2,3,3,4,4,5,5,6,6],"right_children":[2,4,6,8,10,12,14,-1,-1,-1,-1,-1,-1,-1,-1],"split_conditions":[1.2E1,-3.2E1,3.3E1,-1.23E2,-7E0,1E0,6.5E1,4.5455024E-3,1.1030152E-2,5.788643E-3,3.7701414E-3,1.6497071E-3,-1.9602764E-3,-6.1237146E-3,-1.5030052E-3],"split_indices":[0,0,0,0,0,5,0,0,0,0,0,0,0,0,0],"split_type":[0,0,0,0,0,0,0,0,0,0,0,0,0,0,0],"sum_hessian":[1.7939538E5,1.1466375E5,6.473163E4,3.466517E4,7.999858E4,3.1469596E4,3.3262035E4,1.9063722E3,3.2758799E4,4.22133E4,3.7785277E4,2.68374E4,4.632195E3,2.8736104E4,4.5259307E3],"tree_param":{"num_deleted":"0","num_feature":"12","num_nodes":"15","size_leaf_vector":"1"}},{"base_weights":[2.898831E-1,8.7465145E-2,1.0667776E0,-5.545409E-1,2.5814244E-1,1.0985587E0,8.4036726E-1,4.492226E-3,-6.0951975E-3,1.8766818E-3,4.459656E-3,1.1823311E-2,1.062975E-2,7.4222824E-3,1.2323695E-2],"categories":[],"categories_nodes":[],"categories_segments":[],"categories_sizes":[],"default_left":[0,0,0,0,0,0,0,0,0,0,0,0,0,0,0],"id":63,"left_children":[1,3,5,7,9,11,13,-1,-1,-1,-1,-1,-1,-1,-1],"loss_changes":[2.799786E4,1.5476744E4,2.632461E2,1.2216885E3,1.481335E3,1.0808594E2,1.87906E2,0E0,0E0,0E0,0E0,0E0,0E0,0E0,0E0],"parents":[2147483647,0,0,1,1,2,2,3,3,4,4,5,5,6,6],"right_children":[2,4,6,8,10,12,14,-1,-1,-1,-1,-1,-1,-1,-1],"split_conditions":[3.3E1,-3.2E1,6.5E1,-1.23E2,1.2E1,1E0,1.74E2,4.492226E-3,-6.0951975E-3,1.8766818E-3,4.459656E-3,1.1823311E-2,1.062975E-2,7.4222824E-3,1.2323695E-2],"split_indices":[0,0,0,0,0,1,0,0,0,0,0,0,0,0,0],"split_type":[0,0,0,0,0,0,0,0,0,0,0,0,0,0,0],"sum_hessian":[1.7804431E5,1.4124445E5,3.6799867E4,2.9662746E4,1.115817E5,3.2267014E4,4.532852E3,1.1866041E3,2.8476143E4,7.860734E4,3.297436E4,1.6359895E4,1.590712E4,3.4503708E3,1.0824813E3],"tree_param":{"num_deleted":"0","num_feature":"12","num_nodes":"15","size_leaf_vector":"1"}},{"base_weights":[-6.863466E-1,-6.866716E-1,-6.3131416E-1,-6.8557173E-1,-7.1469415E-3,-6.540908E-1,1.3050121E-2,-7.104253E-3,-6.9964654E-3,-4.8580454E-3,-6.8883253E-3],"categories":[],"categories_nodes":[],"categories_segments":[],"categories_sizes":[],"default_left":[0,0,0,0,0,0,0,0,0,0,0],"id":64,"left_children":[1,3,5,7,-1,9,-1,-1,-1,-1,-1],"loss_changes":[1.7734375E0,9.84375E-1,4.044232E1,8.125E-1,0E0,2.3223267E0,0E0,0E0,0E0,0E0,0E0],"parents":[2147483647,0,0,1,1,2,2,3,3,5,5],"right_children":[2,4,6,8,-1,10,-1,-1,-1,-1,-1],"split_conditions":[2.01E2,5.3E1,1E0,-3.9E1,-7.1469415E-3,2.25E2,1.3050121E-2,-7.104253E-3,-6.9964654E-3,-4.8580454E-3,-6.8883253E-3],"split_indices":[0,0,4,0,0,0,0,0,0,0,0],"split_type":[0,0,0,0,0,0,0,0,0,0,0],"sum_hessian":[1.5804502E5,1.571026E5,9.424159E2,1.4411855E5,1.2984053E4,9.317103E2,1.070556E1,1.9982059E4,1.24136484E5,9.528049E1,8.364299E2],"tree_param":{"num_deleted":"0","num_feature":"12","num_nodes":"11","size_leaf_vector":"1"}},{"base_weights":[3.157863E-1,5.2658165E-1,-5.7088876E-1,1.0129615E0,3.5300186E-1,-6.292725E-1,-3.5804975E-1,2.8810906E-3,1.0647855E-2,4.599476E-3,1.2252162E-3,-6.8740933E-3,-5.9307804E-3,-5.1926672E-3,-1.5989185E-3],"categories":[],"categories_nodes":[],"categories_segments":[],"categories_sizes":[],"default_left":[0,0,0,0,0,0,0,0,0,0,0,0,0,0,0],"id":65,"left_children":[1,3,5,7,9,11,13,-1,-1,-1,-1,-1,-1,-1,-1],"loss_changes":[3.3008297E4,1.2045012E4,4.207119E2,7.720039E2,2.371585E3,5.5322266E1,2.2001147E2,0E0,0E0,0E0,0E0,0E0,0E0,0E0,0E0],"parents":[2147483647,0,0,1,1,2,2,3,3,4,4,5,5,6,6],"right_children":[2,4,6,8,10,12,14,-1,-1,-1,-1,-1,-1,-1,-1],"split_conditions":[3.3E1,-3E1,6.1E1,-1.25E2,1.2E1,1E0,1E0,2.8810906E-3,1.0647855E-2,4.599476E-3,1.2252162E-3,-6.8740933E-3,-5.9307804E-3,-5.1926672E-3,-1.5989185E-3],"split_indices":[0,0,0,0,0,1,1,0,0,0,0,0,0,0,0],"split_type":[0,0,0,0,0,0,0,0,0,0,0,0,0,0,0],"sum_hessian":[1.7660298E5,1.426829E5,3.392008E4,3.7526633E4,1.0515628E5,2.6615441E4,7.304636E3,1.3931268E3,3.6133504E4,7.432426E4,3.0832025E4,1.4237109E4,1.2378333E4,4.1908013E3,3.1138347E3],"tree_param":{"num_deleted":"0","num_feature":"12","num_nodes":"15","size_leaf_vector":"1"}},{"base_weights":[3.3101928E-1,1.1502089E-1,1.037012E0,-5.6579405E-1,2.9073095E-1,1.0806433E0,7.3028827E-1,1.8251512E-3,-6.155722E-3,1.1968703E-3,4.036808E-3,6.4533316E-3,1.1269309E-2,1.3041664E-3,7.987855E-3],"categories":[],"categories_nodes":[],"categories_segments":[],"categories_sizes":[],"default_left":[0,0,0,0,0,0,0,0,0,0,0,0,0,0,0],"id":66,"left_children":[1,3,5,7,9,11,13,-1,-1,-1,-1,-1,-1,-1,-1],"loss_changes":[2.7278502E4,1.638629E4,5.5939453E2,7.553994E2,1.9662109E3,3.4922656E2,1.590039E2,0E0,0E0,0E0,0E0,0E0,0E0,0E0,0E0],"parents":[2147483647,0,0,1,1,2,2,3,3,4,4,5,5,6,6],"right_children":[2,4,6,8,10,12,14,-1,-1,-1,-1,-1,-1,-1,-1],"split_conditions":[3.2E1,-3.2E1,6.5E1,-1.25E2,-7E0,3.3E1,6.7E1,1.8251512E-3,-6.155722E-3,1.1968703E-3,4.036808E-3,6.4533316E-3,1.1269309E-2,1.3041664E-3,7.987855E-3],"split_indices":[0,0,0,0,0,0,0,0,0,0,0,0,0,0,0],"split_type":[0,0,0,0,0,0,0,0,0,0,0,0,0,0,0],"sum_hessian":[1.7888936E5,1.3698114E5,4.1908227E4,2.809978E4,1.0888136E5,3.668692E4,5.2213037E3,1.2990366E3,2.6800742E4,4.077485E4,6.810651E4,1.6575953E3,3.5029324E4,4.0672015E2,4.814584E3],"tree_param":{"num_deleted":"0","num_feature":"12","num_nodes":"15","size_leaf_vector":"1"}},{"base_weights":[-6.843563E-1,-6.9878055E-3,-7.1130376E-3],"categories":[],"categories_nodes":[],"categories_segments":[],"categories_sizes":[],"default_left":[0,0,0],"id":67,"left_children":[1,-1,-1],"loss_changes":[8.75E-1,0E0,0E0],"parents":[2147483647,0,0],"right_children":[2,-1,-1],"split_conditions":[5.3E1,-6.9878055E-3,-7.1130376E-3],"split_indices":[0,0,0],"split_type":[0,0,0],"sum_hessian":[1.6124664E5,1.4685169E5,1.4394949E4],"tree_param":{"num_deleted":"0","num_feature":"12","num_nodes":"3","size_leaf_vector":"1"}},{"base_weights":[3.069642E-1,5.718874E-1,-3.220679E-1,1.0171739E0,3.985676E-1,2.0689715E-2,-5.5813265E-1,4.0001934E-3,1.0748006E-2,5.213536E-3,3.069759E-3,-1.528129E-4,4.7458163E-3,-6.202412E-3,-2.1080172E-3],"categories":[],"categories_nodes":[],"categories_segments":[],"categories_sizes":[],"default_left":[0,0,0,0,0,0,0,0,0,0,0,0,0,0,0],"id":68,"left_children":[1,3,5,7,9,11,13,-1,-1,-1,-1,-1,-1,-1,-1],"loss_changes":[2.981158E4,9.713742E3,4.289911E3,7.4402344E2,9.9097363E2,3.418876E2,5.33458E2,0E0,0E0,0E0,0E0,0E0,0E0,0E0,0E0],"parents":[2147483647,0,0,1,1,2,2,3,3,4,4,5,5,6,6],"right_children":[2,4,6,8,10,12,14,-1,-1,-1,-1,-1,-1,-1,-1],"split_conditions":[1.8E1,-3.2E1,3.3E1,-1.23E2,-7E0,1E0,7E1,4.0001934E-3,1.0748006E-2,5.213536E-3,3.069759E-3,-1.528129E-4,4.7458163E-3,-6.202412E-3,-2.1080172E-3],"split_indices":[0,0,0,0,0,3,0,0,0,0,0,0,0,0,0],"split_type":[0,0,0,0,0,0,0,0,0,0,0,0,0,0,0],"sum_hessian":[1.7889136E5,1.2587789E5,5.301347E4,3.5266895E4,9.061099E4,2.1619432E4,3.1394035E4,1.8052905E3,3.3461605E4,4.2536387E4,4.807461E4,2.0009482E4,1.6099502E3,2.760205E4,3.7919854E3],"tree_param":{"num_deleted":"0","num_feature":"12","num_nodes":"15","size_leaf_vector":"1"}},{"base_weights":[2.84776E-1,-3.093173E-2,7.71938E-1,-5.647686E-1,1.7474262E-1,4.730268E-1,1.0208651E0,1.3917905E-2,-5.9000887E-3,7.745797E-4,2.8469053E-3,5.2634007E-3,2.586842E-4,1.0963986E-2,6.9863824E-3],"categories":[],"categories_nodes":[],"categories_segments":[],"categories_sizes":[],"default_left":[0,0,0,0,0,0,0,0,0,0,0,0,0,0,0],"id":69,"left_children":[1,3,5,7,9,11,13,-1,-1,-1,-1,-1,-1,-1,-1],"loss_changes":[2.7067246E4,1.1724665E4,5.147961E3,6.9333105E2,7.905332E2,5.855674E2,6.5123047E2,0E0,0E0,0E0,0E0,0E0,0E0,0E0,0E0],"parents":[2147483647,0,0,1,1,2,2,3,3,4,4,5,5,6,6],"right_children":[2,4,6,8,10,12,14,-1,-1,-1,-1,-1,-1,-1,-1],"split_conditions":[1.2E1,-3.2E1,3.3E1,-2.69E2,-7E0,1E0,6.5E1,1.3917905E-2,-5.9000887E-3,7.745797E-4,2.8469053E-3,5.2634007E-3,2.586842E-4,1.0963986E-2,6.9863824E-3],"split_indices":[0,0,0,0,0,3,0,0,0,0,0,0,0,0,0],"split_type":[0,0,0,0,0,0,0,0,0,0,0,0,0,0,0],"sum_hessian":[1.759851E5,1.06782516E5,6.9202586E4,2.9699654E4,7.708286E4,3.1445775E4,3.775681E4,1.8556096E2,2.9514094E4,3.9423887E4,3.7658977E4,2.8769557E4,2.6762183E3,3.278633E4,4.97048E3],"tree_param":{"num_deleted":"0","num_feature":"12","num_nodes":"15","size_leaf_vector":"1"}},{"base_weights":[-6.83447E-1,-6.8380845E-1,-5.9916735E-1,-6.820959E-1,-7.065145E-3,1.4633759E-2,-6.6292924E-1,-6.9786063E-3,-6.6234996E-3,-6.1942055E-3,-7.119054E-3],"categories":[],"categories_nodes":[],"categories_segments":[],"categories_sizes":[],"default_left":[0,0,0,0,0,0,0,0,0,0,0],"id":70,"left_children":[1,3,5,7,-1,-1,9,-1,-1,-1,-1],"loss_changes":[3.8125E0,8.046875E-1,8.8472946E1,8.59375E-2,0E0,0E0,2.2387695E-1,0E0,0E0,0E0,0E0],"parents":[2147483647,0,0,1,1,2,2,3,3,6,6],"right_children":[2,4,6,8,-1,-1,10,-1,-1,-1,-1],"split_conditions":[2.01E2,3.4E1,2.25E2,3.3E1,-7.065145E-3,1.4633759E-2,1E0,-6.9786063E-3,-6.6234996E-3,-6.1942055E-3,-7.119054E-3],"split_indices":[0,0,0,0,0,0,1,0,0,0,0],"split_type":[0,0,0,0,0,0,0,0,0,0,0],"sum_hessian":[1.5896664E5,1.5827836E5,6.882696E2,1.2730083E5,3.0977535E4,2.0576607E1,6.67693E2,1.26314086E5,9.8674097E2,2.5372336E2,4.139696E2],"tree_param":{"num_deleted":"0","num_feature":"12","num_nodes":"11","size_leaf_vector":"1"}},{"base_weights":[3.0731848E-1,5.060705E-1,-5.483739E-1,1.0089096E0,3.547512E-1,-5.909493E-1,-2.3590338E-1,7.1166595E-3,1.0852037E-2,5.4706368E-3,2.5835042E-3,-2.077802E-3,-6.2728617E-3,-2.845861E-3,1.3728258E-2],"categories":[],"categories_nodes":[],"categories_segments":[],"categories_sizes":[],"default_left":[0,0,0,0,0,0,0,0,0,0,0,0,0,0,0],"id":71,"left_children":[1,3,5,7,9,11,13,-1,-1,-1,-1,-1,-1,-1,-1],"loss_changes":[3.0398559E4,1.103573E4,4.4753613E2,5.467422E2,2.051121E3,2.569082E2,2.6939133E2,0E0,0E0,0E0,0E0,0E0,0E0,0E0,0E0],"parents":[2147483647,0,0,1,1,2,2,3,3,4,4,5,5,6,6],"right_children":[2,4,6,8,10,12,14,-1,-1,-1,-1,-1,-1,-1,-1],"split_conditions":[3.2E1,-3.2E1,6.5E1,-6.6E1,-8E0,3.3E1,1E0,7.1166595E-3,1.0852037E-2,5.4706368E-3,2.5835042E-3,-2.077802E-3,-6.2728617E-3,-2.845861E-3,1.3728258E-2],"split_indices":[0,0,0,0,0,0,4,0,0,0,0,0,0,0,0],"split_type":[0,0,0,0,0,0,0,0,0,0,0,0,0,0,0],"sum_hessian":[1.7874106E5,1.4505095E5,3.3690105E4,3.355182E4,1.1149913E5,2.9647889E4,4.042215E3,4.796298E3,2.8755521E4,4.033895E4,7.116019E4,1.6211962E3,2.8026693E4,3.9370498E3,1.0516528E2],"tree_param":{"num_deleted":"0","num_feature":"12","num_nodes":"15","size_leaf_vector":"1"}},{"base_weights":[3.1234652E-1,1.0354359E-1,1.0350844E0,-5.3054553E-1,2.6403555E-1,1.0648764E0,8.356699E-1,-1.7710477E-3,-6.1486876E-3,1.9452502E-3,4.788254E-3,7.6306253E-3,1.1048986E-2,8.937291E-3,-8.705545E-3],"categories":[],"categories_nodes":[],"categories_segments":[],"categories_sizes":[],"default_left":[0,0,0,0,0,0,0,0,0,0,0,0,0,0,0],"id":72,"left_children":[1,3,5,7,9,11,13,-1,-1,-1,-1,-1,-1,-1,-1],"loss_changes":[2.763824E4,1.4460594E4,2.4236719E2,7.241743E2,1.7087158E3,1.7473438E2,3.4414038E2,0E0,0E0,0E0,0E0,0E0,0E0,0E0,0E0],"parents":[2147483647,0,0,1,1,2,2,3,3,4,4,5,5,6,6],"right_children":[2,4,6,8,10,12,14,-1,-1,-1,-1,-1,-1,-1,-1],"split_conditions":[3.2E1,-3.2E1,6.5E1,-6.4E1,1.2E1,3.3E1,1E0,-1.7710477E-3,-6.1486876E-3,1.9452502E-3,4.788254E-3,7.6306253E-3,1.1048986E-2,8.937291E-3,-8.705545E-3],"split_indices":[0,0,0,0,0,0,7,0,0,0,0,0,0,0,0],"split_type":[0,0,0,0,0,0,0,0,0,0,0,0,0,0,0],"sum_hessian":[1.8315019E5,1.4209831E5,4.105187E4,2.8700453E4,1.1339786E5,3.5712473E4,5.3393984E3,4.7400156E3,2.3960438E4,8.3282766E4,3.0115096E4,1.6562008E3,3.4056273E4,5.22161E3,1.1778865E2],"tree_param":{"num_deleted":"0","num_feature":"12","num_nodes":"15","size_leaf_vector":"1"}},{"base_weights":[-6.8061584E-1,-6.8096834E-1,-5.9893215E-1,-6.9495756E-3,-7.051115E-3,-6.3135225E-1,1.6854635E-2,-2.9389306E-3,-7.0919506E-3],"categories":[],"categories_nodes":[],"categories_segments":[],"categories_sizes":[],"default_left":[0,0,0,0,0,0,0,0,0],"id":73,"left_children":[1,3,5,-1,-1,7,-1,-1,-1],"loss_changes":[3.5078125E0,8.359375E-1,4.926407E1,0E0,0E0,1.3694794E1,0E0,0E0,0E0],"parents":[2147483647,0,0,1,1,2,2,5,5],"right_children":[2,4,6,-1,-1,8,-1,-1,-1],"split_conditions":[2.11E2,4.1E1,1E0,-6.9495756E-3,-7.051115E-3,2.25E2,1.6854635E-2,-2.9389306E-3,-7.0919506E-3],"split_indices":[0,0,2,0,0,0,0,0,0],"split_type":[0,0,0,0,0,0,0,0,0],"sum_hessian":[1.577145E5,1.5702703E5,6.874677E2,1.3420228E5,2.2824736E4,6.780416E2,9.426098E0,1.0564786E2,5.723938E2],"tree_param":{"num_deleted":"0","num_feature":"12","num_nodes":"9","size_leaf_vector":"1"}},{"base_weights":[3.1551772E-1,5.083391E-1,-5.529497E-1,9.814855E-1,3.4546268E-1,-6.1210585E-1,-1.9685516E-1,6.3721174E-3,1.0594719E-2,5.4282066E-3,2.375629E-3,-9.996549E-4,-6.532721E-3,5.2972645E-3,-2.6291343E-3],"categories":[],"categories_nodes":[],"categories_segments":[],"categories_sizes":[],"default_left":[0,0,0,0,0,0,0,0,0,0,0,0,0,0,0],"id":74,"left_children":[1,3,5,7,9,11,13,-1,-1,-1,-1,-1,-1,-1,-1],"loss_changes":[2.9571318E4,1.1135168E4,6.751826E2,7.208906E2,2.2538643E3,3.7658398E2,1.966095E2,0E0,0E0,0E0,0E0,0E0,0E0,0E0,0E0],"parents":[2147483647,0,0,1,1,2,2,3,3,4,4,5,5,6,6],"right_children":[2,4,6,8,10,12,14,-1,-1,-1,-1,-1,-1,-1,-1],"split_conditions":[3.2E1,-3E1,6.5E1,-6.6E1,-7E0,3.3E1,6.7E1,6.3721174E-3,1.0594719E-2,5.4282066E-3,2.375629E-3,-9.996549E-4,-6.532721E-3,5.2972645E-3,-2.6291343E-3],"split_indices":[0,0,0,0,0,0,0,0,0,0,0,0,0,0,0],"split_type":[0,0,0,0,0,0,0,0,0,0,0,0,0,0,0],"sum_hessian":[1.765885E5,1.4450558E5,3.2082912E4,3.700458E4,1.07501E5,2.7510488E4,4.5724243E3,4.8822134E3,3.2122363E4,4.07597E4,6.6741305E4,1.3568707E3,2.6153617E4,3.5423065E2,4.218194E3],"tree_param":{"num_deleted":"0","num_feature":"12","num_nodes":"15","size_leaf_vector":"1"}},{"base_weights":[2.901412E-1,1.7569417E-2,8.7402993E-1,-5.045363E-1,2.0812683E-1,4.9777105E-1,1.0035535E0,7.232021E-4,-5.4400032E-3,5.90802E-4,3.2172594E-3,5.78406E-3,-5.260583E-4,1.045512E-2,7.4213613E-3],"categories":[],"categories_nodes":[],"categories_segments":[],"categories_sizes":[],"default_left":[0,0,0,0,0,0,0,0,0,0,0,0,0,0,0],"id":75,"left_children":[1,3,5,7,9,11,13,-1,-1,-1,-1,-1,-1,-1,-1],"loss_changes":[2.8485848E4,1.2140343E4,2.7748672E3,5.142588E2,1.4306367E3,5.4354785E2,2.1920703E2,0E0,0E0,0E0,0E0,0E0,0E0,0E0,0E0],"parents":[2147483647,0,0,1,1,2,2,3,3,4,4,5,5,6,6],"right_children":[2,4,6,8,10,12,14,-1,-1,-1,-1,-1,-1,-1,-1],"split_conditions":[2.1E1,-3E1,3.1E1,-1.23E2,-7E0,1E0,1.06E2,7.232021E-4,-5.4400032E-3,5.90802E-4,3.2172594E-3,5.78406E-3,-5.260583E-4,1.045512E-2,7.4213613E-3],"split_indices":[0,0,0,0,0,3,0,0,0,0,0,0,0,0,0],"split_type":[0,0,0,0,0,0,0,0,0,0,0,0,0,0,0],"sum_hessian":[1.7899014E5,1.2202679E5,5.6963344E4,3.2627348E4,8.9399445E4,1.4589073E4,4.2374273E4,1.4810588E3,3.114629E4,3.706062E4,5.2338824E4,1.2987535E4,1.6015376E3,3.9695426E4,2.6788467E3],"tree_param":{"num_deleted":"0","num_feature":"12","num_nodes":"15","size_leaf_vector":"1"}},{"base_weights":[-6.7739326E-1,-6.7773205E-1,-5.997764E-1,-6.9201696E-3,-7.042729E-3,-6.314251E-1,1.5446028E-2,-6.779776E-3,1.3085358E-2],"categories":[],"categories_nodes":[],"categories_segments":[],"categories_sizes":[],"default_left":[0,0,0,0,0,0,0,0,0],"id":76,"left_children":[1,3,5,-1,-1,7,-1,-1,-1],"loss_changes":[3.125E0,7.65625E-1,4.5704742E1,0E0,0E0,4.073114E1,0E0,0E0,0E0],"parents":[2147483647,0,0,1,1,2,2,5,5],"right_children":[2,4,6,-1,-1,8,-1,-1,-1],"split_conditions":[2.11E2,5.3E1,1E0,-6.9201696E-3,-7.042729E-3,1E0,1.5446028E-2,-6.779776E-3,1.3085358E-2],"split_indices":[0,0,3,0,0,4,0,0,0],"split_type":[0,0,0,0,0,0,0,0,0],"sum_hessian":[1.5756094E5,1.5686598E5,6.9495447E2,1.4270116E5,1.4164822E4,6.8505945E2,9.894997E0,6.743654E2,1.0694023E1],"tree_param":{"num_deleted":"0","num_feature":"12","num_nodes":"9","size_leaf_vector":"1"}},{"base_weights":[2.9201737E-1,4.8186785E-1,-5.642907E-1,1.0104951E0,3.1228626E-1,-6.030462E-1,-2.9447782E-1,-7.858036E-3,1.0428204E-2,4.6981885E-3,2.2492525E-3,-6.957896E-3,-5.256803E-3,-4.0765405E-3,2.0723385E-3],"categories":[],"categories_nodes":[],"categories_segments":[],"categories_sizes":[],"default_left":[0,0,0,0,0,0,0,0,0,0,0,0,0,0,0],"id":77,"left_children":[1,3,5,7,9,11,13,-1,-1,-1,-1,-1,-1,-1,-1],"loss_changes":[2.9213176E4,1.3184578E4,3.402666E2,5.823281E2,1.5123721E3,1.952539E2,2.1228024E2,0E0,0E0,0E0,0E0,0E0,0E0,0E0,0E0],"parents":[2147483647,0,0,1,1,2,2,3,3,4,4,5,5,6,6],"right_children":[2,4,6,8,10,12,14,-1,-1,-1,-1,-1,-1,-1,-1],"split_conditions":[3.3E1,-3.2E1,6.5E1,-2.69E2,-7E0,1E0,1E0,-7.858036E-3,1.0428204E-2,4.6981885E-3,2.2492525E-3,-6.957896E-3,-5.256803E-3,-4.0765405E-3,2.0723385E-3],"split_indices":[0,0,0,0,0,1,9,0,0,0,0,0,0,0,0],"split_type":[0,0,0,0,0,0,0,0,0,0,0,0,0,0,0],"sum_hessian":[1.7969589E5,1.4708655E5,3.2609344E4,3.5723355E4,1.1136318E5,2.8511084E4,4.0982603E3,1.825765E2,3.554078E4,4.2949492E4,6.841369E4,1.5258252E4,1.3252832E4,3.3898582E3,7.0840204E2],"tree_param":{"num_deleted":"0","num_feature":"12","num_nodes":"15","size_leaf_vector":"1"}},{"base_weights":[2.9521203E-1,1.35047035E-2,8.2731247E-1,-5.626538E-1,2.022653E-1,5.5008453E-1,9.981382E-1,-6.717038E-4,-6.029187E-3,1.0766737E-3,2.9185005E-3,5.143273E-3,9.228043E-3,1.06955E-2,7.336995E-3],"categories":[],"categories_nodes":[],"categories_segments":[],"categories_sizes":[],"default_left":[0,0,0,0,0,0,0,0,0,0,0,0,0,0,0],"id":78,"left_children":[1,3,5,7,9,11,13,-1,-1,-1,-1,-1,-1,-1,-1],"loss_changes":[2.692029E4,1.2770789E4,2.9428984E3,3.8645312E2,7.126074E2,3.9280176E2,5.1315625E2,0E0,0E0,0E0,0E0,0E0,0E0,0E0,0E0],"parents":[2147483647,0,0,1,1,2,2,3,3,4,4,5,5,6,6],"right_children":[2,4,6,8,10,12,14,-1,-1,-1,-1,-1,-1,-1,-1],"split_conditions":[1.8E1,-3.2E1,3.3E1,-1.23E2,-7E0,1E0,6.5E1,-6.717038E-4,-6.029187E-3,1.0766737E-3,2.9185005E-3,5.143273E-3,9.228043E-3,1.06955E-2,7.336995E-3],"split_indices":[0,0,0,0,0,5,0,0,0,0,0,0,0,0,0],"split_type":[0,0,0,0,0,0,0,0,0,0,0,0,0,0,0],"sum_hessian":[1.7959688E5,1.1742869E5,6.2168184E4,2.897706E4,8.8451625E4,2.3704139E4,3.8464047E4,1.4879716E3,2.748909E4,4.0819754E4,4.763187E4,2.0905932E4,2.7982073E3,3.2880008E4,5.584037E3],"tree_param":{"num_deleted":"0","num_feature":"12","num_nodes":"15","size_leaf_vector":"1"}},{"base_weights":[-6.765925E-1,-6.904896E-3,-6.824614E-1,-6.9909994E-3,-6.453379E-1,-6.8414244E-3,1.2994221E-2],"categories":[],"categories_nodes":[],"categories_segments":[],"categories_sizes":[],"default_left":[0,0,0,0,0,0,0],"id":79,"left_children":[1,-1,3,-1,5,-1,-1],"loss_changes":[2.421875E-1,0E0,2.03125E-1,0E0,4.090268E1,0E0,0E0],"parents":[2147483647,0,0,2,2,4,4],"right_children":[2,-1,4,-1,6,-1,-1],"split_conditions":[3.4E1,-6.904896E-3,2.01E2,-6.9909994E-3,1E0,-6.8414244E-3,1.2994221E-2],"split_indices":[0,0,0,0,4,0,0],"split_type":[0,0,0,0,0,0,0],"sum_hessian":[1.5687798E5,1.260594E5,3.081859E4,2.9903576E4,9.150129E2,9.0428906E2,1.0723807E1],"tree_param":{"num_deleted":"0","num_feature":"12","num_nodes":"7","size_leaf_vector":"1"}},{"base_weights":[2.9158565E-1,5.568025E-1,-3.1244764E-1,9.7210824E-1,3.9382252E-1,2.4451401E-2,-5.4156476E-1,2.628677E-3,1.0248398E-2,5.1083425E-3,3.0662564E-3,7.961412E-4,-4.64977E-3,-6.137004E-3,-1.5408377E-3],"categories":[],"categories_nodes":[],"categories_segments":[],"categories_sizes":[],"default_left":[0,0,0,0,0,0,0,0,0,0,0,0,0,0,0],"id":80,"left_children":[1,3,5,7,9,11,13,-1,-1,-1,-1,-1,-1,-1,-1],"loss_changes":[2.8568645E4,8.386668E3,4.2002383E3,7.4733984E2,8.833965E2,5.6306866E2,7.400488E2,0E0,0E0,0E0,0E0,0E0,0E0,0E0,0E0],"parents":[2147483647,0,0,1,1,2,2,3,3,4,4,5,5,6,6],"right_children":[2,4,6,8,10,12,14,-1,-1,-1,-1,-1,-1,-1,-1],"split_conditions":[1.8E1,-3.2E1,3.3E1,-1.25E2,-7E0,1E0,6.5E1,2.628677E-3,1.0248398E-2,5.1083425E-3,3.0662564E-3,7.961412E-4,-4.64977E-3,-6.137004E-3,-1.5408377E-3],"split_indices":[0,0,0,0,0,9,0,0,0,0,0,0,0,0,0],"split_type":[0,0,0,0,0,0,0,0,0,0,0,0,0,0,0],"sum_hessian":[1.7833011E5,1.2392074E5,5.4409363E4,3.4923566E4,8.899718E4,2.2022898E4,3.2386467E4,1.4057247E3,3.351784E4,4.1896887E4,4.710029E4,1.9816125E4,2.2067734E3,2.8168656E4,4.21781E3],"tree_param":{"num_deleted":"0","num_feature":"12","num_nodes":"15","size_leaf_vector":"1"}},{"base_weights":[3.0281356E-1,1.0428355E-1,9.8054856E-1,-5.364559E-1,2.6128757E-1,1.0201423E0,7.067901E-1,2.7572026E-3,-5.9298435E-3,9.5867884E-4,3.650321E-3,6.131668E-3,1.0647702E-2,4.0354105E-3,8.455689E-3],"categories":[],"categories_nodes":[],"categories_segments":[],"categories_sizes":[],"default_left":[0,0,0,0,0,0,0,0,0,0,0,0,0,0,0],"id":81,"left_children":[1,3,5,7,9,11,13,-1,-1,-1,-1,-1,-1,-1,-1],"loss_changes":[2.3950346E4,1.3850143E4,4.3575E2,9.4716895E2,1.7716001E3,3.095E2,1.9002832E2,0E0,0E0,0E0,0E0,0E0,0E0,0E0,0E0],"parents":[2147483647,0,0,1,1,2,2,3,3,4,4,5,5,6,6],"right_children":[2,4,6,8,10,12,14,-1,-1,-1,-1,-1,-1,-1,-1],"split_conditions":[3.2E1,-3.2E1,6.5E1,-1.23E2,-7E0,3.3E1,7.6E1,2.7572026E-3,-5.9298435E-3,9.5867884E-4,3.650321E-3,6.131668E-3,1.0647702E-2,4.0354105E-3,8.455689E-3],"split_indices":[0,0,0,0,0,0,0,0,0,0,0,0,0,0,0],"split_type":[0,0,0,0,0,0,0,0,0,0,0,0,0,0,0],"sum_hessian":[1.7800883E5,1.3767938E5,4.0329453E4,2.7095693E4,1.1058368E5,3.5231047E4,5.098406E3,1.3820944E3,2.57136E4,4.0186797E4,7.0396875E4,1.67536E3,3.3555688E4,1.4173451E3,3.6810605E3],"tree_param":{"num_deleted":"0","num_feature":"12","num_nodes":"15","size_leaf_vector":"1"}},{"base_weights":[-6.7358935E-1,-6.739094E-1,-6.146668E-1,-6.718625E-1,-6.9778967E-3,-6.3963026E-1,1.2913936E-2,-6.8741837E-3,-6.366321E-3,-5.723249E-3,-7.1031153E-3],"categories":[],"categories_nodes":[],"categories_segments":[],"categories_sizes":[],"default_left":[0,0,0,0,0,0,0,0,0,0,0],"id":82,"left_children":[1,3,5,7,-1,9,-1,-1,-1,-1,-1],"loss_changes":[1.890625E0,1.5625E0,3.9398224E1,7.109375E-1,0E0,2.6869202E0,0E0,0E0,0E0,0E0,0E0],"parents":[2147483647,0,0,1,1,2,2,3,3,5,5],"right_children":[2,4,6,8,-1,10,-1,-1,-1,-1,-1],"split_conditions":[2.11E2,3.4E1,1E0,3.3E1,-6.9778967E-3,1E0,1.2913936E-2,-6.8741837E-3,-6.366321E-3,-5.723249E-3,-7.1031153E-3],"split_indices":[0,0,4,0,0,1,0,0,0,0,0],"split_type":[0,0,0,0,0,0,0,0,0,0,0],"sum_hessian":[1.5504488E5,1.5419355E5,8.513264E2,1.23999766E5,3.0193783E4,8.4057654E2,1.074989E1,1.2326978E5,7.299881E2,3.479956E2,4.925809E2],"tree_param":{"num_deleted":"0","num_feature":"12","num_nodes":"11","size_leaf_vector":"1"}},{"base_weights":[2.7837017E-1,4.6942663E-1,-6.0088784E-1,1.0044011E0,3.0206144E-1,-6.373456E-1,-3.5149568E-1,-7.859896E-3,1.0365659E-2,4.870825E-3,1.9523008E-3,-6.918264E-3,-6.040522E-3,-5.3004203E-3,2.6608512E-3],"categories":[],"categories_nodes":[],"categories_segments":[],"categories_sizes":[],"default_left":[0,0,0,0,0,0,0,0,0,0,0,0,0,0,0],"id":83,"left_children":[1,3,5,7,9,11,13,-1,-1,-1,-1,-1,-1,-1,-1],"loss_changes":[3.0632598E4,1.3411543E4,2.9515723E2,5.785781E2,2.2091777E3,5.0862305E1,4.2398108E2,0E0,0E0,0E0,0E0,0E0,0E0,0E0,0E0],"parents":[2147483647,0,0,1,1,2,2,3,3,4,4,5,5,6,6],"right_children":[2,4,6,8,10,12,14,-1,-1,-1,-1,-1,-1,-1,-1],"split_conditions":[3.3E1,-3.2E1,6.5E1,-2.69E2,-7E0,1E0,1E0,-7.859896E-3,1.0365659E-2,4.870825E-3,1.9523008E-3,-6.918264E-3,-6.040522E-3,-5.3004203E-3,2.6608512E-3],"split_indices":[0,0,0,0,0,1,11,0,0,0,0,0,0,0,0],"split_type":[0,0,0,0,0,0,0,0,0,0,0,0,0,0,0],"sum_hessian":[1.8235061E5,1.4980086E5,3.2549746E4,3.5695906E4,1.1410495E5,2.8395488E4,4.154257E3,1.8261212E2,3.5513297E4,4.4447777E4,6.965718E4,1.5445434E4,1.2950055E4,3.2652861E3,8.889708E2],"tree_param":{"num_deleted":"0","num_feature":"12","num_nodes":"15","size_leaf_vector":"1"}},{"base_weights":[3.1240618E-1,9.269203E-3,7.6415956E-1,-5.275606E-1,1.8550457E-1,4.7893935E-1,9.98079E-1,-1.3013234E-3,-6.1566653E-3,8.7585015E-4,2.8242245E-3,4.4994676E-3,7.976386E-3,1.0566193E-2,7.346023E-3],"categories":[],"categories_nodes":[],"categories_segments":[],"categories_sizes":[],"default_left":[0,0,0,0,0,0,0,0,0,0,0,0,0,0,0],"id":84,"left_children":[1,3,5,7,9,11,13,-1,-1,-1,-1,-1,-1,-1,-1],"loss_changes":[2.3959166E4,9.905632E3,4.6862734E3,7.704287E2,7.1327295E2,3.70521E2,3.7732812E2,0E0,0E0,0E0,0E0,0E0,0E0,0E0,0E0],"parents":[2147483647,0,0,1,1,2,2,3,3,4,4,5,5,6,6],"right_children":[2,4,6,8,10,12,14,-1,-1,-1,-1,-1,-1,-1,-1],"split_conditions":[1.2E1,-3.2E1,3.3E1,-6.4E1,-8E0,1E0,7.2E1,-1.3013234E-3,-6.1566653E-3,8.7585015E-4,2.8242245E-3,4.4994676E-3,7.976386E-3,1.0566193E-2,7.346023E-3],"split_indices":[0,0,0,0,0,9,0,0,0,0,0,0,0,0,0],"split_type":[0,0,0,0,0,0,0,0,0,0,0,0,0,0,0],"sum_hessian":[1.7496153E5,1.047043E5,7.0257234E4,2.5876734E4,7.882756E4,3.1658795E4,3.859844E4,4.0585708E3,2.1818164E4,3.7510324E4,4.131724E4,2.8030527E4,3.6282666E3,3.4296855E4,4.301584E3],"tree_param":{"num_deleted":"0","num_feature":"12","num_nodes":"15","size_leaf_vector":"1"}},{"base_weights":[-6.722824E-1,-6.7240727E-1,-5.5720013E-1,-6.710302E-1,-6.9741397E-3,1.7041575E-2,-7.0183533E-3,-6.9280723E-3,-6.849575E-3],"categories":[],"categories_nodes":[],"categories_segments":[],"categories_sizes":[],"default_left":[0,0,0,0,0,0,0,0,0],"id":85,"left_children":[1,3,5,7,-1,-1,-1,-1,-1],"loss_changes":[1.265625E0,9.6875E-1,4.998693E1,4.6875E-2,0E0,0E0,0E0,0E0,0E0],"parents":[2147483647,0,0,1,1,2,2,3,3],"right_children":[2,4,6,8,-1,-1,-1,-1,-1],"split_conditions":[3.55E2,4.6E1,1E0,-3.6E1,-6.9741397E-3,1.7041575E-2,-7.0183533E-3,-6.9280723E-3,-6.849575E-3],"split_indices":[0,0,1,0,0,0,0,0,0],"split_type":[0,0,0,0,0,0,0,0,0],"sum_hessian":[1.568358E5,1.5665884E5,1.7695175E2,1.3692661E5,1.9732238E4,9.365423E0,1.6758633E2,2.2874834E4,1.1405177E5],"tree_param":{"num_deleted":"0","num_feature":"12","num_nodes":"9","size_leaf_vector":"1"}},{"base_weights":[2.985996E-1,4.845227E-1,-5.683846E-1,9.928329E-1,3.2649073E-1,-6.265205E-1,-1.3734397E-1,-7.7966633E-3,1.0201009E-2,5.3475574E-3,2.2442248E-3,-7.0424075E-3,-5.7115043E-3,-1.843703E-3,1.3846063E-2],"categories":[],"categories_nodes":[],"categories_segments":[],"categories_sizes":[],"default_left":[0,0,0,0,0,0,0,0,0,0,0,0,0,0,0],"id":86,"left_children":[1,3,5,7,9,11,13,-1,-1,-1,-1,-1,-1,-1,-1],"loss_changes":[2.8871633E4,1.1846391E4,7.919297E2,2.830703E2,2.3647734E3,1.16731445E2,2.3978964E2,0E0,0E0,0E0,0E0,0E0,0E0,0E0,0E0],"parents":[2147483647,0,0,1,1,2,2,3,3,4,4,5,5,6,6],"right_children":[2,4,6,8,10,12,14,-1,-1,-1,-1,-1,-1,-1,-1],"split_conditions":[3.3E1,-3.2E1,6.5E1,-2.69E2,-8E0,1E0,1E0,-7.7966633E-3,1.0201009E-2,5.3475574E-3,2.2442248E-3,-7.0424075E-3,-5.7115043E-3,-1.843703E-3,1.3846063E-2],"split_indices":[0,0,0,0,0,1,4,0,0,0,0,0,0,0,0],"split_type":[0,0,0,0,0,0,0,0,0,0,0,0,0,0,0],"sum_hessian":[1.7911328E5,1.474861E5,3.1627188E4,3.4977098E4,1.1250899E5,2.7866832E4,3.7603564E3,9.113048E1,3.488597E4,3.969052E4,7.281848E4,1.4567619E4,1.3299213E4,3.6556497E3,1.0470667E2],"tree_param":{"num_deleted":"0","num_feature":"12","num_nodes":"15","size_leaf_vector":"1"}},{"base_weights":[2.8868425E-1,-1.8081635E-2,7.2477597E-1,-5.269128E-1,1.6034968E-1,4.6001908E-1,9.5788324E-1,3.424499E-3,-5.696392E-3,6.406645E-4,2.7264692E-3,4.2083347E-3,7.911717E-3,1.0122114E-2,4.544955E-3],"categories":[],"categories_nodes":[],"categories_segments":[],"categories_sizes":[],"default_left":[0,0,0,0,0,0,0,0,0,0,0,0,0,0,0],"id":87,"left_children":[1,3,5,7,9,11,13,-1,-1,-1,-1,-1,-1,-1,-1],"loss_changes":[2.405227E4,9.582679E3,4.581039E3,7.1033105E2,8.108605E2,5.2813184E2,6.4440234E2,0E0,0E0,0E0,0E0,0E0,0E0,0E0,0E0],"parents":[2147483647,0,0,1,1,2,2,3,3,4,4,5,5,6,6],"right_children":[2,4,6,8,10,12,14,-1,-1,-1,-1,-1,-1,-1,-1],"split_conditions":[1.2E1,-3.2E1,3.3E1,-1.25E2,-7E0,1E0,1.06E2,3.424499E-3,-5.696392E-3,6.406645E-4,2.7264692E-3,4.2083347E-3,7.911717E-3,1.0122114E-2,4.544955E-3],"split_indices":[0,0,0,0,0,5,0,0,0,0,0,0,0,0,0],"split_type":[0,0,0,0,0,0,0,0,0,0,0,0,0,0,0],"sum_hessian":[1.797881E5,1.05542836E5,7.4245266E4,2.7402846E4,7.8139984E4,3.4764332E4,3.9480934E4,9.23132E2,2.6479715E4,4.0708855E4,3.7431133E4,3.0107086E4,4.657246E3,3.7174047E4,2.3068862E3],"tree_param":{"num_deleted":"0","num_feature":"12","num_nodes":"15","size_leaf_vector":"1"}},{"base_weights":[-6.71143E-1,-6.692349E-1,-6.7744017E-1,-6.8610506E-3,-6.733542E-3,-6.9389194E-3,-6.267504E-1,1.5625453E-2,-6.7139617E-3],"categories":[],"categories_nodes":[],"categories_segments":[],"categories_sizes":[],"default_left":[0,0,0,0,0,0,0,0,0],"id":88,"left_children":[1,3,5,-1,-1,-1,7,-1,-1],"loss_changes":[8.125E-1,1.0742188E0,8.769531E-1,0E0,0E0,0E0,4.731256E1,0E0,0E0],"parents":[2147483647,0,0,1,1,2,2,6,6],"right_children":[2,4,6,-1,-1,-1,8,-1,-1],