{"learner":{"attributes":{},"feature_names":["IsMonday","IsTuesday","IsWednesday","IsThursday","IsFriday","IsSaturday","IsSunday","TimeOfDay","GameOfDay","GameOfWeek","EloDifference","LastResultIsWin","LastResultIsDraw","LastResultIsLoss","2ndLastResultIsWin","2ndLastResultIsDraw","2ndLastResultIsLoss","TimeSinceLast"],"feature_types":["int","int","int","int","int","int","int","int","int","int","int","int","int","int","int","int","int","float"],"gradient_booster":{"model":{"gbtree_model_param":{"num_parallel_tree":"1","num_trees":"1935"},"iteration_indptr":[0,3,6,9,12,15,18,21,24,27,30,33,36,39,42,45,48,51,54,57,60,63,66,69,72,75,78,81,84,87,90,93,96,99,102,105,108,111,114,117,120,123,126,129,132,135,138,141,144,147,150,153,156,159,162,165,168,171,174,177,180,183,186,189,192,195,198,201,204,207,210,213,216,219,222,225,228,231,234,237,240,243,246,249,252,255,258,261,264,267,270,273,276,279,282,285,288,291,294,297,300,303,306,309,312,315,318,321,324,327,330,333,336,339,342,345,348,351,354,357,360,363,366,369,372,375,378,381,384,387,390,393,396,399,402,405,408,411,414,417,420,423,426,429,432,435,438,441,444,447,450,453,456,459,462,465,468,471,474,477,480,483,486,489,492,495,498,501,504,507,510,513,516,519,522,525,528,531,534,537,540,543,546,549,552,555,558,561,564,567,570,573,576,579,582,585,588,591,594,597,600,603,606,609,612,615,618,621,624,627,630,633,636,639,642,645,648,651,654,657,660,663,666,669,672,675,678,681,684,687,690,693,696,699,702,705,708,711,714,717,720,723,726,729,732,735,738,741,744,747,750,753,756,759,762,765,768,771,774,777,780,783,786,789,792,795,798,801,804,807,810,813,816,819,822,825,828,831,834,837,840,843,846,849,852,855,858,861,864,867,870,873,876,879,882,885,888,891,894,897,900,903,906,909,912,915,918,921,924,927,930,933,936,939,942,945,948,951,954,957,960,963,966,969,972,975,978,981,984,987,990,993,996,999,1002,1005,1008,1011,1014,1017,1020,1023,1026,1029,1032,1035,1038,1041,1044,1047,1050,1053,1056,1059,1062,1065,1068,1071,1074,1077,1080,1083,1086,1089,1092,1095,1098,1101,1104,1107,1110,1113,1116,1119,1122,1125,1128,1131,1134,1137,1140,1143,1146,1149,1152,1155,1158,1161,1164,1167,1170,1173,1176,1179,1182,1185,1188,1191,1194,1197,1200,1203,1206,1209,1212,1215,1218,1221,1224,1227,1230,1233,1236,1239,1242,1245,1248,1251,1254,1257,1260,1263,1266,1269,1272,1275,1278,1281,1284,1287,1290,1293,1296,1299,1302,1305,1308,1311,1314,1317,1320,1323,1326,1329,1332,1335,1338,1341,1344,1347,1350,1353,1356,1359,1362,1365,1368,1371,1374,1377,1380,1383,1386,1389,1392,1395,1398,1401,1404,1407,1410,1413,1416,1419,1422,1425,1428,1431,1434,1437,1440,1443,1446,1449,1452,1455,1458,1461,1464,1467,1470,1473,1476,1479,1482,1485,1488,1491,1494,1497,1500,1503,1506,1509,1512,1515,1518,1521,1524,1527,1530,1533,1536,1539,1542,1545,1548,1551,1554,1557,1560,1563,1566,1569,1572,1575,1578,1581,1584,1587,1590,1593,1596,1599,1602,1605,1608,1611,1614,1617,1620,1623,1626,1629,1632,1635,1638,1641,1644,1647,1650,1653,1656,1659,1662,1665,1668,1671,1674,1677,1680,1683,1686,1689,1692,1695,1698,1701,1704,1707,1710,1713,1716,1719,1722,1725,1728,1731,1734,1737,1740,1743,1746,1749,1752,1755,1758,1761,1764,1767,1770,1773,1776,1779,1782,1785,1788,1791,1794,1797,1800,1803,1806,1809,1812,1815,1818,1821,1824,1827,1830,1833,1836,1839,1842,1845,1848,1851,1854,1857,1860,1863,1866,1869,1872,1875,1878,1881,1884,1887,1890,1893,1896,1899,1902,1905,1908,1911,1914,1917,1920,1923,1926,1929,1932,1935],"tree_info":[0,1,2,0,1,2,0,1,2,0,1,2,0,1,2,0,1,2,0,1,2,0,1,2,0,1,2,0,1,2,0,1,2,0,1,2,0,1,2,0,1,2,0,1,2,0,1,2,0,1,2,0,1,2,0,1,2,0,1,2,0,1,2,0,1,2,0,1,2,0,1,2,0,1,2,0,1,2,0,1,2,0,1,2,0,1,2,0,1,2,0,1,2,0,1,2,0,1,2,0,1,2,0,1,2,0,1,2,0,1,2,0,1,2,0,1,2,0,1,2,0,1,2,0,1,2,0,1,2,0,1,2,0,1,2,0,1,2,0,1,2,0,1,2,0,1,2,0,1,2,0,1,2,0,1,2,0,1,2,0,1,2,0,1,2,0,1,2,0,1,2,0,1,2,0,1,2,0,1,2,0,1,2,0,1,2,0,1,2,0,1,2,0,1,2,0,1,2,0,1,2,0,1,2,0,1,2,0,1,2,0,1,2,0,1,2,0,1,2,0,1,2,0,1,2,0,1,2,0,1,2,0,1,2,0,1,2,0,1,2,0,1,2,0,1,2,0,1,2,0,1,2,0,1,2,0,1,2,0,1,2,0,1,2,0,1,2,0,1,2,0,1,2,0,1,2,0,1,2,0,1,2,0,1,2,0,1,2,0,1,2,0,1,2,0,1,2,0,1,2,0,1,2,0,1,2,0,1,2,0,1,2,0,1,2,0,1,2,0,1,2,0,1,2,0,1,2,0,1,2,0,1,2,0,1,2,0,1,2,0,1,2,0,1,2,0,1,2,0,1,2,0,1,2,0,1,2,0,1,2,0,1,2,0,1,2,0,1,2,0,1,2,0,1,2,0,1,2,0,1,2,0,1,2,0,1,2,0,1,2,0,1,2,0,1,2,0,1,2,0,1,2,0,1,2,0,1,2,0,1,2,0,1,2,0,1,2,0,1,2,0,1,2,0,1,2,0,1,2,0,1,2,0,1,2,0,1,2,0,1,2,0,1,2,0,1,2,0,1,2,0,1,2,0,1,2,0,1,2,0,1,2,0,1,2,0,1,2,0,1,2,0,1,2,0,1,2,0,1,2,0,1,2,0,1,2,0,1,2,0,1,2,0,1,2,0,1,2,0,1,2,0,1,2,0,1,2,0,1,2,0,1,2,0,1,2,0,1,2,0,1,2,0,1,2,0,1,2,0,1,2,0,1,2,0,1,2,0,1,2,0,1,2,0,1,2,0,1,2,0,1,2,0,1,2,0,1,2,0,1,2,0,1,2,0,1,2,0,1,2,0,1,2,0,1,2,0,1,2,0,1,2,0,1,2,0,1,2,0,1,2,0,1,2,0,1,2,0,1,2,0,1,2,0,1,2,0,1,2,0,1,2,0,1,2,0,1,2,0,1,2,0,1,2,0,1,2,0,1,2,0,1,2,0,1,2,0,1,2,0,1,2,0,1,2,0,1,2,0,1,2,0,1,2,0,1,2,0,1,2,0,1,2,0,1,2,0,1,2,0,1,2,0,1,2,0,1,2,0,1,2,0,1,2,0,1,2,0,1,2,0,1,2,0,1,2,0,1,2,0,1,2,0,1,2,0,1,2,0,1,2,0,1,2,0,1,2,0,1,2,0,1,2,0,1,2,0,1,2,0,1,2,0,1,2,0,1,2,0,1,2,0,1,2,0,1,2,0,1,2,0,1,2,0,1,2,0,1,2,0,1,2,0,1,2,0,1,2,0,1,2,0,1,2,0,1,2,0,1,2,0,1,2,0,1,2,0,1,2,0,1,2,0,1,2,0,1,2,0,1,2,0,1,2,0,1,2,0,1,2,0,1,2,0,1,2,0,1,2,0,1,2,0,1,2,0,1,2,0,1,2,0,1,2,0,1,2,0,1,2,0,1,2,0,1,2,0,1,2,0,1,2,0,1,2,0,1,2,0,1,2,0,1,2,0,1,2,0,1,2,0,1,2,0,1,2,0,1,2,0,1,2,0,1,2,0,1,2,0,1,2,0,1,2,0,1,2,0,1,2,0,1,2,0,1,2,0,1,2,0,1,2,0,1,2,0,1,2,0,1,2,0,1,2,0,1,2,0,1,2,0,1,2,0,1,2,0,1,2,0,1,2,0,1,2,0,1,2,0,1,2,0,1,2,0,1,2,0,1,2,0,1,2,0,1,2,0,1,2,0,1,2,0,1,2,0,1,2,0,1,2,0,1,2,0,1,2,0,1,2,0,1,2,0,1,2,0,1,2,0,1,2,0,1,2,0,1,2,0,1,2,0,1,2,0,1,2,0,1,2,0,1,2,0,1,2,0,1,2,0,1,2,0,1,2,0,1,2,0,1,2,0,1,2,0,1,2,0,1,2,0,1,2,0,1,2,0,1,2,0,1,2,0,1,2,0,1,2,0,1,2,0,1,2,0,1,2,0,1,2,0,1,2,0,1,2,0,1,2,0,1,2,0,1,2,0,1,2,0,1,2,0,1,2,0,1,2,0,1,2,0,1,2,0,1,2,0,1,2,0,1,2,0,1,2,0,1,2,0,1,2,0,1,2,0,1,2,0,1,2,0,1,2,0,1,2,0,1,2,0,1,2,0,1,2,0,1,2,0,1,2,0,1,2,0,1,2,0,1,2,0,1,2,0,1,2,0,1,2,0,1,2,0,1,2,0,1,2,0,1,2,0,1,2,0,1,2,0,1,2,0,1,2,0,1,2,0,1,2,0,1,2,0,1,2,0,1,2,0,1,2,0,1,2,0,1,2,0,1,2,0,1,2,0,1,2,0,1,2,0,1,2,0,1,2,0,1,2,0,1,2,0,1,2,0,1,2,0,1,2,0,1,2,0,1,2,0,1,2,0,1,2,0,1,2,0,1,2,0,1,2,0,1,2,0,1,2,0,1,2,0,1,2,0,1,2,0,1,2,0,1,2,0,1,2,0,1,2,0,1,2,0,1,2,0,1,2,0,1,2,0,1,2,0,1,2,0,1,2,0,1,2,0,1,2,0,1,2,0,1,2,0,1,2,0,1,2,0,1,2,0,1,2,0,1,2,0,1,2,0,1,2,0,1,2,0,1,2,0,1,2,0,1,2,0,1,2,0,1,2,0,1,2,0,1,2,0,1,2,0,1,2,0,1,2,0,1,2,0,1,2,0,1,2,0,1,2,0,1,2,0,1,2,0,1,2,0,1,2,0,1,2,0,1,2,0,1,2,0,1,2,0,1,2,0,1,2,0,1,2,0,1,2,0,1,2,0,1,2,0,1,2,0,1,2,0,1,2,0,1,2,0,1,2,0,1,2,0,1,2,0,1,2,0,1,2,0,1,2,0,1,2,0,1,2,0,1,2,0,1,2,0,1,2,0,1,2,0,1,2,0,1,2,0,1,2,0,1,2,0,1,2,0,1,2,0,1,2,0,1,2,0,1,2,0,1,2,0,1,2,0,1,2,0,1,2,0,1,2,0,1,2,0,1,2,0,1,2,0,1,2,0,1,2,0,1,2,0,1,2,0,1,2,0,1,2,0,1,2,0,1,2,0,1,2,0,1,2,0,1,2,0,1,2,0,1,2,0,1,2,0,1,2,0,1,2,0,1,2,0,1,2,0,1,2,0,1,2,0,1,2,0,1,2,0,1,2,0,1,2,0,1,2,0,1,2,0,1,2,0,1,2,0,1,2,0,1,2,0,1,2,0,1,2,0,1,2,0,1,2,0,1,2,0,1,2,0,1,2,0,1,2,0,1,2,0,1,2,0,1,2,0,1,2,0,1,2,0,1,2,0,1,2,0,1,2,0,1,2,0,1,2,0,1,2,0,1,2,0,1,2,0,1,2,0,1,2,0,1,2,0,1,2,0,1,2,0,1,2,0,1,2,0,1,2,0,1,2,0,1,2,0,1,2,0,1,2,0,1,2,0,1,2,0,1,2,0,1,2,0,1,2,0,1,2,0,1,2,0,1,2,0,1,2,0,1,2,0,1,2,0,1,2,0,1,2,0,1,2,0,1,2,0,1,2,0,1,2,0,1,2,0,1,2,0,1,2,0,1,2,0,1,2,0,1,2,0,1,2,0,1,2,0,1,2,0,1,2,0,1,2,0,1,2,0,1,2,0,1,2,0,1,2,0,1,2,0,1,2,0,1,2,0,1,2,0,1,2,0,1,2,0,1,2,0,1,2,0,1,2,0,1,2,0,1,2,0,1,2,0,1,2,0,1,2,0,1,2,0,1,2,0,1,2,0,1,2,0,1,2,0,1,2,0,1,2,0,1,2,0,1,2,0,1,2,0,1,2,0,1,2,0,1,2,0,1,2,0,1,2,0,1,2,0,1,2,0,1,2,0,1,2,0,1,2],"trees":[{"base_weights":[-4.379272E-4,-1.8070647E-1,8.8547254E-1,-6.089599E-1,-6.61673E-2,1.0082531E0,4.5787424E-2,-0E0,-1.6334984E-2,-5.880793E-3,5.7944085E-4,1.1629112E-2,2.9520389E-2,1.5288051E-2,-8.391042E-3],"categories":[],"categories_nodes":[],"categories_segments":[],"categories_sizes":[],"default_left":[0,0,0,0,0,0,0,0,0,0,0,0,0,0,0],"id":0,"left_children":[1,3,5,7,9,11,13,-1,-1,-1,-1,-1,-1,-1,-1],"loss_changes":[5.449512E2,1.3878632E2,5.878195E1,7.473114E0,3.1878212E1,3.4983276E1,1.5032467E1,0E0,0E0,0E0,0E0,0E0,0E0,0E0,0E0],"parents":[2147483647,0,0,1,1,2,2,3,3,4,4,5,5,6,6],"right_children":[2,4,6,8,10,12,14,-1,-1,-1,-1,-1,-1,-1,-1],"split_conditions":[3.4E1,-3E1,8.9E1,-1.23E2,-7E0,2.4E1,3.3E1,-0E0,-1.6334984E-2,-5.880793E-3,5.7944085E-4,1.1629112E-2,2.9520389E-2,1.5288051E-2,-8.391042E-3],"split_indices":[10,10,10,10,10,9,9,0,0,0,0,0,0,0,0],"split_type":[0,0,0,0,0,0,0,0,0,0,0,0,0,0,0],"sum_hessian":[3.4151611E3,2.8383457E3,5.768154E2,5.977348E2,2.2406108E3,5.025535E2,7.426192E1,1.7933584E1,5.798012E2,7.998994E2,1.4407115E3,9.42488E1,4.0830472E2,3.0759693E1,4.350222E1],"tree_param":{"num_deleted":"0","num_feature":"18","num_nodes":"15","size_leaf_vector":"1"}},{"base_weights":[6.355757E-4,7.8170605E-2,-4.083717E-1,-3.7699237E-1,1.2171821E-1,-4.7316805E-1,3.936672E-1,4.2606997E-3,-1.9373158E-2,4.5739673E-3,-5.8512925E-3,-1.7534152E-2,-3.3578603E-3,2.0785658E-2,-1.7843671E-2],"categories":[],"categories_nodes":[],"categories_segments":[],"categories_sizes":[],"default_left":[0,0,0,0,0,0,0,0,0,0,0,0,0,0,0],"id":1,"left_children":[1,3,5,7,9,11,13,-1,-1,-1,-1,-1,-1,-1,-1],"loss_changes":[1.07539925E2,5.6478104E1,2.8124397E1,4.987393E1,4.913049E1,3.418541E1,1.7472462E1,0E0,0E0,0E0,0E0,0E0,0E0,0E0,0E0],"parents":[2147483647,0,0,1,1,2,2,3,3,4,4,5,5,6,6],"right_children":[2,4,6,8,10,12,14,-1,-1,-1,-1,-1,-1,-1,-1],"split_conditions":[1.04E2,-4.3E1,3.8E1,6E0,4.1E1,1.9E1,-1.9E1,4.2606997E-3,-1.9373158E-2,4.5739673E-3,-5.8512925E-3,-1.7534152E-2,-3.3578603E-3,2.0785658E-2,-1.7843671E-2],"split_indices":[9,10,8,8,10,10,10,0,0,0,0,0,0,0,0],"split_type":[0,0,0,0,0,0,0,0,0,0,0,0,0,0,0],"sum_hessian":[3.3978647E3,2.8577283E3,5.4013654E2,2.4822597E2,2.6095022E3,5.0051584E2,3.962069E1,9.987488E1,1.4835109E2,2.2579045E3,3.5159772E2,3.1434232E2,1.8617352E2,2.9233196E1,1.0387494E1],"tree_param":{"num_deleted":"0","num_feature":"18","num_nodes":"15","size_leaf_vector":"1"}},{"base_weights":[-2.5050223E-3,3.072719E-1,-4.0876237E-1,8.2359177E-1,1.1183236E-1,-2.3340416E-1,-6.614982E-1,2.3544183E-2,-0E0,1.3901916E-3,1.278903E-2,-9.228443E-3,-7.079048E-4,-1.8339504E-2,-1.3301145E-2],"categories":[],"categories_nodes":[],"categories_segments":[],"categories_sizes":[],"default_left":[0,0,0,0,0,0,0,0,0,0,0,0,0,0,0],"id":2,"left_children":[1,3,5,7,9,11,13,-1,-1,-1,-1,-1,-1,-1,-1],"loss_changes":[4.2998657E2,1.9488354E2,6.495679E1,3.5507935E1,3.084446E1,2.1702919E1,3.2072449E0,0E0,0E0,0E0,0E0,0E0,0E0,0E0,0E0],"parents":[2147483647,0,0,1,1,2,2,3,3,4,4,5,5,6,6],"right_children":[2,4,6,8,10,12,14,-1,-1,-1,-1,-1,-1,-1,-1],"split_conditions":[8E0,-3.2E1,3.3E1,8.3961E4,1.1E2,5.3962E4,6.1E1,2.3544183E-2,-0E0,1.3901916E-3,1.278903E-2,-9.228443E-3,-7.079048E-4,-1.8339504E-2,-1.3301145E-2],"split_indices":[10,10,10,7,9,7,10,0,0,0,0,0,0,0,0],"split_type":[0,0,0,0,0,0,0,0,0,0,0,0,0,0,0],"sum_hessian":[3.4161392E3,1.9373113E3,1.478828E3,5.310365E2,1.4062748E3,8.745941E2,6.042339E2,4.8199298E2,4.904354E1,1.2207738E3,1.8550102E2,5.4788086E2,3.2671323E2,4.6284113E2,1.4139273E2],"tree_param":{"num_deleted":"0","num_feature":"18","num_nodes":"15","size_leaf_vector":"1"}},{"base_weights":[1.8364008E-3,-1.7527606E-1,8.5868704E-1,-6.026653E-1,-6.0102887E-2,9.775876E-1,4.012862E-2,-0E0,-1.6168838E-2,-5.4503446E-3,5.304277E-4,1.1260056E-2,2.8614148E-2,1.4842471E-2,-8.403051E-3],"categories":[],"categories_nodes":[],"categories_segments":[],"categories_sizes":[],"default_left":[0,0,0,0,0,0,0,0,0,0,0,0,0,0,0],"id":3,"left_children":[1,3,5,7,9,11,13,-1,-1,-1,-1,-1,-1,-1,-1],"loss_changes":[5.156426E2,1.3801938E2,5.5995575E1,7.357773E0,2.6834593E1,3.3146454E1,1.4553234E1,0E0,0E0,0E0,0E0,0E0,0E0,0E0,0E0],"parents":[2147483647,0,0,1,1,2,2,3,3,4,4,5,5,6,6],"right_children":[2,4,6,8,10,12,14,-1,-1,-1,-1,-1,-1,-1,-1],"split_conditions":[3.4E1,-3E1,8.9E1,-1.23E2,-7E0,2.4E1,3.3E1,-0E0,-1.6168838E-2,-5.4503446E-3,5.304277E-4,1.1260056E-2,2.8614148E-2,1.4842471E-2,-8.403051E-3],"split_indices":[10,10,10,10,10,9,9,0,0,0,0,0,0,0,0],"split_type":[0,0,0,0,0,0,0,0,0,0,0,0,0,0,0],"sum_hessian":[3.3948237E3,2.8126843E3,5.8213947E2,5.9585785E2,2.2168264E3,5.0760883E2,7.4530655E1,1.7912046E1,5.779458E2,7.783076E2,1.4385188E3,9.493323E1,4.126756E2,3.1011354E1,4.35193E1],"tree_param":{"num_deleted":"0","num_feature":"18","num_nodes":"15","size_leaf_vector":"1"}},{"base_weights":[3.8674623E-3,-4.2451695E-1,4.3472104E-2,1.5430233E-1,-1.9254833E-2,9.584226E-2,-3.0002028E-1,-3.8572093E-3,3.0766156E-2,-7.566095E-3,3.5242154E-3,-1.1304348E-2,2.242866E-2],"categories":[],"categories_nodes":[],"categories_segments":[],"categories_sizes":[],"default_left":[0,0,0,0,0,0,0,0,0,0,0,0,0],"id":4,"left_children":[1,3,5,7,-1,9,11,-1,-1,-1,-1,-1,-1],"loss_changes":[5.7668083E1,5.305059E1,5.6103077E1,3.2133987E1,0E0,4.169185E1,6.441913E1,0E0,0E0,0E0,0E0,0E0,0E0],"parents":[2147483647,0,0,1,1,2,2,3,3,5,5,6,6],"right_children":[2,4,6,8,-1,10,12,-1,-1,-1,-1,-1,-1],"split_conditions":[-4.3E1,6E0,4.1E1,1E0,-1.9254833E-2,7.086E3,2.11E2,-3.8572093E-3,3.0766156E-2,-7.566095E-3,3.5242154E-3,-1.1304348E-2,2.242866E-2],"split_indices":[10,8,10,4,0,7,10,0,0,0,0,0,0],"split_type":[0,0,0,0,0,0,0,0,0,0,0,0,0],"sum_hessian":[3.413645E3,2.8748837E2,3.1261567E3,1.0090152E2,1.8658685E2,2.7142366E3,4.1192014E2,7.74931E1,2.3408417E1,2.5147969E2,2.4627568E3,3.6958447E2,4.233566E1],"tree_param":{"num_deleted":"0","num_feature":"18","num_nodes":"13","size_leaf_vector":"1"}},{"base_weights":[-1.6301897E-3,3.0039668E-1,-4.0168935E-1,8.0076075E-1,1.0906578E-1,-2.297029E-1,-6.505316E-1,1.1174022E-2,2.4418676E-2,-9.4402116E-4,4.8691137E-3,-6.2329713E-3,1.8793263E-2,-1.8017214E-2,-1.3115083E-2],"categories":[],"categories_nodes":[],"categories_segments":[],"categories_sizes":[],"default_left":[0,0,0,0,0,0,0,0,0,0,0,0,0,0,0],"id":5,"left_children":[1,3,5,7,9,11,13,-1,-1,-1,-1,-1,-1,-1,-1],"loss_changes":[4.130346E2,1.8576357E2,6.238971E1,2.6798584E1,1.6144173E1,8.132416E0,2.9633942E0,0E0,0E0,0E0,0E0,0E0,0E0,0E0,0E0],"parents":[2147483647,0,0,1,1,2,2,3,3,4,4,5,5,6,6],"right_children":[2,4,6,8,10,12,14,-1,-1,-1,-1,-1,-1,-1,-1],"split_conditions":[8E0,-3.2E1,3.3E1,6E0,-1.9E1,3.7E1,6.1E1,1.1174022E-2,2.4418676E-2,-9.4402116E-4,4.8691137E-3,-6.2329713E-3,1.8793263E-2,-1.8017214E-2,-1.3115083E-2],"split_indices":[10,10,10,8,10,8,10,0,0,0,0,0,0,0,0],"split_type":[0,0,0,0,0,0,0,0,0,0,0,0,0,0,0],"sum_hessian":[3.417787E3,1.94658E3,1.4712072E3,5.374972E2,1.4090828E3,8.715046E2,5.997026E2,1.4784102E2,3.8965616E2,4.903884E2,9.186944E2,8.6298553E2,8.51902E0,4.6001114E2,1.3969142E2],"tree_param":{"num_deleted":"0","num_feature":"18","num_nodes":"15","size_leaf_vector":"1"}},{"base_weights":[-2.2886596E-3,-1.7574246E-1,8.3256704E-1,-5.96155E-1,-6.424462E-2,9.469263E-1,3.8202625E-2,-0E0,-1.599862E-2,-5.722815E-3,5.59066E-4,1.0866314E-2,2.7716726E-2,1.4544002E-2,-8.345731E-3],"categories":[],"categories_nodes":[],"categories_segments":[],"categories_sizes":[],"default_left":[0,0,0,0,0,0,0,0,0,0,0,0,0,0,0],"id":6,"left_children":[1,3,5,7,9,11,13,-1,-1,-1,-1,-1,-1,-1,-1],"loss_changes":[4.944242E2,1.322292E2,5.2701843E1,7.237747E0,3.0070549E1,3.1480804E1,1.414328E1,0E0,0E0,0E0,0E0,0E0,0E0,0E0,0E0],"parents":[2147483647,0,0,1,1,2,2,3,3,4,4,5,5,6,6],"right_children":[2,4,6,8,10,12,14,-1,-1,-1,-1,-1,-1,-1,-1],"split_conditions":[3.4E1,-3E1,8.9E1,-1.23E2,-7E0,2.4E1,3.3E1,-0E0,-1.599862E-2,-5.722815E-3,5.59066E-4,1.0866314E-2,2.7716726E-2,1.4544002E-2,-8.345731E-3],"split_indices":[10,10,10,10,10,9,9,0,0,0,0,0,0,0,0],"split_type":[0,0,0,0,0,0,0,0,0,0,0,0,0,0,0],"sum_hessian":[3.417258E3,2.830058E3,5.871998E2,5.919977E2,2.2380605E3,5.1258484E2,7.461501E1,1.7891644E1,5.74106E2,7.9661835E2,1.4414421E3,9.565585E1,4.1692896E2,3.1178282E1,4.343673E1],"tree_param":{"num_deleted":"0","num_feature":"18","num_nodes":"15","size_leaf_vector":"1"}},{"base_weights":[3.6635932E-3,-4.1968283E-1,4.258915E-2,1.5105362E-1,-1.9100469E-2,9.418668E-2,-2.9670367E-1,-3.8303097E-3,3.0014055E-2,3.7268482E-4,5.6435647E-3,-1.1204488E-2,2.2742385E-2],"categories":[],"categories_nodes":[],"categories_segments":[],"categories_sizes":[],"default_left":[0,0,0,0,0,0,0,0,0,0,0,0,0],"id":7,"left_children":[1,3,5,7,-1,9,11,-1,-1,-1,-1,-1,-1],"loss_changes":[5.6020927E1,5.188089E1,5.463509E1,3.0954063E1,0E0,2.653358E1,6.453878E1,0E0,0E0,0E0,0E0,0E0,0E0],"parents":[2147483647,0,0,1,1,2,2,3,3,5,5,6,6],"right_children":[2,4,6,8,-1,10,12,-1,-1,-1,-1,-1,-1],"split_conditions":[-4.3E1,6E0,4.1E1,1E0,-1.9100469E-2,8E0,2.01E2,-3.8303097E-3,3.0014055E-2,3.7268482E-4,5.6435647E-3,-1.1204488E-2,2.2742385E-2],"split_indices":[10,8,10,4,0,10,10,0,0,0,0,0,0],"split_type":[0,0,0,0,0,0,0,0,0,0,0,0,0],"sum_hessian":[3.4144207E3,2.8609454E2,3.1283262E3,1.0109284E2,1.8500171E2,2.7170588E3,4.112672E2,7.743349E1,2.3659351E1,1.6507922E3,1.0662667E3,3.6943158E2,4.1835644E1],"tree_param":{"num_deleted":"0","num_feature":"18","num_nodes":"13","size_leaf_vector":"1"}},{"base_weights":[1.456398E-3,-3.801125E-2,2.0914693E-1,-5.218234E-2,4.4160122E-1,1.6147365E-1,7.424818E-1,-3.05681E-3,5.303622E-4,1.754644E-2,-1.4494848E-2,3.0006457E-3,1.4257855E-2,1.2316357E-2,3.650868E-2],"categories":[],"categories_nodes":[],"categories_segments":[],"categories_sizes":[],"default_left":[0,0,0,0,0,0,0,0,0,0,0,0,0,0,0],"id":8,"left_children":[1,3,5,7,9,11,13,-1,-1,-1,-1,-1,-1,-1,-1],"loss_changes":[2.8016558E1,1.9171566E1,1.3299038E1,1.3260511E1,1.8926754E1,8.517937E0,6.5434284E0,0E0,0E0,0E0,0E0,0E0,0E0,0E0,0E0],"parents":[2147483647,0,0,1,1,2,2,3,3,4,4,5,5,6,6],"right_children":[2,4,6,8,10,12,14,-1,-1,-1,-1,-1,-1,-1,-1],"split_conditions":[1.04E2,1.017365E5,7.6416E4,5.4119E4,5.8E1,1.52E2,1E0,-3.05681E-3,5.303622E-4,1.754644E-2,-1.4494848E-2,3.0006457E-3,1.4257855E-2,1.2316357E-2,3.650868E-2],"split_indices":[9,17,7,7,9,9,2,0,0,0,0,0,0,0,0],"split_type":[0,0,0,0,0,0,0,0,0,0,0,0,0,0,0],"sum_hessian":[3.4042646E3,2.858023E3,5.4624164E2,2.7773274E3,8.069556E1,5.0255286E2,4.368882E1,1.4651589E3,1.3121685E3,6.59348E1,1.4760757E1,4.507108E2,5.1842056E1,3.1800184E1,1.1888635E1],"tree_param":{"num_deleted":"0","num_feature":"18","num_nodes":"15","size_leaf_vector":"1"}},{"base_weights":[-1.7796558E-3,-1.7331545E-1,8.178586E-1,-5.923075E-1,-6.2571675E-2,9.290142E-1,3.9882272E-2,-0E0,-1.5896548E-2,-5.574494E-3,5.380499E-4,1.0626423E-2,2.719401E-2,1.4376718E-2,-8.218478E-3],"categories":[],"categories_nodes":[],"categories_segments":[],"categories_sizes":[],"default_left":[0,0,0,0,0,0,0,0,0,0,0,0,0,0,0],"id":9,"left_children":[1,3,5,7,9,11,13,-1,-1,-1,-1,-1,-1,-1,-1],"loss_changes":[4.796203E2,1.306117E2,5.040976E1,7.0957947E0,2.8408943E1,3.057016E1,1.3784112E1,0E0,0E0,0E0,0E0,0E0,0E0,0E0,0E0],"parents":[2147483647,0,0,1,1,2,2,3,3,4,4,5,5,6,6],"right_children":[2,4,6,8,10,12,14,-1,-1,-1,-1,-1,-1,-1,-1],"split_conditions":[3.4E1,-3E1,8.9E1,-1.23E2,-7E0,2.4E1,3.3E1,-0E0,-1.5896548E-2,-5.574494E-3,5.380499E-4,1.0626423E-2,2.719401E-2,1.4376718E-2,-8.218478E-3],"split_indices":[10,10,10,10,10,9,9,0,0,0,0,0,0,0,0],"split_type":[0,0,0,0,0,0,0,0,0,0,0,0,0,0,0],"sum_hessian":[3.4142732E3,2.824051E3,5.902222E2,5.8914343E2,2.2349075E3,5.15701E2,7.452121E1,1.7928617E1,5.7121484E2,7.939598E2,1.4409478E3,9.6090904E1,4.196101E2,3.1270222E1,4.325099E1],"tree_param":{"num_deleted":"0","num_feature":"18","num_nodes":"15","size_leaf_vector":"1"}},{"base_weights":[-2.2265536E-4,7.501937E-2,-4.0243226E-1,-3.696487E-1,1.1735206E-1,-4.9390435E-1,1.3403636E-1,3.997433E-3,-1.899933E-2,4.3809637E-3,-5.5504087E-3,-1.39803095E-2,2.542858E-2,2.7001603E-2,-7.620052E-3],"categories":[],"categories_nodes":[],"categories_segments":[],"categories_sizes":[],"default_left":[0,0,0,0,0,0,0,0,0,0,0,0,0,0,0],"id":10,"left_children":[1,3,5,7,9,11,13,-1,-1,-1,-1,-1,-1,-1,-1],"loss_changes":[1.03193436E2,5.3770847E1,2.6617012E1,4.726038E1,4.4364902E1,2.9624657E1,3.0377836E1,0E0,0E0,0E0,0E0,0E0,0E0,0E0,0E0],"parents":[2147483647,0,0,1,1,2,2,3,3,4,4,5,5,6,6],"right_children":[2,4,6,8,10,12,14,-1,-1,-1,-1,-1,-1,-1,-1],"split_conditions":[1.04E2,-4.3E1,3.2E1,6E0,4.1E1,6.68533E4,1.076E2,3.997433E-3,-1.899933E-2,4.3809637E-3,-5.5504087E-3,-1.39803095E-2,2.542858E-2,2.7001603E-2,-7.620052E-3],"split_indices":[9,10,8,8,10,17,17,0,0,0,0,0,0,0,0],"split_type":[0,0,0,0,0,0,0,0,0,0,0,0,0,0,0],"sum_hessian":[3.402816E3,2.8652053E3,5.376107E2,2.4771542E2,2.6174897E3,4.603348E2,7.72759E1,1.0045791E2,1.472575E2,2.268238E3,3.4925165E2,4.4737842E2,1.2956396E1,2.5266539E1,5.200936E1],"tree_param":{"num_deleted":"0","num_feature":"18","num_nodes":"15","size_leaf_vector":"1"}},{"base_weights":[-8.640263E-4,-4.0609505E-2,2.0614359E-1,-4.7167536E-2,6.3962704E-1,1.5923932E-1,7.2807693E-1,-2.90857E-3,3.867726E-4,2.3040896E-2,-5.469267E-3,2.96131E-3,1.399929E-2,1.2136788E-2,3.545383E-2],"categories":[],"categories_nodes":[],"categories_segments":[],"categories_sizes":[],"default_left":[0,0,0,0,0,0,0,0,0,0,0,0,0,0,0],"id":11,"left_children":[1,3,5,7,9,11,13,-1,-1,-1,-1,-1,-1,-1,-1],"loss_changes":[2.7974169E1,1.2399702E1,1.2815216E1,1.1475408E1,5.991496E0,8.22008E0,6.1036034E0,0E0,0E0,0E0,0E0,0E0,0E0,0E0,0E0],"parents":[2147483647,0,0,1,1,2,2,3,3,4,4,5,5,6,6],"right_children":[2,4,6,8,10,12,14,-1,-1,-1,-1,-1,-1,-1,-1],"split_conditions":[1.04E2,3.6E1,7.6416E4,5.2498E4,4.1E1,1.52E2,1E0,-2.90857E-3,3.867726E-4,2.3040896E-2,-5.469267E-3,2.96131E-3,1.399929E-2,1.2136788E-2,3.545383E-2],"split_indices":[9,8,7,7,8,9,2,0,0,0,0,0,0,0,0],"split_type":[0,0,0,0,0,0,0,0,0,0,0,0,0,0,0],"sum_hessian":[3.4131187E3,2.866E3,5.4711865E2,2.8395898E3,2.6410091E1,5.0316104E2,4.3957626E1,1.3945338E3,1.4450562E3,2.1055862E1,5.354229E0,4.5107672E2,5.2084305E1,3.190907E1,1.2048556E1],"tree_param":{"num_deleted":"0","num_feature":"18","num_nodes":"15","size_leaf_vector":"1"}},{"base_weights":[-3.241194E-5,-1.6983445E-1,7.9987943E-1,-5.880813E-1,-5.9836026E-2,8.7879384E-1,-2.1816905E-1,-0E0,-1.578537E-2,-5.500234E-3,6.056158E-4,1.2579166E-2,2.5262697E-2,3.3373687E-2,-9.712821E-3],"categories":[],"categories_nodes":[],"categories_segments":[],"categories_sizes":[],"default_left":[0,0,0,0,0,0,0,0,0,0,0,0,0,0,0],"id":12,"left_children":[1,3,5,7,9,11,13,-1,-1,-1,-1,-1,-1,-1,-1],"loss_changes":[4.6317218E2,1.291354E2,4.8391846E1,6.949753E0,2.8286198E1,1.9498627E1,9.316023E0,0E0,0E0,0E0,0E0,0E0,0E0,0E0,0E0],"parents":[2147483647,0,0,1,1,2,2,3,3,4,4,5,5,6,6],"right_children":[2,4,6,8,10,12,14,-1,-1,-1,-1,-1,-1,-1,-1],"split_conditions":[3.4E1,-3E1,2.11E2,-1.23E2,-7E0,2.4E1,6.5668E4,-0E0,-1.578537E-2,-5.500234E-3,6.056158E-4,1.2579166E-2,2.5262697E-2,3.3373687E-2,-9.712821E-3],"split_indices":[10,10,10,10,10,9,7,0,0,0,0,0,0,0,0],"split_type":[0,0,0,0,0,0,0,0,0,0,0,0,0,0,0],"sum_hessian":[3.413027E3,2.8160654E3,5.969616E2,5.851583E2,2.2309072E3,5.546117E2,4.2349937E1,1.7962856E1,5.671955E2,7.9212695E2,1.4387803E3,1.07497925E2,4.4711377E2,3.5757413E0,3.8774197E1],"tree_param":{"num_deleted":"0","num_feature":"18","num_nodes":"15","size_leaf_vector":"1"}},{"base_weights":[3.0291807E-3,7.8438014E-2,-3.9933547E-1,-3.674919E-1,1.20452024E-1,-4.9008048E-1,1.3270167E-1,3.8321207E-3,-1.892691E-2,4.414643E-3,-5.3185243E-3,-1.3871939E-2,2.4926491E-2,2.6390154E-2,-7.5144973E-3],"categories":[],"categories_nodes":[],"categories_segments":[],"categories_sizes":[],"default_left":[0,0,0,0,0,0,0,0,0,0,0,0,0,0,0],"id":13,"left_children":[1,3,5,7,9,11,13,-1,-1,-1,-1,-1,-1,-1,-1],"loss_changes":[1.03451164E2,5.3769962E1,2.6201172E1,4.6195927E1,4.2288864E1,2.8945282E1,2.9281572E1,0E0,0E0,0E0,0E0,0E0,0E0,0E0,0E0],"parents":[2147483647,0,0,1,1,2,2,3,3,4,4,5,5,6,6],"right_children":[2,4,6,8,10,12,14,-1,-1,-1,-1,-1,-1,-1,-1],"split_conditions":[1.04E2,-4.3E1,3.2E1,6E0,4.1E1,6.68533E4,1.076E2,3.8321207E-3,-1.892691E-2,4.414643E-3,-5.3185243E-3,-1.3871939E-2,2.4926491E-2,2.6390154E-2,-7.5144973E-3],"split_indices":[9,10,8,8,10,17,17,0,0,0,0,0,0,0,0],"split_type":[0,0,0,0,0,0,0,0,0,0,0,0,0,0,0],"sum_hessian":[3.4163909E3,2.878538E3,5.3785284E2,2.4651334E2,2.6320247E3,4.605292E2,7.7323616E1,1.0083373E2,1.4567961E2,2.2863472E3,3.4567752E2,4.4747003E2,1.3059172E1,2.549679E1,5.1826828E1],"tree_param":{"num_deleted":"0","num_feature":"18","num_nodes":"15","size_leaf_vector":"1"}},{"base_weights":[-1.8992105E-3,2.8908846E-1,-3.9344162E-1,7.6098555E-1,1.0631644E-1,-2.2528356E-1,-6.387224E-1,2.1797339E-2,-0E0,-9.982489E-4,4.7856E-3,-9.043544E-3,-4.694796E-4,-1.7698215E-2,-1.2873261E-2],"categories":[],"categories_nodes":[],"categories_segments":[],"categories_sizes":[],"default_left":[0,0,0,0,0,0,0,0,0,0,0,0,0,0,0],"id":14,"left_children":[1,3,5,7,9,11,13,-1,-1,-1,-1,-1,-1,-1,-1],"loss_changes":[3.8875293E2,1.681466E2,5.946524E1,3.283731E1,1.5994274E1,2.1764606E1,2.8163605E0,0E0,0E0,0E0,0E0,0E0,0E0,0E0,0E0],"parents":[2147483647,0,0,1,1,2,2,3,3,4,4,5,5,6,6],"right_children":[2,4,6,8,10,12,14,-1,-1,-1,-1,-1,-1,-1,-1],"split_conditions":[8E0,-3.2E1,3.3E1,8.3961E4,-1.9E1,5.3962E4,6.1E1,2.1797339E-2,-0E0,-9.982489E-4,4.7856E-3,-9.043544E-3,-4.694796E-4,-1.7698215E-2,-1.2873261E-2],"split_indices":[10,10,10,7,10,7,10,0,0,0,0,0,0,0,0],"split_type":[0,0,0,0,0,0,0,0,0,0,0,0,0,0,0],"sum_hessian":[3.4114739E3,1.9560842E3,1.4553896E3,5.451012E2,1.410983E3,8.650243E2,5.903653E2,4.9525745E2,4.984375E1,4.9059464E2,9.2038837E2,5.412475E2,3.2377676E2,4.5208032E2,1.3828499E2],"tree_param":{"num_deleted":"0","num_feature":"18","num_nodes":"15","size_leaf_vector":"1"}},{"base_weights":[-2.8274332E-3,-1.7004068E-1,7.770327E-1,-5.816397E-1,-6.250379E-2,8.8222414E-1,3.0125063E-2,-0E0,-1.5618017E-2,-5.567923E-3,5.2178215E-4,1.0054086E-2,2.5798455E-2,1.3855385E-2,-8.332247E-3],"categories":[],"categories_nodes":[],"categories_segments":[],"categories_sizes":[],"default_left":[0,0,0,0,0,0,0,0,0,0,0,0,0,0,0],"id":15,"left_children":[1,3,5,7,9,11,13,-1,-1,-1,-1,-1,-1,-1,-1],"loss_changes":[4.4400443E2,1.2381907E2,4.6625336E1,6.8379974E0,2.8036644E1,2.7918304E1,1.3370063E1,0E0,0E0,0E0,0E0,0E0,0E0,0E0,0E0],"parents":[2147483647,0,0,1,1,2,2,3,3,4,4,5,5,6,6],"right_children":[2,4,6,8,10,12,14,-1,-1,-1,-1,-1,-1,-1,-1],"split_conditions":[3.4E1,-3E1,8.9E1,-1.23E2,-7E0,2.4E1,3.3E1,-0E0,-1.5618017E-2,-5.567923E-3,5.2178215E-4,1.0054086E-2,2.5798455E-2,1.3855385E-2,-8.332247E-3],"split_indices":[10,10,10,10,10,9,9,0,0,0,0,0,0,0,0],"split_type":[0,0,0,0,0,0,0,0,0,0,0,0,0,0,0],"sum_hessian":[3.4078787E3,2.8068843E3,6.009943E2,5.801718E2,2.2267124E3,5.260358E2,7.495845E1,1.7939604E1,5.6223224E2,7.874321E2,1.4392804E3,9.71142E1,4.2892166E2,3.1554966E1,4.340348E1],"tree_param":{"num_deleted":"0","num_feature":"18","num_nodes":"15","size_leaf_vector":"1"}},{"base_weights":[3.5601715E-3,-4.1025394E-1,4.1013457E-2,1.4726207E-1,-1.8823713E-2,8.927208E-2,-2.8095862E-1,-3.7876503E-3,2.8836599E-2,-7.598607E-3,3.3357698E-3,-1.0751448E-2,2.1485608E-2],"categories":[],"categories_nodes":[],"categories_segments":[],"categories_sizes":[],"default_left":[0,0,0,0,0,0,0,0,0,0,0,0,0],"id":16,"left_children":[1,3,5,7,-1,9,11,-1,-1,-1,-1,-1,-1],"loss_changes":[5.266574E1,4.9747112E1,4.853583E1,2.9072897E1,0E0,4.0569927E1,5.9533024E1,0E0,0E0,0E0,0E0,0E0,0E0],"parents":[2147483647,0,0,1,1,2,2,3,3,5,5,6,6],"right_children":[2,4,6,8,-1,10,12,-1,-1,-1,-1,-1,-1],"split_conditions":[-4.3E1,6E0,4.1E1,1E0,-1.8823713E-2,7.086E3,2.11E2,-3.7876503E-3,2.8836599E-2,-7.598607E-3,3.3357698E-3,-1.0751448E-2,2.1485608E-2],"split_indices":[10,8,10,4,0,7,10,0,0,0,0,0,0],"split_type":[0,0,0,0,0,0,0,0,0,0,0,0,0],"sum_hessian":[3.4135732E3,2.8186142E2,3.131712E3,1.008411E2,1.8102031E2,2.725266E3,4.0644574E2,7.679286E1,2.4048243E1,2.5169162E2,2.4735745E3,3.6346716E2,4.2978577E1],"tree_param":{"num_deleted":"0","num_feature":"18","num_nodes":"13","size_leaf_vector":"1"}},{"base_weights":[-1.7538382E-4,2.8398553E-1,-3.881299E-1,7.566945E-1,1.1106813E-1,-2.2638753E-1,-6.304435E-1,2.1774486E-2,-8.77963E-5,1.5090484E-3,1.1806139E-2,-8.956839E-3,-7.2573446E-4,-1.7487152E-2,-1.2768443E-2],"categories":[],"categories_nodes":[],"categories_segments":[],"categories_sizes":[],"default_left":[0,0,0,0,0,0,0,0,0,0,0,0,0,0,0],"id":17,"left_children":[1,3,5,7,9,11,13,-1,-1,-1,-1,-1,-1,-1,-1],"loss_changes":[3.7540573E2,1.5999226E2,5.589427E1,3.2983673E1,2.5847546E1,2.0077858E1,2.6398773E0,0E0,0E0,0E0,0E0,0E0,0E0,0E0,0E0],"parents":[2147483647,0,0,1,1,2,2,3,3,4,4,5,5,6,6],"right_children":[2,4,6,8,10,12,14,-1,-1,-1,-1,-1,-1,-1,-1],"split_conditions":[8E0,-3.3E1,3.3E1,8.3961E4,1.1E2,5.3962E4,6.1E1,2.1774486E-2,-8.77963E-5,1.5090484E-3,1.1806139E-2,-8.956839E-3,-7.2573446E-4,-1.7487152E-2,-1.2768443E-2],"split_indices":[10,10,10,7,9,7,10,0,0,0,0,0,0,0,0],"split_type":[0,0,0,0,0,0,0,0,0,0,0,0,0,0,0],"sum_hessian":[3.4046697E3,1.9642556E3,1.440414E3,5.250675E2,1.4391881E3,8.654431E2,5.749708E2,4.7511395E2,4.9953568E1,1.2483813E3,1.9080676E2,5.4014575E2,3.2529733E2,4.3667062E2,1.3830022E2],"tree_param":{"num_deleted":"0","num_feature":"18","num_nodes":"15","size_leaf_vector":"1"}},{"base_weights":[-0E0,-1.6626348E-1,7.826364E-1,-5.7517797E-1,-6.0414266E-2,8.903788E-1,2.8467946E-2,-0E0,-1.5450703E-2,-5.3283772E-3,4.79303E-4,1.8144917E-2,3.0702462E-2,1.3590122E-2,-8.274489E-3],"categories":[],"categories_nodes":[],"categories_segments":[],"categories_sizes":[],"default_left":[0,0,0,0,0,0,0,0,0,0,0,0,0,0,0],"id":18,"left_children":[1,3,5,7,9,11,13,-1,-1,-1,-1,-1,-1,-1,-1],"loss_changes":[4.4121472E2,1.2073356E2,4.766794E1,6.718094E0,2.5497955E1,2.7796814E1,1.3004835E1,0E0,0E0,0E0,0E0,0E0,0E0,0E0,0E0],"parents":[2147483647,0,0,1,1,2,2,3,3,4,4,5,5,6,6],"right_children":[2,4,6,8,10,12,14,-1,-1,-1,-1,-1,-1,-1,-1],"split_conditions":[3.4E1,-3E1,8.9E1,-1.23E2,-7E0,5.1E1,3.3E1,-0E0,-1.5450703E-2,-5.3283772E-3,4.79303E-4,1.8144917E-2,3.0702462E-2,1.3590122E-2,-8.274489E-3],"split_indices":[10,10,10,10,10,10,9,0,0,0,0,0,0,0,0],"split_type":[0,0,0,0,0,0,0,0,0,0,0,0,0,0,0],"sum_hessian":[3.3929429E3,2.7989436E3,5.939992E2,5.7426434E2,2.2246794E3,5.189898E2,7.50094E1,1.7922482E1,5.5634186E2,7.87849E2,1.4368303E3,3.1407605E2,2.0491376E2,3.1696589E1,4.331281E1],"tree_param":{"num_deleted":"0","num_feature":"18","num_nodes":"15","size_leaf_vector":"1"}},{"base_weights":[3.1581244E-3,7.752672E-2,-3.9501655E-1,-2.2675763E-1,1.14664234E-1,-4.8517355E-1,1.3100477E-1,-9.645117E-3,8.524041E-3,1.6405128E-2,1.8471885E-3,-1.3740196E-2,2.4483494E-2,2.5788084E-2,-7.417838E-3],"categories":[],"categories_nodes":[],"categories_segments":[],"categories_sizes":[],"default_left":[0,0,0,0,0,0,0,0,0,0,0,0,0,0,0],"id":19,"left_children":[1,3,5,7,9,11,13,-1,-1,-1,-1,-1,-1,-1,-1],"loss_changes":[1.00913895E2,3.2459114E1,2.5653397E1,2.4968237E1,5.7351486E1,2.8287498E1,2.8225721E1,0E0,0E0,0E0,0E0,0E0,0E0,0E0,0E0],"parents":[2147483647,0,0,1,1,2,2,3,3,4,4,5,5,6,6],"right_children":[2,4,6,8,10,12,14,-1,-1,-1,-1,-1,-1,-1,-1],"split_conditions":[1.04E2,7.086E3,3.2E1,7.7914E3,1.1099E4,6.68533E4,1.076E2,-9.645117E-3,8.524041E-3,1.6405128E-2,1.8471885E-3,-1.3740196E-2,2.4483494E-2,2.5788084E-2,-7.417838E-3],"split_indices":[9,7,8,17,7,17,17,0,0,0,0,0,0,0,0],"split_type":[0,0,0,0,0,0,0,0,0,0,0,0,0,0,0],"sum_hessian":[3.414872E3,2.878826E3,5.3604626E2,3.1122614E2,2.5675996E3,4.5867148E2,7.737477E1,2.4787479E2,6.3351345E1,1.985348E2,2.369065E3,4.45522E2,1.3149489E1,2.5722342E1,5.1652428E1],"tree_param":{"num_deleted":"0","num_feature":"18","num_nodes":"15","size_leaf_vector":"1"}},{"base_weights":[1.5189294E-3,2.7886364E-1,-3.7948388E-1,7.24018E-1,1.0402953E-1,-2.1279766E-1,-6.252395E-1,2.07287E-2,-1.4775267E-4,1.3196378E-3,1.1656904E-2,-7.265293E-3,3.0754295E-3,-1.7343663E-2,-1.2612432E-2],"categories":[],"categories_nodes":[],"categories_segments":[],"categories_sizes":[],"default_left":[0,0,0,0,0,0,0,0,0,0,0,0,0,0,0],"id":20,"left_children":[1,3,5,7,9,11,13,-1,-1,-1,-1,-1,-1,-1,-1],"loss_changes":[3.5913626E2,1.5264583E2,5.8074646E1,3.0314453E1,2.5622017E1,1.9003956E1,2.6519928E0,0E0,0E0,0E0,0E0,0E0,0E0,0E0,0E0],"parents":[2147483647,0,0,1,1,2,2,3,3,4,4,5,5,6,6],"right_children":[2,4,6,8,10,12,14,-1,-1,-1,-1,-1,-1,-1,-1],"split_conditions":[8E0,-3.2E1,3.3E1,8.3961E4,1.1E2,7.0258E4,6.1E1,2.07287E-2,-1.4775267E-4,1.3196378E-3,1.1656904E-2,-7.265293E-3,3.0754295E-3,-1.7343663E-2,-1.2612432E-2],"split_indices":[10,10,10,7,9,7,10,0,0,0,0,0,0,0,0],"split_type":[0,0,0,0,0,0,0,0,0,0,0,0,0,0,0],"sum_hessian":[3.3992893E3,1.9682478E3,1.4310416E3,5.53979E2,1.4142688E3,8.542828E2,5.767588E2,5.0396127E2,5.001772E1,1.2266315E3,1.876373E2,7.125167E2,1.4176602E2,4.394147E2,1.3734412E2],"tree_param":{"num_deleted":"0","num_feature":"18","num_nodes":"15","size_leaf_vector":"1"}},{"base_weights":[-1.8563148E-3,-1.6270375E-1,7.347914E-1,-5.675489E-1,-5.9468586E-2,8.076048E-1,-2.2073458E-1,-0E0,-1.5256291E-2,-5.3534526E-3,5.1923754E-4,3.069417E-2,1.8673304E-2,3.3191717E-3,-1.584762E-2],"categories":[],"categories_nodes":[],"categories_segments":[],"categories_sizes":[],"default_left":[0,0,0,0,0,0,0,0,0,0,0,0,0,0,0],"id":21,"left_children":[1,3,5,7,9,11,13,-1,-1,-1,-1,-1,-1,-1,-1],"loss_changes":[4.0195248E2,1.1610056E2,4.267215E1,6.6145477E0,2.6000732E1,1.7551544E1,6.06596E0,0E0,0E0,0E0,0E0,0E0,0E0,0E0,0E0],"parents":[2147483647,0,0,1,1,2,2,3,3,4,4,5,5,6,6],"right_children":[2,4,6,8,10,12,14,-1,-1,-1,-1,-1,-1,-1,-1],"split_conditions":[3.4E1,-3E1,2.11E2,-1.23E2,-7E0,2.241E2,1E0,-0E0,-1.5256291E-2,-5.3534526E-3,5.1923754E-4,3.069417E-2,1.8673304E-2,3.3191717E-3,-1.584762E-2],"split_indices":[10,10,10,10,10,17,5,0,0,0,0,0,0,0,0],"split_type":[0,0,0,0,0,0,0,0,0,0,0,0,0,0,0],"sum_hessian":[3.395477E3,2.7876772E3,6.0779974E2,5.651289E2,2.2225483E3,5.653981E2,4.2401672E1,1.7877413E1,5.4725146E2,7.841977E2,1.4383507E3,1.0731239E2,4.5808566E2,2.14903E1,2.0911375E1],"tree_param":{"num_deleted":"0","num_feature":"18","num_nodes":"15","size_leaf_vector":"1"}},{"base_weights":[3.2709376E-3,7.645793E-2,-3.9061314E-1,-3.555766E-1,1.1649144E-1,-4.8034263E-1,1.2979296E-1,4.040911E-3,-1.8628782E-2,4.275424E-3,-5.203705E-3,-1.3612451E-2,2.408946E-2,2.5277877E-2,-7.3248837E-3],"categories":[],"categories_nodes":[],"categories_segments":[],"categories_sizes":[],"default_left":[0,0,0,0,0,0,0,0,0,0,0,0,0,0,0],"id":22,"left_children":[1,3,5,7,9,11,13,-1,-1,-1,-1,-1,-1,-1,-1],"loss_changes":[9.821514E1,4.966626E1,2.5144676E1,4.5225925E1,4.0118477E1,2.7685677E1,2.7318134E1,0E0,0E0,0E0,0E0,0E0,0E0,0E0,0E0],"parents":[2147483647,0,0,1,1,2,2,3,3,4,4,5,5,6,6],"right_children":[2,4,6,8,10,12,14,-1,-1,-1,-1,-1,-1,-1,-1],"split_conditions":[1.04E2,-4.3E1,3.2E1,6E0,4.1E1,6.68533E4,1.076E2,4.040911E-3,-1.8628782E-2,4.275424E-3,-5.203705E-3,-1.3612451E-2,2.408946E-2,2.5277877E-2,-7.3248837E-3],"split_indices":[9,10,8,8,10,17,17,0,0,0,0,0,0,0,0],"split_type":[0,0,0,0,0,0,0,0,0,0,0,0,0,0,0],"sum_hessian":[3.4141106E3,2.8805422E3,5.335683E2,2.4289726E2,2.637645E3,4.5616727E2,7.740105E1,9.985823E1,1.4303903E2,2.2920437E3,3.456012E2,4.4293774E2,1.3229506E1,2.5911606E1,5.148944E1],"tree_param":{"num_deleted":"0","num_feature":"18","num_nodes":"15","size_leaf_vector":"1"}},{"base_weights":[-2.082687E-3,2.7005363E-1,-3.7782145E-1,7.0383215E-1,9.8239146E-2,-2.1579772E-1,-6.220156E-1,9.600284E-3,2.1500139E-2,1.1985872E-3,1.12114735E-2,-1.1642077E-2,-4.5010755E-3,-1.717206E-2,-1.2747945E-2],"categories":[],"categories_nodes":[],"categories_segments":[],"categories_sizes":[],"default_left":[0,0,0,0,0,0,0,0,0,0,0,0,0,0,0],"id":23,"left_children":[1,3,5,7,9,11,13,-1,-1,-1,-1,-1,-1,-1,-1],"loss_changes":[3.480681E2,1.465068E2,5.605342E1,2.230243E1,2.4245983E1,8.113995E0,2.1514282E0,0E0,0E0,0E0,0E0,0E0,0E0,0E0,0E0],"parents":[2147483647,0,0,1,1,2,2,3,3,4,4,5,5,6,6],"right_children":[2,4,6,8,10,12,14,-1,-1,-1,-1,-1,-1,-1,-1],"split_conditions":[8E0,-3.2E1,3.3E1,6E0,1.1E2,2.3E1,6.1E1,9.600284E-3,2.1500139E-2,1.1985872E-3,1.12114735E-2,-1.1642077E-2,-4.5010755E-3,-1.717206E-2,-1.2747945E-2],"split_indices":[10,10,10,8,9,9,10,0,0,0,0,0,0,0,0],"split_type":[0,0,0,0,0,0,0,0,0,0,0,0,0,0,0],"sum_hessian":[3.403313E3,1.9727665E3,1.4305464E3,5.586157E2,1.4141508E3,8.615734E2,5.68973E2,1.5218373E2,4.0643198E2,1.2246042E3,1.8954645E2,1.3109741E2,7.30476E2,4.3532098E2,1.3365201E2],"tree_param":{"num_deleted":"0","num_feature":"18","num_nodes":"15","size_leaf_vector":"1"}},{"base_weights":[-1.9217303E-3,-3.8495906E-2,1.8916965E-1,-1.6092186E-1,-6.371441E-3,2.4412727E-1,-5.0587606E-1,-5.4784818E-3,1.002466E-2,7.271571E-3,-6.827501E-4,1.6901592E-2,4.8019504E-3,3.420721E-5,-1.4246224E-2],"categories":[],"categories_nodes":[],"categories_segments":[],"categories_sizes":[],"default_left":[0,0,0,0,0,0,0,0,0,0,0,0,0,0,0],"id":24,"left_children":[1,3,5,7,9,11,13,-1,-1,-1,-1,-1,-1,-1,-1],"loss_changes":[2.3689754E1,1.1137806E1,2.060753E1,1.5992481E1,1.2763677E1,1.1626963E1,1.194375E0,0E0,0E0,0E0,0E0,0E0,0E0,0E0,0E0],"parents":[2147483647,0,0,1,1,2,2,3,3,4,4,5,5,6,6],"right_children":[2,4,6,8,10,12,14,-1,-1,-1,-1,-1,-1,-1,-1],"split_conditions":[1.04E2,1.721E2,3.8E1,1E0,2.241E2,1.0588E4,1E0,-5.4784818E-3,1.002466E-2,7.271571E-3,-6.827501E-4,1.6901592E-2,4.8019504E-3,3.420721E-5,-1.4246224E-2],"split_indices":[9,17,8,4,17,7,0,0,0,0,0,0,0,0,0],"split_type":[0,0,0,0,0,0,0,0,0,0,0,0,0,0,0],"sum_hessian":[3.4035952E3,2.859679E3,5.439163E2,5.9018396E2,2.2694949E3,5.0493384E2,3.8982464E1,5.4190564E2,4.827832E1,1.4542758E2,2.1240674E3,6.2922295E1,4.4201154E2,1.8217624E0,3.71607E1],"tree_param":{"num_deleted":"0","num_feature":"18","num_nodes":"15","size_leaf_vector":"1"}},{"base_weights":[-7.517964E-4,7.0069015E-2,-3.8568902E-1,-3.540455E-1,1.0959825E-1,-4.486546E-1,3.5257068E-1,3.7386443E-3,-1.8488422E-2,3.7683137E-3,-7.6703816E-3,-1.699903E-2,-2.483414E-3,3.6902726E-2,-0E0],"categories":[],"categories_nodes":[],"categories_segments":[],"categories_sizes":[],"default_left":[0,0,0,0,0,0,0,0,0,0,0,0,0,0,0],"id":25,"left_children":[1,3,5,7,9,11,13,-1,-1,-1,-1,-1,-1,-1,-1],"loss_changes":[9.297336E1,4.8001263E1,2.4710632E1,4.37147E1,3.760176E1,3.5025406E1,1.5645885E1,0E0,0E0,0E0,0E0,0E0,0E0,0E0,0E0],"parents":[2147483647,0,0,1,1,2,2,3,3,4,4,5,5,6,6],"right_children":[2,4,6,8,10,12,14,-1,-1,-1,-1,-1,-1,-1,-1],"split_conditions":[1.04E2,-4.3E1,3.8E1,6E0,5.3E1,1.9E1,1.1E2,3.7386443E-3,-1.8488422E-2,3.7683137E-3,-7.6703816E-3,-1.699903E-2,-2.483414E-3,3.6902726E-2,-0E0],"split_indices":[9,10,8,8,10,10,9,0,0,0,0,0,0,0,0],"split_type":[0,0,0,0,0,0,0,0,0,0,0,0,0,0,0],"sum_hessian":[3.4028606E3,2.8726628E3,5.301976E2,2.4350597E2,2.629157E3,4.893473E2,4.085029E1,1.0100217E2,1.425038E2,2.4190781E3,2.1007889E2,3.0812387E2,1.8122343E2,1.0266582E1,3.0583706E1],"tree_param":{"num_deleted":"0","num_feature":"18","num_nodes":"15","size_leaf_vector":"1"}},{"base_weights":[5.329572E-4,2.7077967E-1,-3.7221426E-1,6.842933E-1,1.0549617E-1,-2.1292825E-1,-6.126137E-1,1.9620769E-2,-5.1840476E-4,1.4179695E-3,1.1059674E-2,-8.585981E-3,-4.5893606E-4,-1.7013058E-2,-1.2305566E-2],"categories":[],"categories_nodes":[],"categories_segments":[],"categories_sizes":[],"default_left":[0,0,0,0,0,0,0,0,0,0,0,0,0,0,0],"id":26,"left_children":[1,3,5,7,9,11,13,-1,-1,-1,-1,-1,-1,-1,-1],"loss_changes":[3.420136E2,1.3410284E2,5.4075745E1,2.8467041E1,2.2646704E1,1.9493027E1,2.5818787E0,0E0,0E0,0E0,0E0,0E0,0E0,0E0,0E0],"parents":[2147483647,0,0,1,1,2,2,3,3,4,4,5,5,6,6],"right_children":[2,4,6,8,10,12,14,-1,-1,-1,-1,-1,-1,-1,-1],"split_conditions":[8E0,-3.2E1,3.3E1,8.3961E4,1.1E2,5.3962E4,6.1E1,1.9620769E-2,-5.1840476E-4,1.4179695E-3,1.1059674E-2,-8.585981E-3,-4.5893606E-4,-1.7013058E-2,-1.2305566E-2],"split_indices":[10,10,10,7,9,7,10,0,0,0,0,0,0,0,0],"split_type":[0,0,0,0,0,0,0,0,0,0,0,0,0,0,0],"sum_hessian":[3.3958633E3,1.9696155E3,1.4262478E3,5.6131744E2,1.4082981E3,8.594872E2,5.6676056E2,5.1088092E2,5.0436554E1,1.2167769E3,1.915212E2,5.3451215E2,3.2497507E2,4.3135904E2,1.3540152E2],"tree_param":{"num_deleted":"0","num_feature":"18","num_nodes":"15","size_leaf_vector":"1"}},{"base_weights":[-1.1530452E-3,-3.661337E-2,1.8306659E-1,-1.554804E-1,-5.4306407E-3,2.3435917E-1,-1.2789026E-2,-5.316954E-3,9.865661E-3,7.5404565E-3,-6.765534E-4,1.6515264E-2,4.568175E-3],"categories":[],"categories_nodes":[],"categories_segments":[],"categories_sizes":[],"default_left":[0,0,0,0,0,0,0,0,0,0,0,0,0],"id":27,"left_children":[1,3,5,7,9,11,-1,-1,-1,-1,-1,-1,-1],"loss_changes":[2.2125357E1,1.0479245E1,1.8747698E1,1.5377555E1,1.363402E1,1.141614E1,0E0,0E0,0E0,0E0,0E0,0E0,0E0],"parents":[2147483647,0,0,1,1,2,2,3,3,4,4,5,5],"right_children":[2,4,6,8,10,12,-1,-1,-1,-1,-1,-1,-1],"split_conditions":[1.04E2,1.721E2,3.8E1,1E0,2.241E2,1.0588E4,-1.2789026E-2,-5.316954E-3,9.865661E-3,7.5404565E-3,-6.765534E-4,1.6515264E-2,4.568175E-3],"split_indices":[9,17,8,4,17,7,0,0,0,0,0,0,0],"split_type":[0,0,0,0,0,0,0,0,0,0,0,0,0],"sum_hessian":[3.4015557E3,2.8554539E3,5.4610187E2,5.8906067E2,2.2663933E3,5.084497E2,3.7652164E1,5.406402E2,4.8420506E1,1.4561647E2,2.1207769E3,6.3326645E1,4.4512305E2],"tree_param":{"num_deleted":"0","num_feature":"18","num_nodes":"13","size_leaf_vector":"1"}},{"base_weights":[-0E0,7.403375E-2,-4.1556212E-1,-3.4600672E-1,1.1255965E-1,-5.8651406E-1,-1.0717256E-1,-1.2730591E-2,8.361144E-3,4.1448683E-3,-5.1536807E-3,-1.6942285E-2,2.420379E-2,1.2975051E-2,-1.8539673E-2],"categories":[],"categories_nodes":[],"categories_segments":[],"categories_sizes":[],"default_left":[0,0,0,0,0,0,0,0,0,0,0,0,0,0,0],"id":28,"left_children":[1,3,5,7,9,11,13,-1,-1,-1,-1,-1,-1,-1,-1],"loss_changes":[1.0457428E2,4.6520412E1,2.6646461E1,2.3262342E1,3.855985E1,3.2568596E1,6.8059204E1,0E0,0E0,0E0,0E0,0E0,0E0,0E0,0E0],"parents":[2147483647,0,0,1,1,2,2,3,3,4,4,5,5,6,6],"right_children":[2,4,6,8,10,12,14,-1,-1,-1,-1,-1,-1,-1,-1],"split_conditions":[1.04E2,-4.3E1,1.9E1,8.1817E4,4.1E1,6.68533E4,2.9E1,-1.2730591E-2,8.361144E-3,4.1448683E-3,-5.1536807E-3,-1.6942285E-2,2.420379E-2,1.2975051E-2,-1.8539673E-2],"split_indices":[9,10,10,7,10,17,10,0,0,0,0,0,0,0,0],"split_type":[0,0,0,0,0,0,0,0,0,0,0,0,0,0,0],"sum_hessian":[3.3981196E3,2.8841123E3,5.1400714E2,2.4087883E2,2.6432336E3,3.293281E2,1.8467905E2,1.9897314E2,4.1905697E1,2.2982405E3,3.44993E2,3.161219E2,1.32062025E1,9.1788536E1,9.289051E1],"tree_param":{"num_deleted":"0","num_feature":"18","num_nodes":"15","size_leaf_vector":"1"}},{"base_weights":[-1.863678E-3,2.6183861E-1,-3.7103316E-1,6.7109364E-1,9.86839E-2,-2.1156052E-1,-6.1254686E-1,1.923481E-2,-5.1970646E-4,1.2577296E-3,1.0802627E-2,-8.511167E-3,-4.5081222E-4,-1.7040487E-2,-1.2231714E-2],"categories":[],"categories_nodes":[],"categories_segments":[],"categories_sizes":[],"default_left":[0,0,0,0,0,0,0,0,0,0,0,0,0,0,0],"id":29,"left_children":[1,3,5,7,9,11,13,-1,-1,-1,-1,-1,-1,-1,-1],"loss_changes":[3.3109253E2,1.318696E2,5.4070297E1,2.741716E1,2.2311096E1,1.9048656E1,2.7118073E0,0E0,0E0,0E0,0E0,0E0,0E0,0E0,0E0],"parents":[2147483647,0,0,1,1,2,2,3,3,4,4,5,5,6,6],"right_children":[2,4,6,8,10,12,14,-1,-1,-1,-1,-1,-1,-1,-1],"split_conditions":[8E0,-3.2E1,3.3E1,8.3961E4,1.1E2,5.3962E4,6.1E1,1.923481E-2,-5.1970646E-4,1.2577296E-3,1.0802627E-2,-8.511167E-3,-4.5081222E-4,-1.7040487E-2,-1.2231714E-2],"split_indices":[10,10,10,7,9,7,10,0,0,0,0,0,0,0,0],"split_type":[0,0,0,0,0,0,0,0,0,0,0,0,0,0,0],"sum_hessian":[3.4002756E3,1.9824357E3,1.4178398E3,5.6391046E2,1.4185253E3,8.5559814E2,5.622417E2,5.134769E2,5.043352E1,1.2261362E3,1.9238893E2,5.3357635E2,3.2202176E2,4.273106E2,1.3493109E2],"tree_param":{"num_deleted":"0","num_feature":"18","num_nodes":"15","size_leaf_vector":"1"}},{"base_weights":[-1.651862E-3,-1.5706477E-1,7.04055E-1,-5.5690604E-1,-5.7494964E-2,7.7519137E-1,-2.2898711E-1,1.0313482E-4,-1.4986505E-2,-5.1939995E-3,5.0179026E-4,1.0016592E-2,2.2487117E-2,3.1395417E-2,-9.905959E-3],"categories":[],"categories_nodes":[],"categories_segments":[],"categories_sizes":[],"default_left":[0,0,0,0,0,0,0,0,0,0,0,0,0,0,0],"id":30,"left_children":[1,3,5,7,9,11,13,-1,-1,-1,-1,-1,-1,-1,-1],"loss_changes":[3.7159048E2,1.1027814E2,4.0931488E1,6.5264587E0,2.4474339E1,1.9173859E1,8.800203E0,0E0,0E0,0E0,0E0,0E0,0E0,0E0,0E0],"parents":[2147483647,0,0,1,1,2,2,3,3,4,4,5,5,6,6],"right_children":[2,4,6,8,10,12,14,-1,-1,-1,-1,-1,-1,-1,-1],"split_conditions":[3.4E1,-3E1,2.11E2,-1.23E2,-7E0,2.4E1,6.5668E4,1.0313482E-4,-1.4986505E-2,-5.1939995E-3,5.0179026E-4,1.0016592E-2,2.2487117E-2,3.1395417E-2,-9.905959E-3],"split_indices":[10,10,10,10,10,9,7,0,0,0,0,0,0,0,0],"split_type":[0,0,0,0,0,0,0,0,0,0,0,0,0,0,0],"sum_hessian":[3.3913064E3,2.7800134E3,6.11293E2,5.529512E2,2.2270623E3,5.686388E2,4.2654224E1,1.7770733E1,5.351804E2,7.8331573E2,1.4437465E3,1.0825451E2,4.603843E2,3.6696506E0,3.8984573E1],"tree_param":{"num_deleted":"0","num_feature":"18","num_nodes":"15","size_leaf_vector":"1"}},{"base_weights":[3.6480187E-3,7.246628E-2,-3.7473843E-1,-3.391297E-1,1.0987673E-1,-4.0968522E-1,9.181803E-1,-1.2515924E-2,7.783781E-3,8.443296E-3,1.0875642E-3,-1.5066934E-2,-2.6967803E-3,-1.4123786E-2,3.614791E-2],"categories":[],"categories_nodes":[],"categories_segments":[],"categories_sizes":[],"default_left":[0,0,0,0,0,0,0,0,0,0,0,0,0,0,0],"id":31,"left_children":[1,3,5,7,9,11,13,-1,-1,-1,-1,-1,-1,-1,-1],"loss_changes":[8.860408E1,4.430297E1,2.3317642E1,2.1885044E1,3.849507E1,2.6102684E1,9.743152E0,0E0,0E0,0E0,0E0,0E0,0E0,0E0,0E0],"parents":[2147483647,0,0,1,1,2,2,3,3,4,4,5,5,6,6],"right_children":[2,4,6,8,10,12,14,-1,-1,-1,-1,-1,-1,-1,-1],"split_conditions":[1.04E2,-4.3E1,6.68533E4,8.1817E4,-1.9E1,1.9E1,1E0,-1.2515924E-2,7.783781E-3,8.443296E-3,1.0875642E-3,-1.5066934E-2,-2.6967803E-3,-1.4123786E-2,3.614791E-2],"split_indices":[9,10,17,7,10,10,5,0,0,0,0,0,0,0,0],"split_type":[0,0,0,0,0,0,0,0,0,0,0,0,0,0,0],"sum_hessian":[3.4101702E3,2.8868574E3,5.233127E2,2.3907146E2,2.647786E3,5.1003662E2,1.3276071E1,1.962871E2,4.2784363E1,6.339364E2,2.0138496E3,3.2636163E2,1.83675E2,2.9084866E0,1.0367584E1],"tree_param":{"num_deleted":"0","num_feature":"18","num_nodes":"15","size_leaf_vector":"1"}},{"base_weights":[-2.4500426E-3,2.5731403E-1,-3.6789772E-1,6.5774167E-1,9.7128436E-2,-2.1158445E-1,-6.052525E-1,1.883988E-2,-4.837328E-4,1.2439055E-3,1.056565E-2,-7.245935E-3,3.1978695E-3,-1.6819706E-2,-1.2115096E-2],"categories":[],"categories_nodes":[],"categories_segments":[],"categories_sizes":[],"default_left":[0,0,0,0,0,0,0,0,0,0,0,0,0,0,0],"id":32,"left_children":[1,3,5,7,9,11,13,-1,-1,-1,-1,-1,-1,-1,-1],"loss_changes":[3.2288522E2,1.2693581E2,5.1924973E1,2.6245834E1,2.1353302E1,1.9330845E1,2.5435333E0,0E0,0E0,0E0,0E0,0E0,0E0,0E0,0E0],"parents":[2147483647,0,0,1,1,2,2,3,3,4,4,5,5,6,6],"right_children":[2,4,6,8,10,12,14,-1,-1,-1,-1,-1,-1,-1,-1],"split_conditions":[8E0,-3.2E1,3.3E1,8.3961E4,1.1E2,7.0258E4,6.1E1,1.883988E-2,-4.837328E-4,1.2439055E-3,1.056565E-2,-7.245935E-3,3.1978695E-3,-1.6819706E-2,-1.2115096E-2],"split_indices":[10,10,10,7,9,7,10,0,0,0,0,0,0,0,0],"split_type":[0,0,0,0,0,0,0,0,0,0,0,0,0,0,0],"sum_hessian":[3.4005151E3,1.986623E3,1.4138921E3,5.664736E2,1.4201494E3,8.541445E2,5.597476E2,5.160838E2,5.0389774E1,1.2269786E3,1.9317082E2,7.1280566E2,1.4133876E2,4.26142E2,1.3360565E2],"tree_param":{"num_deleted":"0","num_feature":"18","num_nodes":"15","size_leaf_vector":"1"}},{"base_weights":[-1.3138384E-3,-1.5455016E-1,6.8694746E-1,-5.521884E-1,-5.5315066E-2,7.559845E-1,-2.2847974E-1,1.7784735E-4,-1.486098E-2,-5.110536E-3,5.4003147E-4,9.764572E-3,2.1911269E-2,3.0618086E-2,-9.858477E-3],"categories":[],"categories_nodes":[],"categories_segments":[],"categories_sizes":[],"default_left":[0,0,0,0,0,0,0,0,0,0,0,0,0,0,0],"id":33,"left_children":[1,3,5,7,9,11,13,-1,-1,-1,-1,-1,-1,-1,-1],"loss_changes":[3.5765308E2,1.0918693E2,3.9360718E1,6.4703217E0,2.4036257E1,1.8269836E1,8.536208E0,0E0,0E0,0E0,0E0,0E0,0E0,0E0,0E0],"parents":[2147483647,0,0,1,1,2,2,3,3,4,4,5,5,6,6],"right_children":[2,4,6,8,10,12,14,-1,-1,-1,-1,-1,-1,-1,-1],"split_conditions":[3.4E1,-3E1,2.11E2,-1.23E2,-7E0,2.4E1,6.5668E4,1.7784735E-4,-1.486098E-2,-5.110536E-3,5.4003147E-4,9.764572E-3,2.1911269E-2,3.0618086E-2,-9.858477E-3],"split_indices":[10,10,10,10,10,9,7,0,0,0,0,0,0,0,0],"split_type":[0,0,0,0,0,0,0,0,0,0,0,0,0,0,0],"sum_hessian":[3.3944187E3,2.7770764E3,6.1734235E2,5.5331616E2,2.2237603E3,5.747133E2,4.2629013E1,1.7735134E1,5.3558105E2,7.8117633E2,1.4425839E3,1.0868045E2,4.660329E2,3.7060084E0,3.8923004E1],"tree_param":{"num_deleted":"0","num_feature":"18","num_nodes":"15","size_leaf_vector":"1"}},{"base_weights":[5.476913E-3,-3.82193E-1,3.957133E-2,1.5204608E-1,-1.814944E-2,8.484538E-2,-2.6787165E-1,-6.4574317E-3,1.3363622E-2,-7.4495883E-3,3.181188E-3,-1.0377927E-2,2.0557186E-2],"categories":[],"categories_nodes":[],"categories_segments":[],"categories_sizes":[],"default_left":[0,0,0,0,0,0,0,0,0,0,0,0,0],"id":34,"left_children":[1,3,5,7,-1,9,11,-1,-1,-1,-1,-1,-1],"loss_changes":[4.4733482E1,4.6554466E1,4.3419037E1,1.4816775E1,0E0,3.7987385E1,5.5409355E1,0E0,0E0,0E0,0E0,0E0,0E0],"parents":[2147483647,0,0,1,1,2,2,3,3,5,5,6,6],"right_children":[2,4,6,8,-1,10,12,-1,-1,-1,-1,-1,-1],"split_conditions":[-4.3E1,6E0,4.1E1,1E0,-1.814944E-2,7.086E3,2.11E2,-6.4574317E-3,1.3363622E-2,-7.4495883E-3,3.181188E-3,-1.0377927E-2,2.0557186E-2],"split_indices":[10,8,10,13,0,7,10,0,0,0,0,0,0],"split_type":[0,0,0,0,0,0,0,0,0,0,0,0,0],"sum_hessian":[3.4013076E3,2.7340186E2,3.1279058E3,1.00904564E2,1.724973E2,2.7282664E3,3.9963947E2,4.7065834E1,5.383873E1,2.4901483E2,2.4792515E3,3.5604337E2,4.35961E1],"tree_param":{"num_deleted":"0","num_feature":"18","num_nodes":"13","size_leaf_vector":"1"}},{"base_weights":[-1.6634132E-3,2.5270188E-1,-3.6179852E-1,6.428053E-1,9.537483E-2,-2.0410651E-1,-6.031298E-1,1.8404907E-2,-5.1589496E-4,1.2109539E-3,1.0431747E-2,-7.041227E-3,3.4395123E-3,-1.6462542E-2,-1.0458637E-2],"categories":[],"categories_nodes":[],"categories_segments":[],"categories_sizes":[],"default_left":[0,0,0,0,0,0,0,0,0,0,0,0,0,0,0],"id":35,"left_children":[1,3,5,7,9,11,13,-1,-1,-1,-1,-1,-1,-1,-1],"loss_changes":[3.111801E2,1.21609886E2,5.301277E1,2.5210114E1,2.0888287E1,1.9272686E1,2.7064667E0,0E0,0E0,0E0,0E0,0E0,0E0,0E0,0E0],"parents":[2147483647,0,0,1,1,2,2,3,3,4,4,5,5,6,6],"right_children":[2,4,6,8,10,12,14,-1,-1,-1,-1,-1,-1,-1,-1],"split_conditions":[8E0,-3.2E1,3.3E1,8.3961E4,1.1E2,7.0258E4,7.801E4,1.8404907E-2,-5.1589496E-4,1.2109539E-3,1.0431747E-2,-7.041227E-3,3.4395123E-3,-1.6462542E-2,-1.0458637E-2],"split_indices":[10,10,10,7,9,7,7,0,0,0,0,0,0,0,0],"split_type":[0,0,0,0,0,0,0,0,0,0,0,0,0,0,0],"sum_hessian":[3.3961511E3,1.9892955E3,1.4068556E3,5.7050964E2,1.4187859E3,8.5251556E2,5.5434E2,5.20087E2,5.0422646E1,1.2256305E3,1.9315547E2,7.1279254E2,1.3972305E2,4.78519E2,7.582104E1],"tree_param":{"num_deleted":"0","num_feature":"18","num_nodes":"15","size_leaf_vector":"1"}},{"base_weights":[-1.1841088E-4,-1.523394E-1,6.725539E-1,-5.504187E-1,-5.3083997E-2,7.647734E-1,1.143101E-3,2.2220094E-4,-1.4818242E-2,-5.118872E-3,4.4783173E-4,7.945124E-3,2.2521526E-2,1.2513227E-2,-8.756909E-3],"categories":[],"categories_nodes":[],"categories_segments":[],"categories_sizes":[],"default_left":[0,0,0,0,0,0,0,0,0,0,0,0,0,0,0],"id":36,"left_children":[1,3,5,7,9,11,13,-1,-1,-1,-1,-1,-1,-1,-1],"loss_changes":[3.4594037E2,1.0860056E2,3.8092194E1,6.460602E0,2.2474844E1,2.4839325E1,1.2463301E1,0E0,0E0,0E0,0E0,0E0,0E0,0E0,0E0],"parents":[2147483647,0,0,1,1,2,2,3,3,4,4,5,5,6,6],"right_children":[2,4,6,8,10,12,14,-1,-1,-1,-1,-1,-1,-1,-1],"split_conditions":[3.4E1,-3E1,8.9E1,-1.23E2,-8E0,2.4E1,3.3E1,2.2220094E-4,-1.4818242E-2,-5.118872E-3,4.4783173E-4,7.945124E-3,2.2521526E-2,1.2513227E-2,-8.756909E-3],"split_indices":[10,10,10,10,10,9,9,0,0,0,0,0,0,0,0],"split_type":[0,0,0,0,0,0,0,0,0,0,0,0,0,0,0],"sum_hessian":[3.3817854E3,2.7585256E3,6.2325964E2,5.49214E2,2.2093118E3,5.471379E2,7.612176E1,1.7711916E1,5.315021E2,7.2821173E2,1.4811E3,1.0060879E2,4.4652908E2,3.2239697E1,4.388206E1],"tree_param":{"num_deleted":"0","num_feature":"18","num_nodes":"15","size_leaf_vector":"1"}},{"base_weights":[4.2716763E-3,7.117946E-2,-3.6784908E-1,-2.2421858E-1,1.0709189E-1,-4.3161485E-1,3.658816E-1,-9.524958E-3,8.296272E-3,1.580406E-2,1.6769585E-3,-1.2251568E-2,2.348942E-2,3.6324356E-2,-0E0],"categories":[],"categories_nodes":[],"categories_segments":[],"categories_sizes":[],"default_left":[0,0,0,0,0,0,0,0,0,0,0,0,0,0,0],"id":37,"left_children":[1,3,5,7,9,11,13,-1,-1,-1,-1,-1,-1,-1,-1],"loss_changes":[8.4605255E1,3.056432E1,2.4259697E1,2.410065E1,5.4520454E1,2.5128792E1,1.4800392E1,0E0,0E0,0E0,0E0,0E0,0E0,0E0,0E0],"parents":[2147483647,0,0,1,1,2,2,3,3,4,4,5,5,6,6],"right_children":[2,4,6,8,10,12,14,-1,-1,-1,-1,-1,-1,-1,-1],"split_conditions":[1.04E2,7.086E3,3.8E1,7.7914E3,1.1099E4,6.68533E4,1.1E2,-9.524958E-3,8.296272E-3,1.580406E-2,1.6769585E-3,-1.2251568E-2,2.348942E-2,3.6324356E-2,-0E0],"split_indices":[9,7,8,17,7,17,9,0,0,0,0,0,0,0,0],"split_type":[0,0,0,0,0,0,0,0,0,0,0,0,0,0,0],"sum_hessian":[3.4058477E3,2.8882876E3,5.175602E2,3.1110526E2,2.5771821E3,4.769975E2,4.0562675E1,2.4748834E2,6.3616917E1,2.0051746E2,2.3766648E3,4.6364694E2,1.3350563E1,1.0344003E1,3.0218674E1],"tree_param":{"num_deleted":"0","num_feature":"18","num_nodes":"15","size_leaf_vector":"1"}},{"base_weights":[-2.8789325E-3,2.4535272E-1,-3.5629666E-1,6.267249E-1,9.0876214E-2,-2.0236456E-1,-5.937681E-1,1.8450232E-2,2.7373785E-3,9.6480054E-4,9.235693E-3,-8.2752695E-3,-2.575968E-4,-1.6205605E-2,-1.0303826E-2],"categories":[],"categories_nodes":[],"categories_segments":[],"categories_sizes":[],"default_left":[0,0,0,0,0,0,0,0,0,0,0,0,0,0,0],"id":38,"left_children":[1,3,5,7,9,11,13,-1,-1,-1,-1,-1,-1,-1,-1],"loss_changes":[2.979086E2,1.16954994E2,5.072191E1,2.4376907E1,1.993192E1,1.8827213E1,2.5740356E0,0E0,0E0,0E0,0E0,0E0,0E0,0E0,0E0],"parents":[2147483647,0,0,1,1,2,2,3,3,4,4,5,5,6,6],"right_children":[2,4,6,8,10,12,14,-1,-1,-1,-1,-1,-1,-1,-1],"split_conditions":[8E0,-3.2E1,3.3E1,8.2056E4,1.04E2,5.3962E4,7.801E4,1.8450232E-2,2.7373785E-3,9.6480054E-4,9.235693E-3,-8.2752695E-3,-2.575968E-4,-1.6205605E-2,-1.0303826E-2],"split_indices":[10,10,10,7,9,7,7,0,0,0,0,0,0,0,0],"split_type":[0,0,0,0,0,0,0,0,0,0,0,0,0,0,0],"sum_hessian":[3.3949229E3,1.993147E3,1.401776E3,5.733686E2,1.4197783E3,8.521563E2,5.496196E2,4.932845E2,8.008411E1,1.1820972E3,2.3768117E2,5.293896E2,3.2276675E2,4.7439276E2,7.522687E1],"tree_param":{"num_deleted":"0","num_feature":"18","num_nodes":"15","size_leaf_vector":"1"}},{"base_weights":[-1.3030182E-3,-1.4948942E-1,6.555424E-1,-5.414323E-1,-5.30617E-2,7.459315E-1,-0E0,3.058857E-4,-1.4582107E-2,-4.9067205E-3,5.074602E-4,7.4765375E-3,2.2004282E-2,1.2234431E-2,-8.749048E-3],"categories":[],"categories_nodes":[],"categories_segments":[],"categories_sizes":[],"default_left":[0,0,0,0,0,0,0,0,0,0,0,0,0,0,0],"id":39,"left_children":[1,3,5,7,9,11,13,-1,-1,-1,-1,-1,-1,-1,-1],"loss_changes":[3.3002814E2,1.04304825E2,3.6615173E1,6.319519E0,2.203401E1,2.457782E1,1.2154355E1,0E0,0E0,0E0,0E0,0E0,0E0,0E0,0E0],"parents":[2147483647,0,0,1,1,2,2,3,3,4,4,5,5,6,6],"right_children":[2,4,6,8,10,12,14,-1,-1,-1,-1,-1,-1,-1,-1],"split_conditions":[3.4E1,-3E1,8.9E1,-1.23E2,-7E0,2.4E1,3.3E1,3.058857E-4,-1.4582107E-2,-4.9067205E-3,5.074602E-4,7.4765375E-3,2.2004282E-2,1.2234431E-2,-8.749048E-3],"split_indices":[10,10,10,10,10,9,9,0,0,0,0,0,0,0,0],"split_type":[0,0,0,0,0,0,0,0,0,0,0,0,0,0,0],"sum_hessian":[3.3939912E3,2.7700562E3,6.2393494E2,5.4559973E2,2.2244565E3,5.4768805E2,7.624687E1,1.767174E1,5.27928E2,7.780985E2,1.446358E3,1.0000363E2,4.4768442E2,3.238051E1,4.3866367E1],"tree_param":{"num_deleted":"0","num_feature":"18","num_nodes":"15","size_leaf_vector":"1"}},{"base_weights":[1.3455334E-4,-3.7614802E-1,3.302476E-2,1.5137936E-1,-1.799609E-2,7.729022E-2,-2.6618066E-1,-3.4450565E-3,2.7790744E-2,-7.42573E-3,2.9690748E-3,-1.0272117E-2,1.984499E-2],"categories":[],"categories_nodes":[],"categories_segments":[],"categories_sizes":[],"default_left":[0,0,0,0,0,0,0,0,0,0,0,0,0],"id":40,"left_children":[1,3,5,7,-1,9,11,-1,-1,-1,-1,-1,-1],"loss_changes":[4.1778694E1,4.5624355E1,4.1234657E1,2.6922916E1,0E0,3.6428757E1,5.303347E1,0E0,0E0,0E0,0E0,0E0,0E0],"parents":[2147483647,0,0,1,1,2,2,3,3,5,5,6,6],"right_children":[2,4,6,8,-1,10,12,-1,-1,-1,-1,-1,-1],"split_conditions":[-4.3E1,6E0,4.1E1,1E0,-1.799609E-2,7.086E3,2.11E2,-3.4450565E-3,2.7790744E-2,-7.42573E-3,2.9690748E-3,-1.0272117E-2,1.984499E-2],"split_indices":[10,8,10,4,0,7,10,0,0,0,0,0,0],"split_type":[0,0,0,0,0,0,0,0,0,0,0,0,0],"sum_hessian":[3.3938193E3,2.7120334E2,3.122616E3,1.00912056E2,1.7029128E2,2.722085E3,4.0053094E2,7.653849E1,2.4373566E1,2.4995059E2,2.4721343E3,3.5647223E2,4.4058735E1],"tree_param":{"num_deleted":"0","num_feature":"18","num_nodes":"13","size_leaf_vector":"1"}},{"base_weights":[-2.1853424E-3,-3.6199655E-2,1.7106247E-1,-5.0918043E-2,4.5756543E-1,1.2341803E-1,5.3638035E-1,-2.659766E-3,4.220494E-4,1.8037787E-2,-1.450182E-2,5.4828585E-3,-2.1063075E-3,-6.406196E-3,1.619208E-2],"categories":[],"categories_nodes":[],"categories_segments":[],"categories_sizes":[],"default_left":[0,0,0,0,0,0,0,0,0,0,0,0,0,0,0],"id":41,"left_children":[1,3,5,7,9,11,13,-1,-1,-1,-1,-1,-1,-1,-1],"loss_changes":[1.9908035E1,2.0371101E1,9.207476E0,9.586531E0,1.9536041E1,8.886066E0,4.478897E0,0E0,0E0,0E0,0E0,0E0,0E0,0E0,0E0],"parents":[2147483647,0,0,1,1,2,2,3,3,4,4,5,5,6,6],"right_children":[2,4,6,8,10,12,14,-1,-1,-1,-1,-1,-1,-1,-1],"split_conditions":[1.04E2,1.017365E5,1.52E2,1E0,5.8E1,1.29E2,1.076E2,-2.659766E-3,4.220494E-4,1.8037787E-2,-1.450182E-2,5.4828585E-3,-2.1063075E-3,-6.406196E-3,1.619208E-2],"split_indices":[9,17,9,16,9,9,17,0,0,0,0,0,0,0,0],"split_type":[0,0,0,0,0,0,0,0,0,0,0,0,0,0,0],"sum_hessian":[3.3931926E3,2.8394756E3,5.537171E2,2.7585737E3,8.090174E1,4.9142126E2,6.229582E1,1.5675796E3,1.1909943E3,6.613828E1,1.4763457E1,3.4627997E2,1.451413E2,5.4642715E0,5.6831547E1],"tree_param":{"num_deleted":"0","num_feature":"18","num_nodes":"15","size_leaf_vector":"1"}},{"base_weights":[5.045256E-4,-1.4621182E-1,6.45758E-1,-5.417393E-1,-4.8968848E-2,7.3380595E-1,-0E0,2.3741294E-4,-1.4591981E-2,-4.8419856E-3,6.447279E-4,1.5053123E-2,2.6524538E-2,-9.462895E-3,1.1248202E-2],"categories":[],"categories_nodes":[],"categories_segments":[],"categories_sizes":[],"default_left":[0,0,0,0,0,0,0,0,0,0,0,0,0,0,0],"id":42,"left_children":[1,3,5,7,9,11,13,-1,-1,-1,-1,-1,-1,-1,-1],"loss_changes":[3.2062076E2,1.0560602E2,3.524286E1,6.2842255E0,2.2537323E1,2.3402924E1,1.2044449E1,0E0,0E0,0E0,0E0,0E0,0E0,0E0,0E0],"parents":[2147483647,0,0,1,1,2,2,3,3,4,4,5,5,6,6],"right_children":[2,4,6,8,10,12,14,-1,-1,-1,-1,-1,-1,-1,-1],"split_conditions":[3.4E1,-3E1,8.9E1,-1.23E2,-7E0,5.3E1,3.998E2,2.3741294E-4,-1.4591981E-2,-4.8419856E-3,6.447279E-4,1.5053123E-2,2.6524538E-2,-9.462895E-3,1.1248202E-2],"split_indices":[10,10,10,10,10,10,17,0,0,0,0,0,0,0,0],"split_type":[0,0,0,0,0,0,0,0,0,0,0,0,0,0,0],"sum_hessian":[3.383293E3,2.7557043E3,6.2758856E2,5.424789E2,2.2132256E3,5.514655E2,7.6123085E1,1.7702969E1,5.247759E2,7.7642255E2,1.436803E3,3.5996957E2,1.9149591E2,4.0589413E1,3.5533672E1],"tree_param":{"num_deleted":"0","num_feature":"18","num_nodes":"15","size_leaf_vector":"1"}},{"base_weights":[3.927099E-3,6.997882E-2,-3.6413154E-1,-3.2984594E-1,1.0590353E-1,-4.5431575E-1,1.4660996E-1,4.004612E-3,-1.7934602E-2,8.152344E-3,1.0363474E-3,-1.2942682E-2,2.3044616E-2,2.5251983E-2,-6.852356E-3],"categories":[],"categories_nodes":[],"categories_segments":[],"categories_sizes":[],"default_left":[0,0,0,0,0,0,0,0,0,0,0,0,0,0,0],"id":43,"left_children":[1,3,5,7,9,11,13,-1,-1,-1,-1,-1,-1,-1,-1],"loss_changes":[8.2607025E1,4.135247E1,2.4001083E1,4.162954E1,3.61643E1,2.559822E1,2.6355267E1,0E0,0E0,0E0,0E0,0E0,0E0,0E0,0E0],"parents":[2147483647,0,0,1,1,2,2,3,3,4,4,5,5,6,6],"right_children":[2,4,6,8,10,12,14,-1,-1,-1,-1,-1,-1,-1,-1],"split_conditions":[1.04E2,-4.3E1,3.2E1,6E0,-1.9E1,6.68533E4,1.076E2,4.004612E-3,-1.7934602E-2,8.152344E-3,1.0363474E-3,-1.2942682E-2,2.3044616E-2,2.5251983E-2,-6.852356E-3],"split_indices":[9,10,8,8,10,17,17,0,0,0,0,0,0,0,0],"split_type":[0,0,0,0,0,0,0,0,0,0,0,0,0,0,0],"sum_hessian":[3.4058037E3,2.8891028E3,5.1670087E2,2.3668697E2,2.6524158E3,4.402414E2,7.645944E1,1.002493E2,1.3643767E2,6.370519E2,2.0153639E3,4.2680197E2,1.3439437E1,2.5915474E1,5.0543964E1],"tree_param":{"num_deleted":"0","num_feature":"18","num_nodes":"15","size_leaf_vector":"1"}},{"base_weights":[-3.2884495E-3,2.3793839E-1,-3.5099554E-1,6.082816E-1,8.674276E-2,-2.0135137E-1,-5.856754E-1,1.7427858E-2,-7.381874E-4,-1.482869E-3,4.268876E-3,-8.241416E-3,-2.9144963E-4,-1.6007926E-2,-1.0052536E-2],"categories":[],"categories_nodes":[],"categories_segments":[],"categories_sizes":[],"default_left":[0,0,0,0,0,0,0,0,0,0,0,0,0,0,0],"id":44,"left_children":[1,3,5,7,9,11,13,-1,-1,-1,-1,-1,-1,-1,-1],"loss_changes":[2.839511E2,1.1137264E2,4.8209183E1,2.3377747E1,1.589806E1,1.8478958E1,2.5971527E0,0E0,0E0,0E0,0E0,0E0,0E0,0E0,0E0],"parents":[2147483647,0,0,1,1,2,2,3,3,4,4,5,5,6,6],"right_children":[2,4,6,8,10,12,14,-1,-1,-1,-1,-1,-1,-1,-1],"split_conditions":[8E0,-3.2E1,3.3E1,8.3961E4,-1.9E1,5.3962E4,7.801E4,1.7427858E-2,-7.381874E-4,-1.482869E-3,4.268876E-3,-8.241416E-3,-2.9144963E-4,-1.6007926E-2,-1.0052536E-2],"split_indices":[10,10,10,7,10,7,7,0,0,0,0,0,0,0,0],"split_type":[0,0,0,0,0,0,0,0,0,0,0,0,0,0,0],"sum_hessian":[3.3844604E3,1.9970841E3,1.3873763E3,5.7770374E2,1.4193804E3,8.488788E2,5.384975E2,5.2705536E2,5.064835E1,4.942841E2,9.250963E2,5.254105E2,3.2346826E2,4.642592E2,7.423832E1],"tree_param":{"num_deleted":"0","num_feature":"18","num_nodes":"15","size_leaf_vector":"1"}},{"base_weights":[-2.1386738E-3,-1.4581499E-1,6.287948E-1,-5.3250885E-1,-5.198328E-2,6.918913E-1,-2.2450082E-1,2.8339366E-4,-1.4350176E-2,-4.7648167E-3,4.659101E-4,2.7046058E-2,1.5813595E-2,2.9558491E-2,-9.709136E-3],"categories":[],"categories_nodes":[],"categories_segments":[],"categories_sizes":[],"default_left":[0,0,0,0,0,0,0,0,0,0,0,0,0,0,0],"id":45,"left_children":[1,3,5,7,9,11,13,-1,-1,-1,-1,-1,-1,-1,-1],"loss_changes":[3.06487E2,9.967404E1,3.405893E1,6.1168365E0,2.0504314E1,1.59123535E1,8.132207E0,0E0,0E0,0E0,0E0,0E0,0E0,0E0,0E0],"parents":[2147483647,0,0,1,1,2,2,3,3,4,4,5,5,6,6],"right_children":[2,4,6,8,10,12,14,-1,-1,-1,-1,-1,-1,-1,-1],"split_conditions":[3.4E1,-3E1,2.11E2,-1.23E2,-7E0,2.241E2,6.5668E4,2.8339366E-4,-1.4350176E-2,-4.7648167E-3,4.659101E-4,2.7046058E-2,1.5813595E-2,2.9558491E-2,-9.709136E-3],"split_indices":[10,10,10,10,10,17,7,0,0,0,0,0,0,0,0],"split_type":[0,0,0,0,0,0,0,0,0,0,0,0,0,0,0],"sum_hessian":[3.3844375E3,2.757531E3,6.269064E2,5.370965E2,2.2204346E3,5.8445416E2,4.2452198E1,1.767859E1,5.194179E2,7.7440466E2,1.4460299E3,1.1111821E2,4.7333597E2,3.753004E0,3.8699192E1],"tree_param":{"num_deleted":"0","num_feature":"18","num_nodes":"15","size_leaf_vector":"1"}},{"base_weights":[4.220931E-3,6.967751E-2,-3.6127812E-1,-3.254189E-1,1.049752E-1,-4.509325E-1,1.4454795E-1,3.9937207E-3,-1.7821288E-2,3.5948448E-3,-7.430643E-3,-1.8252423E-2,-5.896318E-3,1.0958676E-2,-1.7807694E-2],"categories":[],"categories_nodes":[],"categories_segments":[],"categories_sizes":[],"default_left":[0,0,0,0,0,0,0,0,0,0,0,0,0,0,0],"id":46,"left_children":[1,3,5,7,9,11,13,-1,-1,-1,-1,-1,-1,-1,-1],"loss_changes":[8.123633E1,4.013356E1,2.3574875E1,4.0987953E1,3.451091E1,2.4122643E1,1.7431969E1,0E0,0E0,0E0,0E0,0E0,0E0,0E0,0E0],"parents":[2147483647,0,0,1,1,2,2,3,3,4,4,5,5,6,6],"right_children":[2,4,6,8,10,12,14,-1,-1,-1,-1,-1,-1,-1,-1],"split_conditions":[1.04E2,-4.3E1,3.2E1,6E0,5.3E1,3E0,1.26E2,3.9937207E-3,-1.7821288E-2,3.5948448E-3,-7.430643E-3,-1.8252423E-2,-5.896318E-3,1.0958676E-2,-1.7807694E-2],"split_indices":[9,10,8,8,10,10,9,0,0,0,0,0,0,0,0],"split_type":[0,0,0,0,0,0,0,0,0,0,0,0,0,0,0],"sum_hessian":[3.4034746E3,2.8880486E3,5.154262E2,2.3533672E2,2.6527117E3,4.3891922E2,7.650697E1,1.0025907E2,1.3507765E2,2.4456267E3,2.0708502E2,2.0539609E2,2.3352315E2,5.7942436E1,1.8564537E1],"tree_param":{"num_deleted":"0","num_feature":"18","num_nodes":"15","size_leaf_vector":"1"}},{"base_weights":[-3.1848215E-3,-3.6639843E-2,1.6619529E-1,-5.1064204E-2,4.3817335E-1,1.2190362E-1,6.518775E-1,-1.5032336E-3,1.6180826E-2,1.7288556E-2,-1.4426538E-2,4.1928585E-3,-7.1229436E-3,1.9148702E-2,-1.2685251E-2],"categories":[],"categories_nodes":[],"categories_segments":[],"categories_sizes":[],"default_left":[0,0,0,0,0,0,0,0,0,0,0,0,0,0,0],"id":47,"left_children":[1,3,5,7,9,11,13,-1,-1,-1,-1,-1,-1,-1,-1],"loss_changes":[1.9065199E1,1.9097492E1,1.1416479E1,1.21767E1,1.8571514E1,7.8819227E0,4.5365353E0,0E0,0E0,0E0,0E0,0E0,0E0,0E0,0E0],"parents":[2147483647,0,0,1,1,2,2,3,3,4,4,5,5,6,6],"right_children":[2,4,6,8,10,12,14,-1,-1,-1,-1,-1,-1,-1,-1],"split_conditions":[1.04E2,1.017365E5,7.6416E4,3.6E1,5.8E1,6.9963E4,1E0,-1.5032336E-3,1.6180826E-2,1.7288556E-2,-1.4426538E-2,4.1928585E-3,-7.1229436E-3,1.9148702E-2,-1.2685251E-2],"split_indices":[9,17,7,8,9,7,4,0,0,0,0,0,0,0,0],"split_type":[0,0,0,0,0,0,0,0,0,0,0,0,0,0,0],"sum_hessian":[3.3793494E3,2.8251865E3,5.541629E2,2.7432295E3,8.195688E1,5.0908896E2,4.507394E1,2.7168381E3,2.6391497E1,6.72391E1,1.4717777E1,4.6446436E2,4.462461E1,4.2479443E1,2.5944958E0],"tree_param":{"num_deleted":"0","num_feature":"18","num_nodes":"15","size_leaf_vector":"1"}},{"base_weights":[6.627403E-4,-1.4208756E-1,6.2132245E-1,-5.32834E-1,-4.7386266E-2,7.067128E-1,-0E0,2.2890005E-4,-1.4361599E-2,-4.5579807E-3,5.0861796E-4,6.945713E-3,2.0899007E-2,1.1872347E-2,-8.770071E-3],"categories":[],"categories_nodes":[],"categories_segments":[],"categories_sizes":[],"default_left":[0,0,0,0,0,0,0,0,0,0,0,0,0,0,0],"id":48,"left_children":[1,3,5,7,9,11,13,-1,-1,-1,-1,-1,-1,-1,-1],"loss_changes":[2.9901736E2,1.0101854E2,3.344525E1,6.0910187E0,1.9020699E1,2.3091522E1,1.1787576E1,0E0,0E0,0E0,0E0,0E0,0E0,0E0,0E0],"parents":[2147483647,0,0,1,1,2,2,3,3,4,4,5,5,6,6],"right_children":[2,4,6,8,10,12,14,-1,-1,-1,-1,-1,-1,-1,-1],"split_conditions":[3.4E1,-3E1,8.9E1,-1.23E2,-7E0,2.4E1,3.3E1,2.2890005E-4,-1.4361599E-2,-4.5579807E-3,5.0861796E-4,6.945713E-3,2.0899007E-2,1.1872347E-2,-8.770071E-3],"split_indices":[10,10,10,10,10,9,9,0,0,0,0,0,0,0,0],"split_type":[0,0,0,0,0,0,0,0,0,0,0,0,0,0,0],"sum_hessian":[3.3713972E3,2.740131E3,6.3126624E2,5.3319586E2,2.206935E3,5.548967E2,7.6369514E1,1.7702333E1,5.154935E2,7.612225E2,1.4457126E3,1.0204686E2,4.5284988E2,3.252848E1,4.3841034E1],"tree_param":{"num_deleted":"0","num_feature":"18","num_nodes":"15","size_leaf_vector":"1"}},{"base_weights":[-3.9767236E-3,5.8731306E-2,-3.5647714E-1,-3.2453862E-1,9.318083E-2,-4.458196E-1,1.4321758E-1,3.86516E-3,-1.7762097E-2,3.9074426E-3,-4.600423E-3,-1.2724762E-2,2.2830313E-2,2.4596518E-2,-6.7811506E-3],"categories":[],"categories_nodes":[],"categories_segments":[],"categories_sizes":[],"default_left":[0,0,0,0,0,0,0,0,0,0,0,0,0,0,0],"id":49,"left_children":[1,3,5,7,9,11,13,-1,-1,-1,-1,-1,-1,-1,-1],"loss_changes":[7.488875E1,3.770706E1,2.3051552E1,4.02648E1,4.0666977E1,2.5056053E1,2.530393E1,0E0,0E0,0E0,0E0,0E0,0E0,0E0,0E0],"parents":[2147483647,0,0,1,1,2,2,3,3,4,4,5,5,6,6],"right_children":[2,4,6,8,10,12,14,-1,-1,-1,-1,-1,-1,-1,-1],"split_conditions":[1.04E2,-4.3E1,3.2E1,6E0,3.4E1,6.68533E4,1.076E2,3.86516E-3,-1.7762097E-2,3.9074426E-3,-4.600423E-3,-1.2724762E-2,2.2830313E-2,2.4596518E-2,-6.7811506E-3],"split_indices":[9,10,8,8,10,17,17,0,0,0,0,0,0,0,0],"split_type":[0,0,0,0,0,0,0,0,0,0,0,0,0,0,0],"sum_hessian":[3.3791345E3,2.867229E3,5.1190564E2,2.3489627E2,2.6323328E3,4.3536868E2,7.6536964E1,1.00544304E2,1.3435197E2,2.174501E3,4.5783163E2,4.218868E2,1.3481865E1,2.615343E1,5.0383533E1],"tree_param":{"num_deleted":"0","num_feature":"18","num_nodes":"15","size_leaf_vector":"1"}},{"base_weights":[-2.0335824E-3,2.3316951E-1,-3.4424484E-1,6.015898E-1,9.245089E-2,-1.9645442E-1,-5.784888E-1,1.4068566E-2,2.7719004E-2,1.2506092E-3,9.536349E-3,-1.1182866E-2,-3.9885994E-3,-1.6152097E-2,-1.1413543E-2],"categories":[],"categories_nodes":[],"categories_segments":[],"categories_sizes":[],"default_left":[0,0,0,0,0,0,0,0,0,0,0,0,0,0,0],"id":50,"left_children":[1,3,5,7,9,11,13,-1,-1,-1,-1,-1,-1,-1,-1],"loss_changes":[2.7243518E2,1.03460045E2,4.725113E1,1.4416336E1,1.739416E1,8.135208E0,2.5001984E0,0E0,0E0,0E0,0E0,0E0,0E0,0E0,0E0],"parents":[2147483647,0,0,1,1,2,2,3,3,4,4,5,5,6,6],"right_children":[2,4,6,8,10,12,14,-1,-1,-1,-1,-1,-1,-1,-1],"split_conditions":[8E0,-3.3E1,3.3E1,1E0,1.1E2,2.3E1,6.1E1,1.4068566E-2,2.7719004E-2,1.2506092E-3,9.536349E-3,-1.1182866E-2,-3.9885994E-3,-1.6152097E-2,-1.1413543E-2],"split_indices":[10,10,10,2,9,9,10,0,0,0,0,0,0,0,0],"split_type":[0,0,0,0,0,0,0,0,0,0,0,0,0,0,0],"sum_hessian":[3.3838276E3,2.0043381E3,1.3794895E3,5.526826E2,1.4516555E3,8.475475E2,5.319421E2,4.9063727E2,6.2045372E1,1.2519326E3,1.9972282E2,1.291308E2,7.184167E2,4.0258087E2,1.2936119E2],"tree_param":{"num_deleted":"0","num_feature":"18","num_nodes":"15","size_leaf_vector":"1"}},{"base_weights":[-1.2829977E-4,-1.3921334E-1,6.031472E-1,-5.238762E-1,-4.6850014E-2,6.643994E-1,-2.2723123E-1,3.052985E-4,-1.4127546E-2,-5.780336E-3,8.119564E-6,-7.5733988E-3,1.794823E-2,2.8654438E-2,-9.7328285E-3],"categories":[],"categories_nodes":[],"categories_segments":[],"categories_sizes":[],"default_left":[0,0,0,0,0,0,0,0,0,0,0,0,0,0,0],"id":51,"left_children":[1,3,5,7,9,11,13,-1,-1,-1,-1,-1,-1,-1,-1],"loss_changes":[2.819325E2,9.677614E1,3.229512E1,5.950836E0,1.8416908E1,1.5029572E1,7.8589354E0,0E0,0E0,0E0,0E0,0E0,0E0,0E0,0E0],"parents":[2147483647,0,0,1,1,2,2,3,3,4,4,5,5,6,6],"right_children":[2,4,6,8,10,12,14,-1,-1,-1,-1,-1,-1,-1,-1],"split_conditions":[3.4E1,-3E1,2.11E2,-1.23E2,-1.6E1,5.22E2,6.5668E4,3.052985E-4,-1.4127546E-2,-5.780336E-3,8.119564E-6,-7.5733988E-3,1.794823E-2,2.8654438E-2,-9.7328285E-3],"split_indices":[10,10,10,10,10,7,7,0,0,0,0,0,0,0,0],"split_type":[0,0,0,0,0,0,0,0,0,0,0,0,0,0,0],"sum_hessian":[3.3636587E3,2.734343E3,6.293157E2,5.2805865E2,2.2062844E3,5.8681586E2,4.249983E1,1.7664803E1,5.1039386E2,4.700176E2,1.7362668E3,1.506413E1,5.717517E2,3.7917657E0,3.870806E1],"tree_param":{"num_deleted":"0","num_feature":"18","num_nodes":"15","size_leaf_vector":"1"}},{"base_weights":[3.8675535E-3,-3.6609188E-1,3.5643954E-2,1.413272E-1,-1.7665826E-2,7.6694556E-2,-2.4900173E-1,-3.5411264E-3,2.6772572E-2,-7.413397E-3,2.9416338E-3,-9.808496E-3,1.942401E-2],"categories":[],"categories_nodes":[],"categories_segments":[],"categories_sizes":[],"default_left":[0,0,0,0,0,0,0,0,0,0,0,0,0],"id":52,"left_children":[1,3,5,7,-1,9,11,-1,-1,-1,-1,-1,-1],"loss_changes":[3.9789673E1,4.29476E1,3.6524654E1,2.5618061E1,0E0,3.6132988E1,5.009945E1,0E0,0E0,0E0,0E0,0E0,0E0],"parents":[2147483647,0,0,1,1,2,2,3,3,5,5,6,6],"right_children":[2,4,6,8,-1,10,12,-1,-1,-1,-1,-1,-1],"split_conditions":[-4.3E1,6E0,4.1E1,1E0,-1.7665826E-2,7.086E3,2.11E2,-3.5411264E-3,2.6772572E-2,-7.413397E-3,2.9416338E-3,-9.808496E-3,1.942401E-2],"split_indices":[10,8,10,4,0,7,10,0,0,0,0,0,0],"split_type":[0,0,0,0,0,0,0,0,0,0,0,0,0],"sum_hessian":[3.402921E3,2.6753464E2,3.1353862E3,1.0143106E2,1.6610359E2,2.7422092E3,3.9317706E2,7.6742035E1,2.4689022E1,2.4960974E2,2.4925994E3,3.4886087E2,4.431618E1],"tree_param":{"num_deleted":"0","num_feature":"18","num_nodes":"13","size_leaf_vector":"1"}},{"base_weights":[-2.4472543E-3,2.2950862E-1,-3.419582E-1,5.7449704E-1,8.835713E-2,-1.9636786E-1,-5.738633E-1,1.6508635E-2,-1.1576804E-3,-1.488863E-3,4.336396E-3,-8.094033E-3,-2.0241916E-4,-1.5709776E-2,-9.681258E-3],"categories":[],"categories_nodes":[],"categories_segments":[],"categories_sizes":[],"default_left":[0,0,0,0,0,0,0,0,0,0,0,0,0,0,0],"id":53,"left_children":[1,3,5,7,9,11,13,-1,-1,-1,-1,-1,-1,-1,-1],"loss_changes":[2.6632162E2,9.732172E1,4.5868225E1,2.2282623E1,1.6380966E1,1.8147282E1,2.626007E0,0E0,0E0,0E0,0E0,0E0,0E0,0E0,0E0],"parents":[2147483647,0,0,1,1,2,2,3,3,4,4,5,5,6,6],"right_children":[2,4,6,8,10,12,14,-1,-1,-1,-1,-1,-1,-1,-1],"split_conditions":[8E0,-3.2E1,3.3E1,8.3961E4,-1.9E1,5.3962E4,7.801E4,1.6508635E-2,-1.1576804E-3,-1.488863E-3,4.336396E-3,-8.094033E-3,-2.0241916E-4,-1.5709776E-2,-9.681258E-3],"split_indices":[10,10,10,7,10,7,7,0,0,0,0,0,0,0,0],"split_type":[0,0,0,0,0,0,0,0,0,0,0,0,0,0,0],"sum_hessian":[3.3808467E3,2.007438E3,1.3734088E3,5.81515E2,1.425923E3,8.4545575E2,5.2795306E2,5.304452E2,5.106981E1,4.9656888E2,9.2935406E2,5.228176E2,3.2263812E2,4.552273E2,7.2725784E1],"tree_param":{"num_deleted":"0","num_feature":"18","num_nodes":"15","size_leaf_vector":"1"}},{"base_weights":[-2.4774468E-3,-1.3895625E-1,5.880651E-1,-5.1825833E-1,-4.9175855E-2,6.712471E-1,-1.3443802E-2,3.3543044E-4,-1.3983953E-2,-4.537397E-3,4.4509638E-4,6.1152102E-3,1.9953735E-2,-9.614384E-3,9.963086E-3],"categories":[],"categories_nodes":[],"categories_segments":[],"categories_sizes":[],"default_left":[0,0,0,0,0,0,0,0,0,0,0,0,0,0,0],"id":54,"left_children":[1,3,5,7,9,11,13,-1,-1,-1,-1,-1,-1,-1,-1],"loss_changes":[2.705879E2,9.262837E1,3.1951965E1,5.8539886E0,1.8481216E1,2.2706299E1,1.0690347E1,0E0,0E0,0E0,0E0,0E0,0E0,0E0,0E0],"parents":[2147483647,0,0,1,1,2,2,3,3,4,4,5,5,6,6],"right_children":[2,4,6,8,10,12,14,-1,-1,-1,-1,-1,-1,-1,-1],"split_conditions":[3.4E1,-3E1,8.9E1,-1.23E2,-7E0,2.4E1,3.998E2,3.3543044E-4,-1.3983953E-2,-4.537397E-3,4.4509638E-4,6.1152102E-3,1.9953735E-2,-9.614384E-3,9.963086E-3],"split_indices":[10,10,10,10,10,9,17,0,0,0,0,0,0,0,0],"split_type":[0,0,0,0,0,0,0,0,0,0,0,0,0,0,0],"sum_hessian":[3.3609255E3,2.730903E3,6.3002234E2,5.2128656E2,2.2096165E3,5.5443225E2,7.559014E1,1.764805E1,5.036385E2,7.6746045E2,1.4421561E3,1.0185748E2,4.5257474E2,4.0681828E1,3.490831E1],"tree_param":{"num_deleted":"0","num_feature":"18","num_nodes":"15","size_leaf_vector":"1"}},{"base_weights":[5.1681926E-3,6.765443E-2,-3.5022703E-1,-3.1405246E-1,1.0108757E-1,-4.1328803E-1,3.5333276E-1,4.088825E-3,-1.754845E-2,7.717087E-3,9.950652E-4,-1.6207114E-2,-1.640492E-3,1.8407376E-2,-1.7275548E-2],"categories":[],"categories_nodes":[],"categories_segments":[],"categories_sizes":[],"default_left":[0,0,0,0,0,0,0,0,0,0,0,0,0,0,0],"id":55,"left_children":[1,3,5,7,9,11,13,-1,-1,-1,-1,-1,-1,-1,-1],"loss_changes":[7.522468E1,3.6736027E1,2.2499012E1,3.9704155E1,3.2482246E1,3.3845932E1,1.4780472E1,0E0,0E0,0E0,0E0,0E0,0E0,0E0,0E0],"parents":[2147483647,0,0,1,1,2,2,3,3,4,4,5,5,6,6],"right_children":[2,4,6,8,10,12,14,-1,-1,-1,-1,-1,-1,-1,-1],"split_conditions":[1.04E2,-4.3E1,3.8E1,6E0,-1.9E1,1.9E1,-1.9E1,4.088825E-3,-1.754845E-2,7.717087E-3,9.950652E-4,-1.6207114E-2,-1.640492E-3,1.8407376E-2,-1.7275548E-2],"split_indices":[9,10,8,8,10,10,10,0,0,0,0,0,0,0,0],"split_type":[0,0,0,0,0,0,0,0,0,0,0,0,0,0,0],"sum_hessian":[3.3956526E3,2.889462E3,5.0619052E2,2.311267E2,2.6583352E3,4.654051E2,4.0785427E1,9.950082E1,1.3162589E2,6.427372E2,2.015598E3,2.895354E2,1.7586972E2,3.0716259E1,1.0069167E1],"tree_param":{"num_deleted":"0","num_feature":"18","num_nodes":"15","size_leaf_vector":"1"}},{"base_weights":[-2.2128704E-3,-1.2294948E-2,5.251695E-1,-2.3819638E-2,4.317335E-1,-2.4761704E-1,6.113301E-1,-2.0376681E-3,1.1966137E-3,1.7026702E-2,-1.4331603E-2,-1.5932184E-2,1.741149E-2,1.8708093E-2,3.0979705E-3],"categories":[],"categories_nodes":[],"categories_segments":[],"categories_sizes":[],"default_left":[0,0,0,0,0,0,0,0,0,0,0,0,0,0,0],"id":56,"left_children":[1,3,5,7,9,11,13,-1,-1,-1,-1,-1,-1,-1,-1],"loss_changes":[1.7546513E1,1.6626387E1,4.3578014E0,1.2300701E1,1.811108E1,1.7962021E0,2.4692593E0,0E0,0E0,0E0,0E0,0E0,0E0,0E0,0E0],"parents":[2147483647,0,0,1,1,2,2,3,3,4,4,5,5,6,6],"right_children":[2,4,6,8,10,12,14,-1,-1,-1,-1,-1,-1,-1,-1],"split_conditions":[1.52E2,1.017365E5,1.076E2,1E0,5.8E1,6.1357E4,3.1E1,-2.0376681E-3,1.1966137E-3,1.7026702E-2,-1.4331603E-2,-1.5932184E-2,1.741149E-2,1.8708093E-2,3.0979705E-3],"split_indices":[9,17,17,16,9,7,8,0,0,0,0,0,0,0,0],"split_type":[0,0,0,0,0,0,0,0,0,0,0,0,0,0,0],"sum_hessian":[3.3628125E3,3.3009514E3,6.186118E1,3.218881E3,8.207023E1,5.4453063E0,5.6415874E1,1.8121431E3,1.406738E3,6.7411026E1,1.46592045E1,4.403908E0,1.0413986E0,4.5125973E1,1.1289902E1],"tree_param":{"num_deleted":"0","num_feature":"18","num_nodes":"15","size_leaf_vector":"1"}},{"base_weights":[-3.4401522E-4,-1.3683523E-1,5.860746E-1,-5.187883E-1,-4.6983216E-2,6.6741985E-1,-0E0,2.8888782E-4,-1.4000557E-2,-4.4895937E-3,5.04756E-4,1.3412614E-2,2.4725428E-2,1.1475709E-2,-8.828847E-3],"categories":[],"categories_nodes":[],"categories_segments":[],"categories_sizes":[],"default_left":[0,0,0,0,0,0,0,0,0,0,0,0,0,0,0],"id":57,"left_children":[1,3,5,7,9,11,13,-1,-1,-1,-1,-1,-1,-1,-1],"loss_changes":[2.6870444E2,9.322354E1,3.0520493E1,5.837387E0,1.855489E1,2.2979584E1,1.1438228E1,0E0,0E0,0E0,0E0,0E0,0E0,0E0,0E0],"parents":[2147483647,0,0,1,1,2,2,3,3,4,4,5,5,6,6],"right_children":[2,4,6,8,10,12,14,-1,-1,-1,-1,-1,-1,-1,-1],"split_conditions":[3.4E1,-3E1,8.9E1,-1.23E2,-7E0,5.3E1,3.3E1,2.8888782E-4,-1.4000557E-2,-4.4895937E-3,5.04756E-4,1.3412614E-2,2.4725428E-2,1.1475709E-2,-8.828847E-3],"split_indices":[10,10,10,10,10,10,9,0,0,0,0,0,0,0,0],"split_type":[0,0,0,0,0,0,0,0,0,0,0,0,0,0,0],"sum_hessian":[3.3607227E3,2.7270977E3,6.336251E2,5.179683E2,2.2091294E3,5.5709894E2,7.652615E1,1.7667643E1,5.0030066E2,7.666582E2,1.4424712E3,3.6507925E2,1.9201968E2,3.2675003E1,4.3851154E1],"tree_param":{"num_deleted":"0","num_feature":"18","num_nodes":"15","size_leaf_vector":"1"}},{"base_weights":[4.516852E-3,6.6768214E-2,-3.489055E-1,-3.14903E-1,1.0026154E-1,-4.978692E-1,-6.940982E-2,-1.17746545E-2,5.8204974E-3,3.425574E-3,-7.141471E-3,-1.5921837E-2,-6.6878606E-4,1.3457625E-2,-1.780076E-2],"categories":[],"categories_nodes":[],"categories_segments":[],"categories_sizes":[],"default_left":[0,0,0,0,0,0,0,0,0,0,0,0,0,0,0],"id":58,"left_children":[1,3,5,7,9,11,13,-1,-1,-1,-1,-1,-1,-1,-1],"loss_changes":[7.456481E1,3.680795E1,2.0749165E1,1.7403872E1,3.1390207E1,1.744735E1,6.443153E1,0E0,0E0,0E0,0E0,0E0,0E0,0E0,0E0],"parents":[2147483647,0,0,1,1,2,2,3,3,4,4,5,5,6,6],"right_children":[2,4,6,8,10,12,14,-1,-1,-1,-1,-1,-1,-1,-1],"split_conditions":[1.04E2,-4.3E1,1.9E1,1E0,5.3E1,1E0,2.9E1,-1.17746545E-2,5.8204974E-3,3.425574E-3,-7.141471E-3,-1.5921837E-2,-6.6878606E-4,1.3457625E-2,-1.780076E-2],"split_indices":[9,10,10,4,10,0,10,0,0,0,0,0,0,0,0],"split_type":[0,0,0,0,0,0,0,0,0,0,0,0,0,0,0],"sum_hessian":[3.3974858E3,2.890251E3,5.0723495E2,2.3159558E2,2.6586553E3,3.293584E2,1.7787654E2,1.8527846E2,4.6317127E1,2.45387E3,2.0478523E2,2.6379324E2,6.5565155E1,9.04916E1,8.738494E1],"tree_param":{"num_deleted":"0","num_feature":"18","num_nodes":"15","size_leaf_vector":"1"}},{"base_weights":[-2.9157384E-3,2.2239164E-1,-3.3593142E-1,5.572272E-1,8.479755E-2,-1.9364274E-1,-5.6643844E-1,1.51524665E-2,-1.5777988E-2,-1.5692655E-3,4.2325E-3,-1.1007029E-2,-3.9375643E-3,-1.5854744E-2,-1.1089767E-2],"categories":[],"categories_nodes":[],"categories_segments":[],"categories_sizes":[],"default_left":[0,0,0,0,0,0,0,0,0,0,0,0,0,0,0],"id":59,"left_children":[1,3,5,7,9,11,13,-1,-1,-1,-1,-1,-1,-1,-1],"loss_changes":[2.5291536E2,9.212929E1,4.414406E1,1.759488E1,1.6224257E1,7.790661E0,2.4835205E0,0E0,0E0,0E0,0E0,0E0,0E0,0E0,0E0],"parents":[2147483647,0,0,1,1,2,2,3,3,4,4,5,5,6,6],"right_children":[2,4,6,8,10,12,14,-1,-1,-1,-1,-1,-1,-1,-1],"split_conditions":[8E0,-3.2E1,3.3E1,5E1,-1.9E1,2.3E1,6.1E1,1.51524665E-2,-1.5777988E-2,-1.5692655E-3,4.2325E-3,-1.1007029E-2,-3.9375643E-3,-1.5854744E-2,-1.1089767E-2],"split_indices":[10,10,10,8,10,9,10,0,0,0,0,0,0,0,0],"split_type":[0,0,0,0,0,0,0,0,0,0,0,0,0,0,0],"sum_hessian":[3.3698132E3,2.0087838E3,1.3610293E3,5.836672E2,1.4251167E3,8.433089E2,5.177204E2,5.7151587E2,1.2151315E1,4.9549518E2,9.2962146E2,1.2811403E2,7.151949E2,3.907075E2,1.2701288E2],"tree_param":{"num_deleted":"0","num_feature":"18","num_nodes":"15","size_leaf_vector":"1"}},{"base_weights":[-3.1613796E-3,-1.3734774E-1,5.703922E-1,-5.1090187E-1,-4.9810912E-2,6.283827E-1,-2.2588556E-1,3.1141864E-2,-1.3457765E-2,-4.6303784E-3,4.5041452E-4,-7.9920795E-3,1.699404E-2,2.7781952E-2,-9.651643E-3],"categories":[],"categories_nodes":[],"categories_segments":[],"categories_sizes":[],"default_left":[0,0,0,0,0,0,0,0,0,0,0,0,0,0,0],"id":60,"left_children":[1,3,5,7,9,11,13,-1,-1,-1,-1,-1,-1,-1,-1],"loss_changes":[2.5827277E2,8.869026E1,2.9633072E1,5.7428284E0,1.9137308E1,1.446344E1,7.54523E0,0E0,0E0,0E0,0E0,0E0,0E0,0E0,0E0],"parents":[2147483647,0,0,1,1,2,2,3,3,4,4,5,5,6,6],"right_children":[2,4,6,8,10,12,14,-1,-1,-1,-1,-1,-1,-1,-1],"split_conditions":[3.4E1,-3E1,2.11E2,-2.69E2,-7E0,5.22E2,6.5668E4,3.1141864E-2,-1.3457765E-2,-4.6303784E-3,4.5041452E-4,-7.9920795E-3,1.699404E-2,2.7781952E-2,-9.651643E-3],"split_indices":[10,10,10,10,10,7,7,0,0,0,0,0,0,0,0],"split_type":[0,0,0,0,0,0,0,0,0,0,0,0,0,0,0],"sum_hessian":[3.359448E3,2.723428E3,6.3602014E2,5.156143E2,2.2078137E3,5.9360925E2,4.2410923E1,1.7207716E0,5.1389355E2,7.614823E2,1.4463313E3,1.5137731E1,5.784715E2,3.827108E0,3.8583813E1],"tree_param":{"num_deleted":"0","num_feature":"18","num_nodes":"15","size_leaf_vector":"1"}},{"base_weights":[5.4903533E-3,-3.55988E-1,3.615029E-2,1.4313024E-1,-1.74398E-2,7.500791E-2,-2.3709986E-1,-3.3436457E-3,2.601884E-2,-7.2458982E-3,2.8640053E-3,-9.476613E-3,1.8927947E-2],"categories":[],"categories_nodes":[],"categories_segments":[],"categories_sizes":[],"default_left":[0,0,0,0,0,0,0,0,0,0,0,0,0],"id":61,"left_children":[1,3,5,7,-1,9,11,-1,-1,-1,-1,-1,-1],"loss_changes":[3.738242E1,4.180028E1,3.310982E1,2.4177471E1,0E0,3.404184E1,4.7492577E1,0E0,0E0,0E0,0E0,0E0,0E0],"parents":[2147483647,0,0,1,1,2,2,3,3,5,5,6,6],"right_children":[2,4,6,8,-1,10,12,-1,-1,-1,-1,-1,-1],"split_conditions":[-4.3E1,6E0,4.1E1,1E0,-1.74398E-2,7.086E3,2.11E2,-3.3436457E-3,2.601884E-2,-7.2458982E-3,2.8640053E-3,-9.476613E-3,1.8927947E-2],"split_indices":[10,8,10,4,0,7,10,0,0,0,0,0,0],"split_type":[0,0,0,0,0,0,0,0,0,0,0,0,0],"sum_hessian":[3.391757E3,2.635214E2,3.1282358E3,1.0119838E2,1.62323E2,2.7408608E3,3.8737485E2,7.628567E1,2.4912714E1,2.4637157E2,2.4944893E3,3.4275714E2,4.46177E1],"tree_param":{"num_deleted":"0","num_feature":"18","num_nodes":"13","size_leaf_vector":"1"}},{"base_weights":[-0E0,2.1809147E-1,-3.2671726E-1,5.5552447E-1,8.846158E-2,-1.8020242E-1,-5.619087E-1,5.7664253E-3,1.769285E-2,1.2006955E-3,9.086417E-3,-6.374546E-3,3.5409823E-3,-1.5415758E-2,-9.293729E-3],"categories":[],"categories_nodes":[],"categories_segments":[],"categories_sizes":[],"default_left":[0,0,0,0,0,0,0,0,0,0,0,0,0,0,0],"id":62,"left_children":[1,3,5,7,9,11,13,-1,-1,-1,-1,-1,-1,-1,-1],"loss_changes":[2.3903217E2,8.762155E1,4.5774704E1,2.2717361E1,1.5807777E1,1.715293E1,2.6679688E0,0E0,0E0,0E0,0E0,0E0,0E0,0E0,0E0],"parents":[2147483647,0,0,1,1,2,2,3,3,4,4,5,5,6,6],"right_children":[2,4,6,8,10,12,14,-1,-1,-1,-1,-1,-1,-1,-1],"split_conditions":[8E0,-3.3E1,3.3E1,6E0,1.1E2,7.0258E4,7.801E4,5.7664253E-3,1.769285E-2,1.2006955E-3,9.086417E-3,-6.374546E-3,3.5409823E-3,-1.5415758E-2,-9.293729E-3],"split_indices":[10,10,10,8,9,7,7,0,0,0,0,0,0,0,0],"split_type":[0,0,0,0,0,0,0,0,0,0,0,0,0,0,0],"sum_hessian":[3.3551863E3,2.0127618E3,1.3424244E3,5.572247E2,1.4555371E3,8.2886194E2,5.1356256E2,1.5363618E2,4.035885E2,1.2550361E3,2.0050099E2,6.8912665E2,1.3973528E2,4.4243057E2,7.113201E1],"tree_param":{"num_deleted":"0","num_feature":"18","num_nodes":"15","size_leaf_vector":"1"}},{"base_weights":[6.855926E-4,-1.5081924E-1,4.8970994E-1,-5.3587943E-1,-6.783097E-2,9.1257966E-1,4.147105E-1,5.343765E-4,-1.45488605E-2,-6.611234E-3,-2.7087724E-4,2.4352103E-2,5.573522E-3,-3.1404018E-3,1.2964917E-2],"categories":[],"categories_nodes":[],"categories_segments":[],"categories_sizes":[],"default_left":[0,0,0,0,0,0,0,0,0,0,0,0,0,0,0],"id":63,"left_children":[1,3,5,7,9,11,13,-1,-1,-1,-1,-1,-1,-1,-1],"loss_changes":[2.4804477E2,8.118021E1,2.4256546E1,6.38356E0,2.2338808E1,1.2745819E0,3.066211E1,0E0,0E0,0E0,0E0,0E0,0E0,0E0,0E0],"parents":[2147483647,0,0,1,1,2,2,3,3,4,4,5,5,6,6],"right_children":[2,4,6,8,10,12,14,-1,-1,-1,-1,-1,-1,-1,-1],"split_conditions":[2.8E1,-3.2E1,1.917E2,-1.23E2,1.721E2,7.2E1,2.368E2,5.343765E-4,-1.45488605E-2,-6.611234E-3,-2.7087724E-4,2.4352103E-2,5.573522E-3,-3.1404018E-3,1.2964917E-2],"split_indices":[10,10,17,10,17,10,17,0,0,0,0,0,0,0,0],"split_type":[0,0,0,0,0,0,0,0,0,0,0,0,0,0,0],"sum_hessian":[3.3449075E3,2.5527222E3,7.921855E2,4.5121524E2,2.1015068E3,1.18012184E2,6.741733E2,1.7553183E1,4.3366205E2,4.9173987E2,1.609767E3,1.1309141E2,4.920778E0,9.057458E1,5.835987E2],"tree_param":{"num_deleted":"0","num_feature":"18","num_nodes":"15","size_leaf_vector":"1"}},{"base_weights":[5.312686E-3,6.630351E-2,-3.4382805E-1,-3.052064E-1,9.840112E-2,-4.3236658E-1,1.4180928E-1,3.838254E-3,-1.73182E-2,7.484135E-3,9.7133487E-4,-1.2393497E-2,2.3132002E-2,2.364394E-2,-6.5756547E-3],"categories":[],"categories_nodes":[],"categories_segments":[],"categories_sizes":[],"default_left":[0,0,0,0,0,0,0,0,0,0,0,0,0,0,0],"id":64,"left_children":[1,3,5,7,9,11,13,-1,-1,-1,-1,-1,-1,-1,-1],"loss_changes":[7.2030014E1,3.430819E1,2.1804668E1,3.7660923E1,3.0569304E1,2.4876373E1,2.3599104E1,0E0,0E0,0E0,0E0,0E0,0E0,0E0,0E0],"parents":[2147483647,0,0,1,1,2,2,3,3,4,4,5,5,6,6],"right_children":[2,4,6,8,10,12,14,-1,-1,-1,-1,-1,-1,-1,-1],"split_conditions":[1.04E2,-4.3E1,3.2E1,6E0,-1.9E1,6.68533E4,1.076E2,3.838254E-3,-1.73182E-2,7.484135E-3,9.7133487E-4,-1.2393497E-2,2.3132002E-2,2.364394E-2,-6.5756547E-3],"split_indices":[9,10,8,8,10,17,17,0,0,0,0,0,0,0,0],"split_type":[0,0,0,0,0,0,0,0,0,0,0,0,0,0,0],"sum_hessian":[3.391053E3,2.8883623E3,5.0269052E2,2.280824E2,2.66028E3,4.2631027E2,7.6380226E1,1.0040722E2,1.2767517E2,6.450519E2,2.0152281E3,4.1288837E2,1.3421916E1,2.6489536E1,4.989069E1],"tree_param":{"num_deleted":"0","num_feature":"18","num_nodes":"15","size_leaf_vector":"1"}},{"base_weights":[-6.143362E-4,2.1368079E-1,-3.339022E-1,5.4326403E-1,8.874041E-2,-1.9243483E-1,-5.569436E-1,1.6257463E-2,1.4205929E-3,1.2343304E-3,8.96252E-3,-6.497918E-3,2.358452E-3,-1.529547E-2,-9.070183E-3],"categories":[],"categories_nodes":[],"categories_segments":[],"categories_sizes":[],"default_left":[0,0,0,0,0,0,0,0,0,0,0,0,0,0,0],"id":65,"left_children":[1,3,5,7,9,11,13,-1,-1,-1,-1,-1,-1,-1,-1],"loss_changes":[2.3923186E2,8.346225E1,4.0895966E1,2.203888E1,1.5362465E1,1.3232592E1,2.7294312E0,0E0,0E0,0E0,0E0,0E0,0E0,0E0,0E0],"parents":[2147483647,0,0,1,1,2,2,3,3,4,4,5,5,6,6],"right_children":[2,4,6,8,10,12,14,-1,-1,-1,-1,-1,-1,-1,-1],"split_conditions":[9E0,-3.3E1,3.3E1,8.2056E4,1.1E2,7.0258E4,7.801E4,1.6257463E-2,1.4205929E-3,1.2343304E-3,8.96252E-3,-6.497918E-3,2.358452E-3,-1.529547E-2,-9.070183E-3],"split_indices":[10,10,10,7,9,7,7,0,0,0,0,0,0,0,0],"split_type":[0,0,0,0,0,0,0,0,0,0,0,0,0,0,0],"sum_hessian":[3.3484414E3,2.0368505E3,1.311591E3,5.5845233E2,1.4783981E3,8.0435406E2,5.0723682E2,4.767237E2,8.1728645E1,1.2756105E3,2.0278763E2,6.70252E2,1.3410207E2,4.3740182E2,6.983501E1],"tree_param":{"num_deleted":"0","num_feature":"18","num_nodes":"15","size_leaf_vector":"1"}},{"base_weights":[-3.322583E-3,-1.3171415E-1,5.443367E-1,-5.305791E-1,-5.31188E-2,6.224562E-1,-1.3390424E-2,1.6231657E-3,-1.4423478E-2,-4.5385025E-3,4.0479263E-4,4.8817894E-3,1.8662412E-2,1.0813012E-2,-9.0725E-3],"categories":[],"categories_nodes":[],"categories_segments":[],"categories_sizes":[],"default_left":[0,0,0,0,0,0,0,0,0,0,0,0,0,0,0],"id":66,"left_children":[1,3,5,7,9,11,13,-1,-1,-1,-1,-1,-1,-1,-1],"loss_changes":[2.3522946E2,8.4703735E1,2.806749E1,6.792717E0,1.9046452E1,2.2633072E1,1.1064046E1,0E0,0E0,0E0,0E0,0E0,0E0,0E0,0E0],"parents":[2147483647,0,0,1,1,2,2,3,3,4,4,5,5,6,6],"right_children":[2,4,6,8,10,12,14,-1,-1,-1,-1,-1,-1,-1,-1],"split_conditions":[3.4E1,-3.2E1,8.9E1,-1.23E2,-7E0,2.4E1,3.3E1,1.6231657E-3,-1.4423478E-2,-4.5385025E-3,4.0479263E-4,4.8817894E-3,1.8662412E-2,1.0813012E-2,-9.0725E-3],"split_indices":[10,10,10,10,10,9,9,0,0,0,0,0,0,0,0],"split_type":[0,0,0,0,0,0,0,0,0,0,0,0,0,0,0],"sum_hessian":[3.3491785E3,2.7140913E3,6.350872E2,4.4539746E2,2.2686938E3,5.580844E2,7.700284E1,1.6615036E1,4.287824E2,8.226609E2,1.446033E3,1.0199811E2,4.560863E2,3.2932156E1,4.4070683E1],"tree_param":{"num_deleted":"0","num_feature":"18","num_nodes":"15","size_leaf_vector":"1"}},{"base_weights":[5.6250836E-3,6.586063E-2,-3.4043917E-1,-3.0253714E-1,9.761723E-2,-4.0280503E-1,3.4443727E-1,3.8175283E-3,-1.7221058E-2,3.328016E-3,-6.9666314E-3,-1.5947098E-2,-1.3335958E-3,1.7884796E-2,-1.7109249E-2],"categories":[],"categories_nodes":[],"categories_segments":[],"categories_sizes":[],"default_left":[0,0,0,0,0,0,0,0,0,0,0,0,0,0,0],"id":67,"left_children":[1,3,5,7,9,11,13,-1,-1,-1,-1,-1,-1,-1,-1],"loss_changes":[7.0456955E1,3.365129E1,2.1428364E1,3.7176456E1,2.954367E1,3.3655403E1,1.4136941E1,0E0,0E0,0E0,0E0,0E0,0E0,0E0,0E0],"parents":[2147483647,0,0,1,1,2,2,3,3,4,4,5,5,6,6],"right_children":[2,4,6,8,10,12,14,-1,-1,-1,-1,-1,-1,-1,-1],"split_conditions":[1.04E2,-4.3E1,3.8E1,6E0,5.3E1,1.9E1,-1.9E1,3.8175283E-3,-1.7221058E-2,3.328016E-3,-6.9666314E-3,-1.5947098E-2,-1.3335958E-3,1.7884796E-2,-1.7109249E-2],"split_indices":[9,10,8,8,10,10,10,0,0,0,0,0,0,0,0],"split_type":[0,0,0,0,0,0,0,0,0,0,0,0,0,0,0],"sum_hessian":[3.3885415E3,2.8877861E3,5.007554E2,2.2754347E2,2.6602427E3,4.5983667E2,4.0918713E1,1.0042879E2,1.27114685E2,2.4573665E3,2.0287614E2,2.8622534E2,1.7361134E2,3.0956995E1,9.961718E0],"tree_param":{"num_deleted":"0","num_feature":"18","num_nodes":"15","size_leaf_vector":"1"}},{"base_weights":[-2.5367006E-3,-1.346193E-2,4.2579207E-1,-4.6489052E-2,1.4766042E-1,6.4683324E-1,-5.4920465E-1,-1.386989E-3,1.7117474E-2,2.7290387E-3,1.586324E-2,-1.6454209E-2,1.9427523E-2,-1.8063055E-2,3.1878776E-3],"categories":[],"categories_nodes":[],"categories_segments":[],"categories_sizes":[],"default_left":[0,0,0,0,0,0,0,0,0,0,0,0,0,0,0],"id":68,"left_children":[1,3,5,7,9,11,13,-1,-1,-1,-1,-1,-1,-1,-1],"loss_changes":[1.5453569E1,1.7375822E1,1.7756435E1,1.283649E1,1.0469471E1,8.78524E0,1.8081627E0,0E0,0E0,0E0,0E0,0E0,0E0,0E0,0E0],"parents":[2147483647,0,0,1,1,2,2,3,3,4,4,5,5,6,6],"right_children":[2,4,6,8,10,12,14,-1,-1,-1,-1,-1,-1,-1,-1],"split_conditions":[1.017365E5,1.04E2,5.8E1,3.6E1,7.6416E4,6.782E3,7.4102E4,-1.386989E-3,1.7117474E-2,2.7290387E-3,1.586324E-2,-1.6454209E-2,1.9427523E-2,-1.8063055E-2,3.1878776E-3],"split_indices":[17,9,9,8,7,7,7,0,0,0,0,0,0,0,0],"split_type":[0,0,0,0,0,0,0,0,0,0,0,0,0,0,0],"sum_hessian":[3.3597021E3,3.2776301E3,8.207203E1,2.7234265E3,5.542036E2,6.745123E1,1.46208E1,2.6980059E3,2.5420597E1,5.0875604E2,4.5447613E1,4.4497166E0,6.3001514E1,1.2807856E1,1.812945E0],"tree_param":{"num_deleted":"0","num_feature":"18","num_nodes":"15","size_leaf_vector":"1"}},{"base_weights":[-1.8580296E-3,-1.2976885E-1,5.38507E-1,-5.281367E-1,-5.112831E-2,6.1576366E-1,-1.5069506E-2,5.127815E-4,-1.4350109E-2,-4.3631173E-3,3.6291228E-4,1.22303525E-2,2.2975933E-2,-9.829426E-3,9.781614E-3],"categories":[],"categories_nodes":[],"categories_segments":[],"categories_sizes":[],"default_left":[0,0,0,0,0,0,0,0,0,0,0,0,0,0,0],"id":69,"left_children":[1,3,5,7,9,11,13,-1,-1,-1,-1,-1,-1,-1,-1],"loss_changes":[2.3026863E2,8.414282E1,2.7652496E1,6.2062607E0,1.7239147E1,2.0940323E1,1.0957649E1,0E0,0E0,0E0,0E0,0E0,0E0,0E0,0E0],"parents":[2147483647,0,0,1,1,2,2,3,3,4,4,5,5,6,6],"right_children":[2,4,6,8,10,12,14,-1,-1,-1,-1,-1,-1,-1,-1],"split_conditions":[3.4E1,-3.2E1,8.9E1,-1.23E2,-7E0,5.3E1,3.998E2,5.127815E-4,-1.4350109E-2,-4.3631173E-3,3.6291228E-4,1.22303525E-2,2.2975933E-2,-9.829426E-3,9.781614E-3],"split_indices":[10,10,10,10,10,10,17,0,0,0,0,0,0,0,0],"split_type":[0,0,0,0,0,0,0,0,0,0,0,0,0,0,0],"sum_hessian":[3.3353374E3,2.6979197E3,6.3741754E2,4.434105E2,2.2545093E3,5.6038605E2,7.703151E1,1.7558405E1,4.2585208E2,8.1047076E2,1.4440386E3,3.653707E2,1.9501534E2,4.0823086E1,3.6208427E1],"tree_param":{"num_deleted":"0","num_feature":"18","num_nodes":"15","size_leaf_vector":"1"}},{"base_weights":[1.2289999E-3,5.97054E-2,-3.3598813E-1,-3.0171987E-1,9.089574E-2,-4.8499572E-1,-6.1806414E-2,-1.1430811E-2,7.2006327E-3,7.232163E-3,7.7682297E-4,-9.278124E-4,-1.5716005E-2,1.2937627E-2,-1.751471E-2],"categories":[],"categories_nodes":[],"categories_segments":[],"categories_sizes":[],"default_left":[0,0,0,0,0,0,0,0,0,0,0,0,0,0,0],"id":70,"left_children":[1,3,5,7,9,11,13,-1,-1,-1,-1,-1,-1,-1,-1],"loss_changes":[6.639537E1,3.2316376E1,1.9960442E1,1.826814E1,3.0118216E1,1.684526E1,6.0649952E1,0E0,0E0,0E0,0E0,0E0,0E0,0E0,0E0],"parents":[2147483647,0,0,1,1,2,2,3,3,4,4,5,5,6,6],"right_children":[2,4,6,8,10,12,14,-1,-1,-1,-1,-1,-1,-1,-1],"split_conditions":[1.04E2,-4.3E1,1.9E1,8.1817E4,-1.9E1,1.1857E4,2.9E1,-1.1430811E-2,7.2006327E-3,7.232163E-3,7.7682297E-4,-9.278124E-4,-1.5716005E-2,1.2937627E-2,-1.751471E-2],"split_indices":[9,10,10,7,10,7,10,0,0,0,0,0,0,0,0],"split_type":[0,0,0,0,0,0,0,0,0,0,0,0,0,0,0],"sum_hessian":[3.3761414E3,2.8788606E3,4.9728073E2,2.2703862E2,2.651822E3,3.2064154E2,1.7663918E2,1.8419258E2,4.2846043E1,6.4850616E2,2.0033158E3,6.8656975E1,2.5198457E2,9.172374E1,8.4915436E1],"tree_param":{"num_deleted":"0","num_feature":"18","num_nodes":"15","size_leaf_vector":"1"}},{"base_weights":[-5.435336E-4,2.1374187E-1,-3.2366678E-1,5.1751035E-1,8.735521E-2,-1.8720993E-1,-5.505661E-1,1.495221E-2,-1.8685993E-3,1.3546961E-2,1.4733551E-3,-8.047405E-3,-2.7639046E-4,-1.5133845E-2,-8.964552E-3],"categories":[],"categories_nodes":[],"categories_segments":[],"categories_sizes":[],"default_left":[0,0,0,0,0,0,0,0,0,0,0,0,0,0,0],"id":71,"left_children":[1,3,5,7,9,11,13,-1,-1,-1,-1,-1,-1,-1,-1],"loss_changes":[2.3166116E2,7.6767715E1,4.0848923E1,2.0435379E1,1.852546E1,1.7859137E1,2.6647644E0,0E0,0E0,0E0,0E0,0E0,0E0,0E0,0E0],"parents":[2147483647,0,0,1,1,2,2,3,3,4,4,5,5,6,6],"right_children":[2,4,6,8,10,12,14,-1,-1,-1,-1,-1,-1,-1,-1],"split_conditions":[8E0,-3.2E1,3.3E1,8.3961E4,2.1E1,5.2498E4,7.801E4,1.495221E-2,-1.8685993E-3,1.3546961E-2,1.4733551E-3,-8.047405E-3,-2.7639046E-4,-1.5133845E-2,-8.964552E-3],"split_indices":[10,10,10,7,9,7,7,0,0,0,0,0,0,0,0],"split_type":[0,0,0,0,0,0,0,0,0,0,0,0,0,0,0],"sum_hessian":[3.3446902E3,2.009824E3,1.3348661E3,5.88997E2,1.420827E3,8.353656E2,4.9950046E2,5.373066E2,5.1690434E1,9.2324844E1,1.3285022E3,4.910362E2,3.443294E2,4.2973325E2,6.976723E1],"tree_param":{"num_deleted":"0","num_feature":"18","num_nodes":"15","size_leaf_vector":"1"}},{"base_weights":[-1.0465105E-3,-1.2666193E-1,5.280627E-1,-5.226565E-1,-4.994359E-2,5.8318764E-1,-2.304071E-1,5.765034E-4,-1.4214024E-2,-4.4230786E-3,4.5629975E-4,2.375719E-2,1.309084E-2,2.2188404E-3,-1.5542751E-2],"categories":[],"categories_nodes":[],"categories_segments":[],"categories_sizes":[],"default_left":[0,0,0,0,0,0,0,0,0,0,0,0,0,0,0],"id":72,"left_children":[1,3,5,7,9,11,13,-1,-1,-1,-1,-1,-1,-1,-1],"loss_changes":[2.2143654E2,8.1550385E1,2.6946823E1,6.132622E0,1.8451614E1,1.4751968E1,5.270032E0,0E0,0E0,0E0,0E0,0E0,0E0,0E0,0E0],"parents":[2147483647,0,0,1,1,2,2,3,3,4,4,5,5,6,6],"right_children":[2,4,6,8,10,12,14,-1,-1,-1,-1,-1,-1,-1,-1],"split_conditions":[3.4E1,-3.2E1,2.11E2,-1.23E2,-7E0,2.241E2,1E0,5.765034E-4,-1.4214024E-2,-4.4230786E-3,4.5629975E-4,2.375719E-2,1.309084E-2,2.2188404E-3,-1.5542751E-2],"split_indices":[10,10,10,10,10,17,5,0,0,0,0,0,0,0,0],"split_type":[0,0,0,0,0,0,0,0,0,0,0,0,0,0,0],"sum_hessian":[3.335578E3,2.6966145E3,6.3896344E2,4.3625732E2,2.2603572E3,5.964731E2,4.249038E1,1.7527401E1,4.1872992E2,8.160273E2,1.44433E3,1.1376174E2,4.8271133E2,2.1910685E1,2.0579697E1],"tree_param":{"num_deleted":"0","num_feature":"18","num_nodes":"15","size_leaf_vector":"1"}},{"base_weights":[1.3092129E-3,5.8994245E-2,-3.3285365E-1,-3.7263173E-1,8.991367E-2,-4.210511E-1,1.4442934E-1,3.8702737E-3,-1.8857382E-2,3.2723907E-2,2.073847E-3,-1.7659253E-2,-5.123328E-3,1.0539048E-2,-1.7380139E-2],"categories":[],"categories_nodes":[],"categories_segments":[],"categories_sizes":[],"default_left":[0,0,0,0,0,0,0,0,0,0,0,0,0,0,0],"id":73,"left_children":[1,3,5,7,9,11,13,-1,-1,-1,-1,-1,-1,-1,-1],"loss_changes":[6.4873436E1,3.8245995E1,2.1023708E1,3.556649E1,3.089107E1,2.368589E1,1.599064E1,0E0,0E0,0E0,0E0,0E0,0E0,0E0,0E0],"parents":[2147483647,0,0,1,1,2,2,3,3,4,4,5,5,6,6],"right_children":[2,4,6,8,10,12,14,-1,-1,-1,-1,-1,-1,-1,-1],"split_conditions":[1.04E2,4.312E3,3.2E1,6E0,4.439E3,3E0,1.26E2,3.8702737E-3,-1.8857382E-2,3.2723907E-2,2.073847E-3,-1.7659253E-2,-5.123328E-3,1.0539048E-2,-1.7380139E-2],"split_indices":[9,7,8,8,7,10,9,0,0,0,0,0,0,0,0],"split_type":[0,0,0,0,0,0,0,0,0,0,0,0,0,0,0],"sum_hessian":[3.3747039E3,2.8795728E3,4.9513116E2,1.910739E2,2.6884988E3,4.1905872E2,7.607247E1,7.639029E1,1.1468362E2,2.246542E1,2.6660334E3,1.9311232E2,2.2594638E2,5.8191677E1,1.7880795E1],"tree_param":{"num_deleted":"0","num_feature":"18","num_nodes":"15","size_leaf_vector":"1"}},{"base_weights":[-8.6839905E-4,2.0459825E-1,-3.1600633E-1,5.061885E-1,7.991004E-2,-1.7705521E-1,-5.4619074E-1,1.4627407E-2,-1.8730378E-3,4.612494E-3,-7.2861026E-4,-6.279632E-3,3.5062463E-3,-1.5023603E-2,-8.830679E-3],"categories":[],"categories_nodes":[],"categories_segments":[],"categories_sizes":[],"default_left":[0,0,0,0,0,0,0,0,0,0,0,0,0,0,0],"id":74,"left_children":[1,3,5,7,9,11,13,-1,-1,-1,-1,-1,-1,-1,-1],"loss_changes":[2.1649747E2,7.565613E1,4.1760696E1,1.9675644E1,1.5185996E1,1.6703815E1,2.6689453E0,0E0,0E0,0E0,0E0,0E0,0E0,0E0,0E0],"parents":[2147483647,0,0,1,1,2,2,3,3,4,4,5,5,6,6],"right_children":[2,4,6,8,10,12,14,-1,-1,-1,-1,-1,-1,-1,-1],"split_conditions":[8E0,-3.2E1,3.3E1,8.3961E4,5.574E2,7.0258E4,7.801E4,1.4627407E-2,-1.8730378E-3,4.612494E-3,-7.2861026E-4,-6.279632E-3,3.5062463E-3,-1.5023603E-2,-8.830679E-3],"split_indices":[10,10,10,7,17,7,7,0,0,0,0,0,0,0,0],"split_type":[0,0,0,0,0,0,0,0,0,0,0,0,0,0,0],"sum_hessian":[3.342434E3,2.0220289E3,1.3204053E3,5.899158E2,1.4321132E3,8.251487E2,4.9525662E2,5.382323E2,5.168346E1,7.552817E2,6.768315E2,6.853117E2,1.39837E2,4.2604712E2,6.920952E1],"tree_param":{"num_deleted":"0","num_feature":"18","num_nodes":"15","size_leaf_vector":"1"}},{"base_weights":[-2.6462087E-3,-1.259453E-1,5.170273E-1,-5.1826215E-1,-5.059943E-2,5.9313864E-1,-3.6115836E-2,6.410358E-4,-1.4101649E-2,-4.3309554E-3,3.7449345E-4,4.7270926E-3,1.7815895E-2,1.0346305E-2,-1.0001635E-2],"categories":[],"categories_nodes":[],"categories_segments":[],"categories_sizes":[],"default_left":[0,0,0,0,0,0,0,0,0,0,0,0,0,0,0],"id":75,"left_children":[1,3,5,7,9,11,13,-1,-1,-1,-1,-1,-1,-1,-1],"loss_changes":[2.133883E2,7.9317795E1,2.7238922E1,6.0803146E0,1.7175804E1,2.0817535E1,1.1533371E1,0E0,0E0,0E0,0E0,0E0,0E0,0E0,0E0],"parents":[2147483647,0,0,1,1,2,2,3,3,4,4,5,5,6,6],"right_children":[2,4,6,8,10,12,14,-1,-1,-1,-1,-1,-1,-1,-1],"split_conditions":[3.4E1,-3.2E1,8.9E1,-1.23E2,-7E0,2.4E1,3.3E1,6.410358E-4,-1.4101649E-2,-4.3309554E-3,3.7449345E-4,4.7270926E-3,1.7815895E-2,1.0346305E-2,-1.0001635E-2],"split_indices":[10,10,10,10,10,9,9,0,0,0,0,0,0,0,0],"split_type":[0,0,0,0,0,0,0,0,0,0,0,0,0,0,0],"sum_hessian":[3.334232E3,2.6958645E3,6.383676E2,4.329337E2,2.2629307E3,5.621886E2,7.617907E1,1.7494719E1,4.15439E2,8.1600336E2,1.4469274E3,1.0453081E2,4.5765778E2,3.3098644E1,4.3080425E1],"tree_param":{"num_deleted":"0","num_feature":"18","num_nodes":"15","size_leaf_vector":"1"}},{"base_weights":[5.8764596E-3,6.314821E-2,-3.292223E-1,-2.9498583E-1,9.354733E-2,-4.1710064E-1,1.4269248E-1,3.841695E-3,-1.7086703E-2,3.1985021E-3,-6.85391E-3,-1.7568085E-2,-5.071021E-3,1.0375247E-2,-1.7274173E-2],"categories":[],"categories_nodes":[],"categories_segments":[],"categories_sizes":[],"default_left":[0,0,0,0,0,0,0,0,0,0,0,0,0,0,0],"id":76,"left_children":[1,3,5,7,9,11,13,-1,-1,-1,-1,-1,-1,-1,-1],"loss_changes":[6.476253E1,3.1346786E1,2.0591866E1,3.638681E1,2.80618E1,2.3350609E1,1.559948E1,0E0,0E0,0E0,0E0,0E0,0E0,0E0,0E0],"parents":[2147483647,0,0,1,1,2,2,3,3,4,4,5,5,6,6],"right_children":[2,4,6,8,10,12,14,-1,-1,-1,-1,-1,-1,-1,-1],"split_conditions":[1.04E2,-4.3E1,3.2E1,6E0,5.3E1,3E0,1.26E2,3.841695E-3,-1.7086703E-2,3.1985021E-3,-6.85391E-3,-1.7568085E-2,-5.071021E-3,1.0375247E-2,-1.7274173E-2],"split_indices":[9,10,8,8,10,10,9,0,0,0,0,0,0,0,0],"split_type":[0,0,0,0,0,0,0,0,0,0,0,0,0,0,0],"sum_hessian":[3.3835198E3,2.8913157E3,4.9220398E2,2.2453624E2,2.6667795E3,4.1610037E2,7.6103584E1,1.0027635E2,1.2425989E2,2.4648027E3,2.0197662E2,1.9065948E2,2.254409E2,5.8367332E1,1.7736252E1],"tree_param":{"num_deleted":"0","num_feature":"18","num_nodes":"15","size_leaf_vector":"1"}},{"base_weights":[-3.3789675E-3,-1.4202963E-2,4.1859534E-1,-2.3902997E-2,4.6781793E-1,6.357564E-1,-5.450407E-1,-1.2658557E-2,-4.522361E-4,-6.628097E-3,1.42174475E-2,1.7805101E-2,-1.1277872E-2,-1.7948322E-2,3.0144593E-3],"categories":[],"categories_nodes":[],"categories_segments":[],"categories_sizes":[],"default_left":[0,0,0,0,0,0,0,0,0,0,0,0,0,0,0],"id":77,"left_children":[1,3,5,7,9,11,13,-1,-1,-1,-1,-1,-1,-1,-1],"loss_changes":[1.5015792E1,1.496786E1,1.7254757E1,9.305551E0,3.8070765E0,3.743433E0,1.7775636E0,0E0,0E0,0E0,0E0,0E0,0E0,0E0,0E0],"parents":[2147483647,0,0,1,1,2,2,3,3,4,4,5,5,6,6],"right_children":[2,4,6,8,10,12,14,-1,-1,-1,-1,-1,-1,-1,-1],"split_conditions":[1.017365E5,1.52E2,5.8E1,4E0,1.076E2,1E0,1E0,-1.2658557E-2,-4.522361E-4,-6.628097E-3,1.42174475E-2,1.7805101E-2,-1.1277872E-2,-1.7948322E-2,3.0144593E-3],"split_indices":[17,9,9,9,17,12,14,0,0,0,0,0,0,0,0],